<?xml version="1.0"?>
<MethodSetup Method="BDT::BDTG">
  <GeneralInfo>
    <Info name="TMVA Release" value="4.2.0 [262656]"/>
    <Info name="ROOT Release" value="6.02/05 [393733]"/>
    <Info name="Creator" value="kelmorab"/>
    <Info name="Date" value="Sat Oct 10 23:16:24 2015"/>
    <Info name="Host" value="Linux cmsbuild32.cern.ch 2.6.32-504.8.1.el6.x86_64 #1 SMP Wed Jan 28 08:50:46 CET 2015 x86_64 x86_64 x86_64 GNU/Linux"/>
    <Info name="Dir" value="/nfs/dust/cms/user/kelmorab/ThesisPlots/TTH_Analysis_Chain/3makeHistosAndCards"/>
    <Info name="Training events" value="251504"/>
    <Info name="TrainingTime" value="4.23862895e+02"/>
    <Info name="AnalysisType" value="Classification"/>
  </GeneralInfo>
  <Options>
    <Option name="V" modified="Yes">False</Option>
    <Option name="VerbosityLevel" modified="No">Default</Option>
    <Option name="VarTransform" modified="No">None</Option>
    <Option name="H" modified="Yes">False</Option>
    <Option name="CreateMVAPdfs" modified="No">False</Option>
    <Option name="IgnoreNegWeightsInTraining" modified="No">False</Option>
    <Option name="NTrees" modified="Yes">1244</Option>
    <Option name="MaxDepth" modified="Yes">2</Option>
    <Option name="MinNodeSize" modified="No">5%</Option>
    <Option name="nCuts" modified="Yes">63</Option>
    <Option name="BoostType" modified="Yes">Grad</Option>
    <Option name="AdaBoostR2Loss" modified="No">quadratic</Option>
    <Option name="UseBaggedBoost" modified="Yes">True</Option>
    <Option name="Shrinkage" modified="Yes">2.809529e-02</Option>
    <Option name="AdaBoostBeta" modified="No">5.000000e-01</Option>
    <Option name="UseRandomisedTrees" modified="No">False</Option>
    <Option name="UseNvars" modified="No">3</Option>
    <Option name="UsePoissonNvars" modified="No">True</Option>
    <Option name="BaggedSampleFraction" modified="No">6.295185e-01</Option>
    <Option name="UseYesNoLeaf" modified="No">True</Option>
    <Option name="NegWeightTreatment" modified="Yes">ignorenegweightsintraining</Option>
    <Option name="Css" modified="No">1.000000e+00</Option>
    <Option name="Cts_sb" modified="No">1.000000e+00</Option>
    <Option name="Ctb_ss" modified="No">1.000000e+00</Option>
    <Option name="Cbb" modified="No">1.000000e+00</Option>
    <Option name="NodePurityLimit" modified="No">5.000000e-01</Option>
    <Option name="SeparationType" modified="No">giniindex</Option>
    <Option name="DoBoostMonitor" modified="No">False</Option>
    <Option name="UseFisherCuts" modified="No">False</Option>
    <Option name="MinLinCorrForFisher" modified="No">8.000000e-01</Option>
    <Option name="UseExclusiveVars" modified="No">False</Option>
    <Option name="DoPreselection" modified="No">False</Option>
    <Option name="SigToBkgFraction" modified="No">1.000000e+00</Option>
    <Option name="PruneMethod" modified="No">nopruning</Option>
    <Option name="PruneStrength" modified="No">0.000000e+00</Option>
    <Option name="PruningValFraction" modified="No">5.000000e-01</Option>
    <Option name="nEventsMin" modified="No">0</Option>
    <Option name="UseBaggedGrad" modified="No">False</Option>
    <Option name="GradBaggingFraction" modified="Yes">6.295185e-01</Option>
    <Option name="UseNTrainEvents" modified="No">0</Option>
    <Option name="NNodesMax" modified="No">0</Option>
  </Options>
  <Variables NVar="9">
    <Variable VarIndex="0" Expression="BDTOhio_v2_input_h1" Label="BDTOhio_v2_input_h1" Title="BDTOhio_v2_input_h1" Unit="" Internal="BDTOhio_v2_input_h1" Type="F" Min="-1.93785459e-01" Max="3.82014871e-01"/>
    <Variable VarIndex="1" Expression="BDTOhio_v2_input_avg_dr_tagged_jets" Label="BDTOhio_v2_input_avg_dr_tagged_jets" Title="BDTOhio_v2_input_avg_dr_tagged_jets" Unit="" Internal="BDTOhio_v2_input_avg_dr_tagged_jets" Type="F" Min="3.93839806e-01" Max="5.37668085e+00"/>
    <Variable VarIndex="2" Expression="BDTOhio_v2_input_sphericity" Label="BDTOhio_v2_input_sphericity" Title="BDTOhio_v2_input_sphericity" Unit="" Internal="BDTOhio_v2_input_sphericity" Type="F" Min="8.32204334e-03" Max="9.65820670e-01"/>
    <Variable VarIndex="3" Expression="BDTOhio_v2_input_third_highest_btag" Label="BDTOhio_v2_input_third_highest_btag" Title="BDTOhio_v2_input_third_highest_btag" Unit="" Internal="BDTOhio_v2_input_third_highest_btag" Type="F" Min="-1.00000001e-01" Max="8.89999330e-01"/>
    <Variable VarIndex="4" Expression="BDTOhio_v2_input_h3" Label="BDTOhio_v2_input_h3" Title="BDTOhio_v2_input_h3" Unit="" Internal="BDTOhio_v2_input_h3" Type="F" Min="-2.36774795e-02" Max="1.09978890e+00"/>
    <Variable VarIndex="5" Expression="BDTOhio_v2_input_HT" Label="BDTOhio_v2_input_HT" Title="BDTOhio_v2_input_HT" Unit="" Internal="BDTOhio_v2_input_HT" Type="F" Min="2.01805008e+02" Max="5.55383740e+03"/>
    <Variable VarIndex="6" Expression="BDTOhio_v2_input_Mlb" Label="BDTOhio_v2_input_Mlb" Title="BDTOhio_v2_input_Mlb" Unit="" Internal="BDTOhio_v2_input_Mlb" Type="F" Min="1.50019217e+01" Max="2.59281714e+03"/>
    <Variable VarIndex="7" Expression="BDTOhio_v2_input_fifth_highest_CSV" Label="BDTOhio_v2_input_fifth_highest_CSV" Title="BDTOhio_v2_input_fifth_highest_CSV" Unit="" Internal="BDTOhio_v2_input_fifth_highest_CSV" Type="F" Min="-1.00000001e-01" Max="8.86321425e-01"/>
    <Variable VarIndex="8" Expression="BDTOhio_v2_input_fourth_highest_btag" Label="BDTOhio_v2_input_fourth_highest_btag" Title="BDTOhio_v2_input_fourth_highest_btag" Unit="" Internal="BDTOhio_v2_input_fourth_highest_btag" Type="F" Min="-1.00000001e-01" Max="8.89308035e-01"/>
  </Variables>
  <Spectators NSpec="0"/>
  <Classes NClass="2">
    <Class Name="Signal" Index="0"/>
    <Class Name="Background" Index="1"/>
  </Classes>
  <Transformations NTransformations="0"/>
  <MVAPdfs/>
  <Weights NTrees="1244" AnalysisType="1">
    <BinaryTree type="DecisionTree" boostWeight="1.0000000000000000e+00" itree="0">
      <Node pos="s" depth="0" NCoef="0" IVar="3" Cut="7.0674920082092285e-01" cType="1" res="-9.0198160614818335e-04" rms="4.9999919533729553e-01" purity="4.9909803271293640e-01" nType="0">
        <Node pos="l" depth="1" NCoef="0" IVar="5" Cut="4.5360504150390625e+02" cType="1" res="-7.2139710187911987e-02" rms="4.9476850032806396e-01" purity="4.2786028981208801e-01" nType="0">
          <Node pos="l" depth="2" NCoef="0" IVar="-1" Cut="0.0000000000000000e+00" cType="1" res="-8.4257023409008980e-03" rms="4.7524252533912659e-01" purity="3.4461489319801331e-01" nType="-99"/>
          <Node pos="r" depth="2" NCoef="0" IVar="-1" Cut="0.0000000000000000e+00" cType="1" res="-1.2128992239013314e-03" rms="4.9937513470649719e-01" purity="4.7501036524772644e-01" nType="-99"/>
        </Node>
        <Node pos="r" depth="1" NCoef="0" IVar="8" Cut="5.9560722112655640e-01" cType="1" res="9.8071373999118805e-02" rms="4.9028766155242920e-01" purity="5.9807139635086060e-01" nType="0">
          <Node pos="l" depth="2" NCoef="0" IVar="-1" Cut="0.0000000000000000e+00" cType="1" res="2.2608647122979164e-03" rms="4.9741286039352417e-01" purity="5.5079805850982666e-01" nType="-99"/>
          <Node pos="r" depth="2" NCoef="0" IVar="-1" Cut="0.0000000000000000e+00" cType="1" res="6.9473758339881897e-03" rms="4.6827283501625061e-01" purity="6.7527282238006592e-01" nType="-99"/>
        </Node>
      </Node>
    </BinaryTree>
    <BinaryTree type="DecisionTree" boostWeight="1.0000000000000000e+00" itree="1">
      <Node pos="s" depth="0" NCoef="0" IVar="3" Cut="6.8890571594238281e-01" cType="1" res="3.5896468034479767e-05" rms="4.9950835108757019e-01" purity="4.9976083636283875e-01" nType="0">
        <Node pos="l" depth="1" NCoef="0" IVar="6" Cut="1.3814338684082031e+02" cType="1" res="-7.3345147073268890e-02" rms="4.9409985542297363e-01" purity="4.2472574114799500e-01" nType="0">
          <Node pos="l" depth="2" NCoef="0" IVar="-1" Cut="0.0000000000000000e+00" cType="1" res="-5.1081990823149681e-03" rms="4.8962864279747009e-01" purity="3.9954128861427307e-01" nType="-99"/>
          <Node pos="r" depth="2" NCoef="0" IVar="-1" Cut="0.0000000000000000e+00" cType="1" res="3.2119806855916977e-03" rms="4.9472516775131226e-01" purity="5.7097870111465454e-01" nType="-99"/>
        </Node>
        <Node pos="r" depth="1" NCoef="0" IVar="5" Cut="4.9272259521484375e+02" cType="1" res="9.1784164309501648e-02" rms="4.9099621176719666e-01" purity="5.9357714653015137e-01" nType="0">
          <Node pos="l" depth="2" NCoef="0" IVar="-1" Cut="0.0000000000000000e+00" cType="1" res="5.4012692999094725e-04" rms="4.9964588880538940e-01" purity="5.1345580816268921e-01" nType="-99"/>
          <Node pos="r" depth="2" NCoef="0" IVar="-1" Cut="0.0000000000000000e+00" cType="1" res="5.7641621679067612e-03" rms="4.7931611537933350e-01" purity="6.4187395572662354e-01" nType="-99"/>
        </Node>
      </Node>
    </BinaryTree>
    <BinaryTree type="DecisionTree" boostWeight="1.0000000000000000e+00" itree="2">
      <Node pos="s" depth="0" NCoef="0" IVar="3" Cut="7.1084123849868774e-01" cType="1" res="-9.5632439479231834e-04" rms="4.9906152486801147e-01" purity="4.9852424860000610e-01" nType="0">
        <Node pos="l" depth="1" NCoef="0" IVar="6" Cut="1.3954847717285156e+02" cType="1" res="-6.6686600446701050e-02" rms="4.9463430047035217e-01" purity="4.2970758676528931e-01" nType="0">
          <Node pos="l" depth="2" NCoef="0" IVar="-1" Cut="0.0000000000000000e+00" cType="1" res="-4.6923113986849785e-03" rms="4.9067574739456177e-01" purity="4.0496563911437988e-01" nType="-99"/>
          <Node pos="r" depth="2" NCoef="0" IVar="-1" Cut="0.0000000000000000e+00" cType="1" res="3.3769870642572641e-03" rms="4.9379470944404602e-01" purity="5.7699960470199585e-01" nType="-99"/>
        </Node>
        <Node pos="r" depth="1" NCoef="0" IVar="5" Cut="4.8117449951171875e+02" cType="1" res="9.3289867043495178e-02" rms="4.9019700288772583e-01" purity="5.9719574451446533e-01" nType="0">
          <Node pos="l" depth="2" NCoef="0" IVar="-1" Cut="0.0000000000000000e+00" cType="1" res="8.4018823690712452e-04" rms="4.9944627285003662e-01" purity="5.2075278759002686e-01" nType="-99"/>
          <Node pos="r" depth="2" NCoef="0" IVar="-1" Cut="0.0000000000000000e+00" cType="1" res="5.5382745340466499e-03" rms="4.8017415404319763e-01" purity="6.3900524377822876e-01" nType="-99"/>
        </Node>
      </Node>
    </BinaryTree>
    <BinaryTree type="DecisionTree" boostWeight="1.0000000000000000e+00" itree="3">
      <Node pos="s" depth="0" NCoef="0" IVar="3" Cut="7.1983885765075684e-01" cType="1" res="1.0736178373917937e-03" rms="4.9854859709739685e-01" purity="5.0034111738204956e-01" nType="0">
        <Node pos="l" depth="1" NCoef="0" IVar="5" Cut="4.5268151855468750e+02" cType="1" res="-6.6551975905895233e-02" rms="4.9421390891075134e-01" purity="4.2828613519668579e-01" nType="0">
          <Node pos="l" depth="2" NCoef="0" IVar="-1" Cut="0.0000000000000000e+00" cType="1" res="-7.8639406710863113e-03" rms="4.7572603821754456e-01" purity="3.4675461053848267e-01" nType="-99"/>
          <Node pos="r" depth="2" NCoef="0" IVar="-1" Cut="0.0000000000000000e+00" cType="1" res="-1.0918874759227037e-03" rms="4.9887025356292725e-01" purity="4.7393485903739929e-01" nType="-99"/>
        </Node>
        <Node pos="r" depth="1" NCoef="0" IVar="8" Cut="5.9497296810150146e-01" cType="1" res="1.0201228410005569e-01" rms="4.8781061172485352e-01" purity="6.0789108276367188e-01" nType="0">
          <Node pos="l" depth="2" NCoef="0" IVar="-1" Cut="0.0000000000000000e+00" cType="1" res="2.4966218043118715e-03" rms="4.9592864513397217e-01" purity="5.6152153015136719e-01" nType="-99"/>
          <Node pos="r" depth="2" NCoef="0" IVar="-1" Cut="0.0000000000000000e+00" cType="1" res="6.8749701604247093e-03" rms="4.6554309129714966e-01" purity="6.8183368444442749e-01" nType="-99"/>
        </Node>
      </Node>
    </BinaryTree>
    <BinaryTree type="DecisionTree" boostWeight="1.0000000000000000e+00" itree="4">
      <Node pos="s" depth="0" NCoef="0" IVar="3" Cut="7.6624941825866699e-01" cType="1" res="1.3638418167829514e-03" rms="4.9814060330390930e-01" purity="5.0037372112274170e-01" nType="0">
        <Node pos="l" depth="1" NCoef="0" IVar="5" Cut="5.2245654296875000e+02" cType="1" res="-5.1393259316682816e-02" rms="4.9574694037437439e-01" purity="4.4331076741218567e-01" nType="0">
          <Node pos="l" depth="2" NCoef="0" IVar="-1" Cut="0.0000000000000000e+00" cType="1" res="-5.8820261619985104e-03" rms="4.8468291759490967e-01" purity="3.7965321540832520e-01" nType="-99"/>
          <Node pos="r" depth="2" NCoef="0" IVar="-1" Cut="0.0000000000000000e+00" cType="1" res="4.7577696386724710e-04" rms="4.9924674630165100e-01" purity="5.0782287120819092e-01" nType="-99"/>
        </Node>
        <Node pos="r" depth="1" NCoef="0" IVar="8" Cut="5.3982216119766235e-01" cType="1" res="1.1292976140975952e-01" rms="4.8460516333580017e-01" purity="6.2104529142379761e-01" nType="0">
          <Node pos="l" depth="2" NCoef="0" IVar="-1" Cut="0.0000000000000000e+00" cType="1" res="2.4776454083621502e-03" rms="4.9583679437637329e-01" purity="5.6235098838806152e-01" nType="-99"/>
          <Node pos="r" depth="2" NCoef="0" IVar="-1" Cut="0.0000000000000000e+00" cType="1" res="6.7707132548093796e-03" rms="4.6540418267250061e-01" purity="6.8205755949020386e-01" nType="-99"/>
        </Node>
      </Node>
    </BinaryTree>
    <BinaryTree type="DecisionTree" boostWeight="1.0000000000000000e+00" itree="5">
      <Node pos="s" depth="0" NCoef="0" IVar="3" Cut="7.0436900854110718e-01" cType="1" res="7.3002383578568697e-04" rms="4.9768385291099548e-01" purity="4.9958184361457825e-01" nType="0">
        <Node pos="l" depth="1" NCoef="0" IVar="5" Cut="5.4664666748046875e+02" cType="1" res="-6.4946629106998444e-02" rms="4.9360713362693787e-01" purity="4.2637032270431519e-01" nType="0">
          <Node pos="l" depth="2" NCoef="0" IVar="-1" Cut="0.0000000000000000e+00" cType="1" res="-6.1217485927045345e-03" rms="4.8294049501419067e-01" purity="3.7230056524276733e-01" nType="-99"/>
          <Node pos="r" depth="2" NCoef="0" IVar="-1" Cut="0.0000000000000000e+00" cType="1" res="2.6906971470452845e-05" rms="4.9955487251281738e-01" purity="4.9648657441139221e-01" nType="-99"/>
        </Node>
        <Node pos="r" depth="1" NCoef="0" IVar="5" Cut="4.9272259521484375e+02" cType="1" res="8.9948385953903198e-02" rms="4.8924383521080017e-01" purity="5.9903597831726074e-01" nType="0">
          <Node pos="l" depth="2" NCoef="0" IVar="-1" Cut="0.0000000000000000e+00" cType="1" res="7.6614221325144172e-04" rms="4.9891582131385803e-01" purity="5.2222704887390137e-01" nType="-99"/>
          <Node pos="r" depth="2" NCoef="0" IVar="-1" Cut="0.0000000000000000e+00" cType="1" res="5.5249598808586597e-03" rms="4.7786626219749451e-01" purity="6.4568305015563965e-01" nType="-99"/>
        </Node>
      </Node>
    </BinaryTree>
    <BinaryTree type="DecisionTree" boostWeight="1.0000000000000000e+00" itree="6">
      <Node pos="s" depth="0" NCoef="0" IVar="8" Cut="5.0285959243774414e-01" cType="1" res="3.1288487371057272e-03" rms="4.9737000465393066e-01" purity="5.0167959928512573e-01" nType="0">
        <Node pos="l" depth="1" NCoef="0" IVar="5" Cut="4.5832623291015625e+02" cType="1" res="-4.0034834295511246e-02" rms="4.9623197317123413e-01" purity="4.5455765724182129e-01" nType="0">
          <Node pos="l" depth="2" NCoef="0" IVar="-1" Cut="0.0000000000000000e+00" cType="1" res="-5.7606077753007412e-03" rms="4.8371168971061707e-01" purity="3.7749376893043518e-01" nType="-99"/>
          <Node pos="r" depth="2" NCoef="0" IVar="-1" Cut="0.0000000000000000e+00" cType="1" res="8.2682694483082741e-05" rms="4.9889570474624634e-01" purity="5.0054812431335449e-01" nType="-99"/>
        </Node>
        <Node pos="r" depth="1" NCoef="0" IVar="3" Cut="7.8762102127075195e-01" cType="1" res="1.2272826582193375e-01" rms="4.8067006468772888e-01" purity="6.3224673271179199e-01" nType="0">
          <Node pos="l" depth="2" NCoef="0" IVar="-1" Cut="0.0000000000000000e+00" cType="1" res="2.6510525494813919e-03" rms="4.9502554535865784e-01" purity="5.6195229291915894e-01" nType="-99"/>
          <Node pos="r" depth="2" NCoef="0" IVar="-1" Cut="0.0000000000000000e+00" cType="1" res="6.6572898067533970e-03" rms="4.6433281898498535e-01" purity="6.8428277969360352e-01" nType="-99"/>
        </Node>
      </Node>
    </BinaryTree>
    <BinaryTree type="DecisionTree" boostWeight="1.0000000000000000e+00" itree="7">
      <Node pos="s" depth="0" NCoef="0" IVar="3" Cut="6.7343699932098389e-01" cType="1" res="6.7867082543671131e-04" rms="4.9693122506141663e-01" purity="4.9920582771301270e-01" nType="0">
        <Node pos="l" depth="1" NCoef="0" IVar="5" Cut="4.5268151855468750e+02" cType="1" res="-6.7390352487564087e-02" rms="4.9243354797363281e-01" purity="4.2113044857978821e-01" nType="0">
          <Node pos="l" depth="2" NCoef="0" IVar="-1" Cut="0.0000000000000000e+00" cType="1" res="-7.8898705542087555e-03" rms="4.7190216183662415e-01" purity="3.3522379398345947e-01" nType="-99"/>
          <Node pos="r" depth="2" NCoef="0" IVar="-1" Cut="0.0000000000000000e+00" cType="1" res="-1.1615135008469224e-03" rms="4.9853947758674622e-01" purity="4.7011086344718933e-01" nType="-99"/>
        </Node>
        <Node pos="r" depth="1" NCoef="0" IVar="8" Cut="5.9560722112655640e-01" cType="1" res="7.9474352300167084e-02" rms="4.9042773246765137e-01" purity="5.8958464860916138e-01" nType="0">
          <Node pos="l" depth="2" NCoef="0" IVar="-1" Cut="0.0000000000000000e+00" cType="1" res="1.8042650772258639e-03" rms="4.9683374166488647e-01" purity="5.4652988910675049e-01" nType="-99"/>
          <Node pos="r" depth="2" NCoef="0" IVar="-1" Cut="0.0000000000000000e+00" cType="1" res="6.0067861340939999e-03" rms="4.7040447592735291e-01" purity="6.6752892732620239e-01" nType="-99"/>
        </Node>
      </Node>
    </BinaryTree>
    <BinaryTree type="DecisionTree" boostWeight="1.0000000000000000e+00" itree="8">
      <Node pos="s" depth="0" NCoef="0" IVar="3" Cut="7.6624941825866699e-01" cType="1" res="7.1742705767974257e-04" rms="4.9653264880180359e-01" purity="4.9903932213783264e-01" nType="0">
        <Node pos="l" depth="1" NCoef="0" IVar="6" Cut="1.5950941467285156e+02" cType="1" res="-5.0566807389259338e-02" rms="4.9451932311058044e-01" purity="4.3969330191612244e-01" nType="0">
          <Node pos="l" depth="2" NCoef="0" IVar="-1" Cut="0.0000000000000000e+00" cType="1" res="-3.4624016843736172e-03" rms="4.9221590161323547e-01" purity="4.2118164896965027e-01" nType="-99"/>
          <Node pos="r" depth="2" NCoef="0" IVar="-1" Cut="0.0000000000000000e+00" cType="1" res="5.5596600286662579e-03" rms="4.8098951578140259e-01" purity="6.3267087936401367e-01" nType="-99"/>
        </Node>
        <Node pos="r" depth="1" NCoef="0" IVar="5" Cut="4.9272259521484375e+02" cType="1" res="1.0807190090417862e-01" rms="4.8341584205627441e-01" purity="6.2326973676681519e-01" nType="0">
          <Node pos="l" depth="2" NCoef="0" IVar="-1" Cut="0.0000000000000000e+00" cType="1" res="1.7485975986346602e-03" rms="4.9683174490928650e-01" purity="5.4903835058212280e-01" nType="-99"/>
          <Node pos="r" depth="2" NCoef="0" IVar="-1" Cut="0.0000000000000000e+00" cType="1" res="5.9882677160203457e-03" rms="4.7068771719932556e-01" purity="6.6713351011276245e-01" nType="-99"/>
        </Node>
      </Node>
    </BinaryTree>
    <BinaryTree type="DecisionTree" boostWeight="1.0000000000000000e+00" itree="9">
      <Node pos="s" depth="0" NCoef="0" IVar="3" Cut="7.0674639940261841e-01" cType="1" res="-1.6525865066796541e-04" rms="4.9618694186210632e-01" purity="4.9794375896453857e-01" nType="0">
        <Node pos="l" depth="1" NCoef="0" IVar="6" Cut="1.3954847717285156e+02" cType="1" res="-6.0777675360441208e-02" rms="4.9275687336921692e-01" purity="4.2513328790664673e-01" nType="0">
          <Node pos="l" depth="2" NCoef="0" IVar="-1" Cut="0.0000000000000000e+00" cType="1" res="-4.2870850302278996e-03" rms="4.8916256427764893e-01" purity="4.0123778581619263e-01" nType="-99"/>
          <Node pos="r" depth="2" NCoef="0" IVar="-1" Cut="0.0000000000000000e+00" cType="1" res="3.1858703587204218e-03" rms="4.9358084797859192e-01" purity="5.6946486234664917e-01" nType="-99"/>
        </Node>
        <Node pos="r" depth="1" NCoef="0" IVar="5" Cut="3.9992343139648438e+02" cType="1" res="8.3907313644886017e-02" rms="4.8861286044120789e-01" purity="5.9893566370010376e-01" nType="0">
          <Node pos="l" depth="2" NCoef="0" IVar="-1" Cut="0.0000000000000000e+00" cType="1" res="-1.2801415286958218e-03" rms="4.9849650263786316e-01" purity="4.7945019602775574e-01" nType="-99"/>
          <Node pos="r" depth="2" NCoef="0" IVar="-1" Cut="0.0000000000000000e+00" cType="1" res="4.5305667445063591e-03" rms="4.8296114802360535e-01" purity="6.2530255317687988e-01" nType="-99"/>
        </Node>
      </Node>
    </BinaryTree>
    <BinaryTree type="DecisionTree" boostWeight="1.0000000000000000e+00" itree="10">
      <Node pos="s" depth="0" NCoef="0" IVar="3" Cut="6.8363171815872192e-01" cType="1" res="2.4194105062633753e-03" rms="4.9575978517532349e-01" purity="5.0037235021591187e-01" nType="0">
        <Node pos="l" depth="1" NCoef="0" IVar="5" Cut="4.6289227294921875e+02" cType="1" res="-6.0930769890546799e-02" rms="4.9226033687591553e-01" purity="4.2291921377182007e-01" nType="0">
          <Node pos="l" depth="2" NCoef="0" IVar="-1" Cut="0.0000000000000000e+00" cType="1" res="-7.0615927688777447e-03" rms="4.7433295845985413e-01" purity="3.4322220087051392e-01" nType="-99"/>
          <Node pos="r" depth="2" NCoef="0" IVar="-1" Cut="0.0000000000000000e+00" cType="1" res="-8.5298856720328331e-04" rms="4.9842053651809692e-01" purity="4.7337120771408081e-01" nType="-99"/>
        </Node>
        <Node pos="r" depth="1" NCoef="0" IVar="5" Cut="4.2292010498046875e+02" cType="1" res="7.9305320978164673e-02" rms="4.8907244205474854e-01" purity="5.9437453746795654e-01" nType="0">
          <Node pos="l" depth="2" NCoef="0" IVar="-1" Cut="0.0000000000000000e+00" cType="1" res="-8.2320877118036151e-04" rms="4.9855697154998779e-01" purity="4.8703399300575256e-01" nType="-99"/>
          <Node pos="r" depth="2" NCoef="0" IVar="-1" Cut="0.0000000000000000e+00" cType="1" res="4.5194500125944614e-03" rms="4.8245862126350403e-01" purity="6.2632471323013306e-01" nType="-99"/>
        </Node>
      </Node>
    </BinaryTree>
    <BinaryTree type="DecisionTree" boostWeight="1.0000000000000000e+00" itree="11">
      <Node pos="s" depth="0" NCoef="0" IVar="3" Cut="7.7391523122787476e-01" cType="1" res="-5.2919099107384682e-04" rms="4.9542093276977539e-01" purity="4.9728175997734070e-01" nType="0">
        <Node pos="l" depth="1" NCoef="0" IVar="5" Cut="4.5360504150390625e+02" cType="1" res="-4.6309817582368851e-02" rms="4.9399614334106445e-01" purity="4.4116964936256409e-01" nType="0">
          <Node pos="l" depth="2" NCoef="0" IVar="-1" Cut="0.0000000000000000e+00" cType="1" res="-6.3352016732096672e-03" rms="4.7763451933860779e-01" purity="3.5549163818359375e-01" nType="-99"/>
          <Node pos="r" depth="2" NCoef="0" IVar="-1" Cut="0.0000000000000000e+00" cType="1" res="-3.5934807965531945e-04" rms="4.9835613369941711e-01" purity="4.8758846521377563e-01" nType="-99"/>
        </Node>
        <Node pos="r" depth="1" NCoef="0" IVar="8" Cut="7.0381277799606323e-01" cType="1" res="1.0229204595088959e-01" rms="4.8304101824760437e-01" purity="6.2330693006515503e-01" nType="0">
          <Node pos="l" depth="2" NCoef="0" IVar="-1" Cut="0.0000000000000000e+00" cType="1" res="3.0569927766919136e-03" rms="4.9080052971839905e-01" purity="5.8921009302139282e-01" nType="-99"/>
          <Node pos="r" depth="2" NCoef="0" IVar="-1" Cut="0.0000000000000000e+00" cType="1" res="7.0950407534837723e-03" rms="4.5152038335800171e-01" purity="7.1367925405502319e-01" nType="-99"/>
        </Node>
      </Node>
    </BinaryTree>
    <BinaryTree type="DecisionTree" boostWeight="1.0000000000000000e+00" itree="12">
      <Node pos="s" depth="0" NCoef="0" IVar="8" Cut="4.7194370627403259e-01" cType="1" res="1.8967778887599707e-03" rms="4.9516502022743225e-01" purity="4.9938711524009705e-01" nType="0">
        <Node pos="l" depth="1" NCoef="0" IVar="6" Cut="1.6111315917968750e+02" cType="1" res="-4.1951861232519150e-02" rms="4.9413672089576721e-01" purity="4.4746670126914978e-01" nType="0">
          <Node pos="l" depth="2" NCoef="0" IVar="-1" Cut="0.0000000000000000e+00" cType="1" res="-2.9712084215134382e-03" rms="4.9230137467384338e-01" purity="4.2899748682975769e-01" nType="-99"/>
          <Node pos="r" depth="2" NCoef="0" IVar="-1" Cut="0.0000000000000000e+00" cType="1" res="5.8029592037200928e-03" rms="4.7666260600090027e-01" purity="6.4557671546936035e-01" nType="-99"/>
        </Node>
        <Node pos="r" depth="1" NCoef="0" IVar="3" Cut="8.1823503971099854e-01" cType="1" res="1.0402198880910873e-01" rms="4.8233819007873535e-01" purity="6.2031185626983643e-01" nType="0">
          <Node pos="l" depth="2" NCoef="0" IVar="-1" Cut="0.0000000000000000e+00" cType="1" res="2.6545212604105473e-03" rms="4.9313002824783325e-01" purity="5.6734800338745117e-01" nType="-99"/>
          <Node pos="r" depth="2" NCoef="0" IVar="-1" Cut="0.0000000000000000e+00" cType="1" res="6.3636628910899162e-03" rms="4.6108040213584900e-01" purity="6.9115674495697021e-01" nType="-99"/>
        </Node>
      </Node>
    </BinaryTree>
    <BinaryTree type="DecisionTree" boostWeight="1.0000000000000000e+00" itree="13">
      <Node pos="s" depth="0" NCoef="0" IVar="8" Cut="4.7142225503921509e-01" cType="1" res="1.3444394571706653e-03" rms="4.9479544162750244e-01" purity="4.9872440099716187e-01" nType="0">
        <Node pos="l" depth="1" NCoef="0" IVar="6" Cut="1.5570011901855469e+02" cType="1" res="-4.2560297995805740e-02" rms="4.9377319216728210e-01" purity="4.4576489925384521e-01" nType="0">
          <Node pos="l" depth="2" NCoef="0" IVar="-1" Cut="0.0000000000000000e+00" cType="1" res="-3.1029160600155592e-03" rms="4.9176034331321716e-01" purity="4.2508551478385925e-01" nType="-99"/>
          <Node pos="r" depth="2" NCoef="0" IVar="-1" Cut="0.0000000000000000e+00" cType="1" res="5.6344917975366116e-03" rms="4.7714191675186157e-01" purity="6.4235979318618774e-01" nType="-99"/>
        </Node>
        <Node pos="r" depth="1" NCoef="0" IVar="3" Cut="8.3795487880706787e-01" cType="1" res="1.0337176173925400e-01" rms="4.8195627331733704e-01" purity="6.2179338932037354e-01" nType="0">
          <Node pos="l" depth="2" NCoef="0" IVar="-1" Cut="0.0000000000000000e+00" cType="1" res="2.9693506658077240e-03" rms="4.9120929837226868e-01" purity="5.7972097396850586e-01" nType="-99"/>
          <Node pos="r" depth="2" NCoef="0" IVar="-1" Cut="0.0000000000000000e+00" cType="1" res="6.6286106593906879e-03" rms="4.5606422424316406e-01" purity="7.0289534330368042e-01" nType="-99"/>
        </Node>
      </Node>
    </BinaryTree>
    <BinaryTree type="DecisionTree" boostWeight="1.0000000000000000e+00" itree="14">
      <Node pos="s" depth="0" NCoef="0" IVar="3" Cut="6.6748249530792236e-01" cType="1" res="2.5771965738385916e-03" rms="4.9458923935890198e-01" purity="4.9971264600753784e-01" nType="0">
        <Node pos="l" depth="1" NCoef="0" IVar="4" Cut="3.2795909047126770e-01" cType="1" res="-5.7323079556226730e-02" rms="4.9151343107223511e-01" purity="4.2158862948417664e-01" nType="0">
          <Node pos="l" depth="2" NCoef="0" IVar="-1" Cut="0.0000000000000000e+00" cType="1" res="-3.9196780562633649e-05" rms="4.9738806486129761e-01" purity="4.7741615772247314e-01" nType="-99"/>
          <Node pos="r" depth="2" NCoef="0" IVar="-1" Cut="0.0000000000000000e+00" cType="1" res="-5.2233180031180382e-03" rms="4.8296260833740234e-01" purity="3.8059896230697632e-01" nType="-99"/>
        </Node>
        <Node pos="r" depth="1" NCoef="0" IVar="5" Cut="4.9272259521484375e+02" cType="1" res="7.0083618164062500e-02" rms="4.8932191729545593e-01" purity="5.8775675296783447e-01" nType="0">
          <Node pos="l" depth="2" NCoef="0" IVar="-1" Cut="0.0000000000000000e+00" cType="1" res="2.5948186521418393e-04" rms="4.9752762913703918e-01" purity="5.1264196634292603e-01" nType="-99"/>
          <Node pos="r" depth="2" NCoef="0" IVar="-1" Cut="0.0000000000000000e+00" cType="1" res="4.5316419564187527e-03" rms="4.8019042611122131e-01" purity="6.3289052248001099e-01" nType="-99"/>
        </Node>
      </Node>
    </BinaryTree>
    <BinaryTree type="DecisionTree" boostWeight="1.0000000000000000e+00" itree="15">
      <Node pos="s" depth="0" NCoef="0" IVar="8" Cut="3.7875917553901672e-01" cType="1" res="3.2535095233470201e-03" rms="4.9427494406700134e-01" purity="5.0036549568176270e-01" nType="0">
        <Node pos="l" depth="1" NCoef="0" IVar="5" Cut="4.5832623291015625e+02" cType="1" res="-5.2012614905834198e-02" rms="4.9204558134078979e-01" purity="4.3306970596313477e-01" nType="0">
          <Node pos="l" depth="2" NCoef="0" IVar="-1" Cut="0.0000000000000000e+00" cType="1" res="-6.1469250358641148e-03" rms="4.7712239623069763e-01" purity="3.5609444975852966e-01" nType="-99"/>
          <Node pos="r" depth="2" NCoef="0" IVar="-1" Cut="0.0000000000000000e+00" cType="1" res="-6.3108338508754969e-04" rms="4.9724870920181274e-01" purity="4.8141285777091980e-01" nType="-99"/>
        </Node>
        <Node pos="r" depth="1" NCoef="0" IVar="3" Cut="7.8683322668075562e-01" cType="1" res="7.7549666166305542e-02" rms="4.8748105764389038e-01" purity="5.9083354473114014e-01" nType="0">
          <Node pos="l" depth="2" NCoef="0" IVar="-1" Cut="0.0000000000000000e+00" cType="1" res="1.4148121699690819e-03" rms="4.9641925096511841e-01" purity="5.2802711725234985e-01" nType="-99"/>
          <Node pos="r" depth="2" NCoef="0" IVar="-1" Cut="0.0000000000000000e+00" cType="1" res="5.2759777754545212e-03" rms="4.7130164504051208e-01" purity="6.6316986083984375e-01" nType="-99"/>
        </Node>
      </Node>
    </BinaryTree>
    <BinaryTree type="DecisionTree" boostWeight="1.0000000000000000e+00" itree="16">
      <Node pos="s" depth="0" NCoef="0" IVar="8" Cut="3.9420300722122192e-01" cType="1" res="-1.3206596486270428e-03" rms="4.9387955665588379e-01" purity="4.9565854668617249e-01" nType="0">
        <Node pos="l" depth="1" NCoef="0" IVar="6" Cut="1.3814338684082031e+02" cType="1" res="-5.2397824823856354e-02" rms="4.9165868759155273e-01" purity="4.3166157603263855e-01" nType="0">
          <Node pos="l" depth="2" NCoef="0" IVar="-1" Cut="0.0000000000000000e+00" cType="1" res="-3.7638458888977766e-03" rms="4.8869916796684265e-01" purity="4.0799993276596069e-01" nType="-99"/>
          <Node pos="r" depth="2" NCoef="0" IVar="-1" Cut="0.0000000000000000e+00" cType="1" res="2.9166981112211943e-03" rms="4.9191680550575256e-01" purity="5.6768232583999634e-01" nType="-99"/>
        </Node>
        <Node pos="r" depth="1" NCoef="0" IVar="3" Cut="7.9713094234466553e-01" cType="1" res="7.4277430772781372e-02" rms="4.8742192983627319e-01" purity="5.9037882089614868e-01" nType="0">
          <Node pos="l" depth="2" NCoef="0" IVar="-1" Cut="0.0000000000000000e+00" cType="1" res="1.3425661018118262e-03" rms="4.9624332785606384e-01" purity="5.3009814023971558e-01" nType="-99"/>
          <Node pos="r" depth="2" NCoef="0" IVar="-1" Cut="0.0000000000000000e+00" cType="1" res="5.2396580576896667e-03" rms="4.7012990713119507e-01" purity="6.6595965623855591e-01" nType="-99"/>
        </Node>
      </Node>
    </BinaryTree>
    <BinaryTree type="DecisionTree" boostWeight="1.0000000000000000e+00" itree="17">
      <Node pos="s" depth="0" NCoef="0" IVar="3" Cut="7.6624482870101929e-01" cType="1" res="2.2969942074269056e-03" rms="4.9372047185897827e-01" purity="4.9896565079689026e-01" nType="0">
        <Node pos="l" depth="1" NCoef="0" IVar="6" Cut="1.5218653869628906e+02" cType="1" res="-3.9441060274839401e-02" rms="4.9323016405105591e-01" purity="4.4216129183769226e-01" nType="0">
          <Node pos="l" depth="2" NCoef="0" IVar="-1" Cut="0.0000000000000000e+00" cType="1" res="-2.9481698293238878e-03" rms="4.9122047424316406e-01" purity="4.2090010643005371e-01" nType="-99"/>
          <Node pos="r" depth="2" NCoef="0" IVar="-1" Cut="0.0000000000000000e+00" cType="1" res="5.0828405655920506e-03" rms="4.8157945275306702e-01" purity="6.2664669752120972e-01" nType="-99"/>
        </Node>
        <Node pos="r" depth="1" NCoef="0" IVar="4" Cut="4.2897775769233704e-01" cType="1" res="9.0690605342388153e-02" rms="4.8299270868301392e-01" purity="6.1926686763763428e-01" nType="0">
          <Node pos="l" depth="2" NCoef="0" IVar="-1" Cut="0.0000000000000000e+00" cType="1" res="5.3771291859447956e-03" rms="4.7085970640182495e-01" purity="6.6071194410324097e-01" nType="-99"/>
          <Node pos="r" depth="2" NCoef="0" IVar="-1" Cut="0.0000000000000000e+00" cType="1" res="9.1880490072071552e-04" rms="4.9464222788810730e-01" purity="5.5042845010757446e-01" nType="-99"/>
        </Node>
      </Node>
    </BinaryTree>
    <BinaryTree type="DecisionTree" boostWeight="1.0000000000000000e+00" itree="18">
      <Node pos="s" depth="0" NCoef="0" IVar="3" Cut="7.4601477384567261e-01" cType="1" res="3.3370861783623695e-03" rms="4.9335789680480957e-01" purity="4.9994820356369019e-01" nType="0">
        <Node pos="l" depth="1" NCoef="0" IVar="6" Cut="1.5708056640625000e+02" cType="1" res="-4.0712036192417145e-02" rms="4.9274209141731262e-01" purity="4.3817001581192017e-01" nType="0">
          <Node pos="l" depth="2" NCoef="0" IVar="-1" Cut="0.0000000000000000e+00" cType="1" res="-2.9667878989130259e-03" rms="4.9085569381713867e-01" purity="4.1780099272727966e-01" nType="-99"/>
          <Node pos="r" depth="2" NCoef="0" IVar="-1" Cut="0.0000000000000000e+00" cType="1" res="5.4573090746998787e-03" rms="4.7834199666976929e-01" purity="6.3964915275573730e-01" nType="-99"/>
        </Node>
        <Node pos="r" depth="1" NCoef="0" IVar="5" Cut="4.2026721191406250e+02" cType="1" res="8.2787372171878815e-02" rms="4.8444324731826782e-01" purity="6.1137598752975464e-01" nType="0">
          <Node pos="l" depth="2" NCoef="0" IVar="-1" Cut="0.0000000000000000e+00" cType="1" res="-7.4888439849019051e-04" rms="4.9757629632949829e-01" purity="4.9715271592140198e-01" nType="-99"/>
          <Node pos="r" depth="2" NCoef="0" IVar="-1" Cut="0.0000000000000000e+00" cType="1" res="4.5643346384167671e-03" rms="4.7700387239456177e-01" purity="6.4344805479049683e-01" nType="-99"/>
        </Node>
      </Node>
    </BinaryTree>
    <BinaryTree type="DecisionTree" boostWeight="1.0000000000000000e+00" itree="19">
      <Node pos="s" depth="0" NCoef="0" IVar="8" Cut="3.7858274579048157e-01" cType="1" res="5.8580073527991772e-03" rms="4.9316233396530151e-01" purity="5.0257319211959839e-01" nType="0">
        <Node pos="l" depth="1" NCoef="0" IVar="5" Cut="5.2409344482421875e+02" cType="1" res="-4.5904412865638733e-02" rms="4.9182054400444031e-01" purity="4.3531963229179382e-01" nType="0">
          <Node pos="l" depth="2" NCoef="0" IVar="-1" Cut="0.0000000000000000e+00" cType="1" res="-4.6621565707027912e-03" rms="4.8313030600547791e-01" purity="3.8161849975585938e-01" nType="-99"/>
          <Node pos="r" depth="2" NCoef="0" IVar="-1" Cut="0.0000000000000000e+00" cType="1" res="1.5265865658875555e-04" rms="4.9716541171073914e-01" purity="4.9733510613441467e-01" nType="-99"/>
        </Node>
        <Node pos="r" depth="1" NCoef="0" IVar="5" Cut="4.2254061889648438e+02" cType="1" res="7.5342230498790741e-02" rms="4.8637276887893677e-01" purity="5.9285217523574829e-01" nType="0">
          <Node pos="l" depth="2" NCoef="0" IVar="-1" Cut="0.0000000000000000e+00" cType="1" res="-7.3188490932807326e-04" rms="4.9585312604904175e-01" purity="4.8400670289993286e-01" nType="-99"/>
          <Node pos="r" depth="2" NCoef="0" IVar="-1" Cut="0.0000000000000000e+00" cType="1" res="4.2155934497714043e-03" rms="4.8076978325843811e-01" purity="6.2256079912185669e-01" nType="-99"/>
        </Node>
      </Node>
    </BinaryTree>
    <BinaryTree type="DecisionTree" boostWeight="1.0000000000000000e+00" itree="20">
      <Node pos="s" depth="0" NCoef="0" IVar="3" Cut="7.6624482870101929e-01" cType="1" res="4.2299441993236542e-03" rms="4.9282670021057129e-01" purity="5.0067263841629028e-01" nType="0">
        <Node pos="l" depth="1" NCoef="0" IVar="6" Cut="1.5708056640625000e+02" cType="1" res="-3.5206712782382965e-02" rms="4.9288985133171082e-01" purity="4.4411587715148926e-01" nType="0">
          <Node pos="l" depth="2" NCoef="0" IVar="-1" Cut="0.0000000000000000e+00" cType="1" res="-2.6349341496825218e-03" rms="4.9136629700660706e-01" purity="4.2409443855285645e-01" nType="-99"/>
          <Node pos="r" depth="2" NCoef="0" IVar="-1" Cut="0.0000000000000000e+00" cType="1" res="5.2837091498076916e-03" rms="4.7815951704978943e-01" purity="6.3951110839843750e-01" nType="-99"/>
        </Node>
        <Node pos="r" depth="1" NCoef="0" IVar="5" Cut="4.7057165527343750e+02" cType="1" res="8.8135093450546265e-02" rms="4.8207545280456543e-01" purity="6.2100231647491455e-01" nType="0">
          <Node pos="l" depth="2" NCoef="0" IVar="-1" Cut="0.0000000000000000e+00" cType="1" res="8.7141233962029219e-04" rms="4.9628436565399170e-01" purity="5.3671193122863770e-01" nType="-99"/>
          <Node pos="r" depth="2" NCoef="0" IVar="-1" Cut="0.0000000000000000e+00" cType="1" res="4.9359025433659554e-03" rms="4.7158870100975037e-01" purity="6.6141819953918457e-01" nType="-99"/>
        </Node>
      </Node>
    </BinaryTree>
    <BinaryTree type="DecisionTree" boostWeight="1.0000000000000000e+00" itree="21">
      <Node pos="s" depth="0" NCoef="0" IVar="3" Cut="7.3530149459838867e-01" cType="1" res="5.1959739066660404e-03" rms="4.9266448616981506e-01" purity="5.0154370069503784e-01" nType="0">
        <Node pos="l" depth="1" NCoef="0" IVar="6" Cut="1.4253826904296875e+02" cType="1" res="-3.8777783513069153e-02" rms="4.9236628413200378e-01" purity="4.3657854199409485e-01" nType="0">
          <Node pos="l" depth="2" NCoef="0" IVar="-1" Cut="0.0000000000000000e+00" cType="1" res="-2.9495968483388424e-03" rms="4.9028798937797546e-01" purity="4.1354653239250183e-01" nType="-99"/>
          <Node pos="r" depth="2" NCoef="0" IVar="-1" Cut="0.0000000000000000e+00" cType="1" res="3.8124732673168182e-03" rms="4.8784345388412476e-01" purity="5.9359091520309448e-01" nType="-99"/>
        </Node>
        <Node pos="r" depth="1" NCoef="0" IVar="4" Cut="4.3152883648872375e-01" cType="1" res="7.8923694789409637e-02" rms="4.8428604006767273e-01" purity="6.1046636104583740e-01" nType="0">
          <Node pos="l" depth="2" NCoef="0" IVar="-1" Cut="0.0000000000000000e+00" cType="1" res="4.8516127280890942e-03" rms="4.7395557165145874e-01" purity="6.4989864826202393e-01" nType="-99"/>
          <Node pos="r" depth="2" NCoef="0" IVar="-1" Cut="0.0000000000000000e+00" cType="1" res="6.1420927522704005e-04" rms="4.9399647116661072e-01" purity="5.4545378684997559e-01" nType="-99"/>
        </Node>
      </Node>
    </BinaryTree>
    <BinaryTree type="DecisionTree" boostWeight="1.0000000000000000e+00" itree="22">
      <Node pos="s" depth="0" NCoef="0" IVar="3" Cut="5.9335154294967651e-01" cType="1" res="3.9080306887626648e-03" rms="4.9242374300956726e-01" purity="5.0027453899383545e-01" nType="0">
        <Node pos="l" depth="1" NCoef="0" IVar="6" Cut="1.3941888427734375e+02" cType="1" res="-5.8223243802785873e-02" rms="4.8874095082283020e-01" purity="4.1127735376358032e-01" nType="0">
          <Node pos="l" depth="2" NCoef="0" IVar="-1" Cut="0.0000000000000000e+00" cType="1" res="-4.0823412127792835e-03" rms="4.8555162549018860e-01" purity="3.8733026385307312e-01" nType="-99"/>
          <Node pos="r" depth="2" NCoef="0" IVar="-1" Cut="0.0000000000000000e+00" cType="1" res="2.6882525999099016e-03" rms="4.9219104647636414e-01" purity="5.6195306777954102e-01" nType="-99"/>
        </Node>
        <Node pos="r" depth="1" NCoef="0" IVar="5" Cut="4.1922259521484375e+02" cType="1" res="5.2891582250595093e-02" rms="4.8978275060653687e-01" purity="5.7043880224227905e-01" nType="0">
          <Node pos="l" depth="2" NCoef="0" IVar="-1" Cut="0.0000000000000000e+00" cType="1" res="-1.6428645467385650e-03" rms="4.9470901489257812e-01" purity="4.6187281608581543e-01" nType="-99"/>
          <Node pos="r" depth="2" NCoef="0" IVar="-1" Cut="0.0000000000000000e+00" cType="1" res="3.3456720411777496e-03" rms="4.8545214533805847e-01" purity="6.0169261693954468e-01" nType="-99"/>
        </Node>
      </Node>
    </BinaryTree>
    <BinaryTree type="DecisionTree" boostWeight="1.0000000000000000e+00" itree="23">
      <Node pos="s" depth="0" NCoef="0" IVar="8" Cut="3.7875917553901672e-01" cType="1" res="1.3388120569288731e-03" rms="4.9205234646797180e-01" purity="4.9767315387725830e-01" nType="0">
        <Node pos="l" depth="1" NCoef="0" IVar="6" Cut="1.5218653869628906e+02" cType="1" res="-4.6943072229623795e-02" rms="4.9059802293777466e-01" purity="4.3136331439018250e-01" nType="0">
          <Node pos="l" depth="2" NCoef="0" IVar="-1" Cut="0.0000000000000000e+00" cType="1" res="-3.2453977037221193e-03" rms="4.8867967724800110e-01" purity="4.1101825237274170e-01" nType="-99"/>
          <Node pos="r" depth="2" NCoef="0" IVar="-1" Cut="0.0000000000000000e+00" cType="1" res="4.1602710261940956e-03" rms="4.8411226272583008e-01" purity="6.1423867940902710e-01" nType="-99"/>
        </Node>
        <Node pos="r" depth="1" NCoef="0" IVar="4" Cut="3.9687004685401917e-01" cType="1" res="6.7019231617450714e-02" rms="4.8638921976089478e-01" purity="5.8787804841995239e-01" nType="0">
          <Node pos="l" depth="2" NCoef="0" IVar="-1" Cut="0.0000000000000000e+00" cType="1" res="4.6684830449521542e-03" rms="4.7628062963485718e-01" purity="6.3376575708389282e-01" nType="-99"/>
          <Node pos="r" depth="2" NCoef="0" IVar="-1" Cut="0.0000000000000000e+00" cType="1" res="5.9023819630965590e-04" rms="4.9286058545112610e-01" purity="5.3283303976058960e-01" nType="-99"/>
        </Node>
      </Node>
    </BinaryTree>
    <BinaryTree type="DecisionTree" boostWeight="1.0000000000000000e+00" itree="24">
      <Node pos="s" depth="0" NCoef="0" IVar="8" Cut="4.7194370627403259e-01" cType="1" res="3.2879307400435209e-03" rms="4.9175778031349182e-01" purity="4.9946925044059753e-01" nType="0">
        <Node pos="l" depth="1" NCoef="0" IVar="5" Cut="5.2350952148437500e+02" cType="1" res="-3.3378396183252335e-02" rms="4.9200358986854553e-01" purity="4.4748836755752563e-01" nType="0">
          <Node pos="l" depth="2" NCoef="0" IVar="-1" Cut="0.0000000000000000e+00" cType="1" res="-4.0618623606860638e-03" rms="4.8396024107933044e-01" purity="3.8959240913391113e-01" nType="-99"/>
          <Node pos="r" depth="2" NCoef="0" IVar="-1" Cut="0.0000000000000000e+00" cType="1" res="6.7891046637669206e-04" rms="4.9610644578933716e-01" purity="5.0986152887344360e-01" nType="-99"/>
        </Node>
        <Node pos="r" depth="1" NCoef="0" IVar="8" Cut="7.3279708623886108e-01" cType="1" res="8.9018754661083221e-02" rms="4.8038226366043091e-01" purity="6.2100756168365479e-01" nType="0">
          <Node pos="l" depth="2" NCoef="0" IVar="-1" Cut="0.0000000000000000e+00" cType="1" res="2.7548011858016253e-03" rms="4.8808735609054565e-01" purity="5.8854246139526367e-01" nType="-99"/>
          <Node pos="r" depth="2" NCoef="0" IVar="-1" Cut="0.0000000000000000e+00" cType="1" res="6.5029053948819637e-03" rms="4.4591796398162842e-01" purity="7.2339004278182983e-01" nType="-99"/>
        </Node>
      </Node>
    </BinaryTree>
    <BinaryTree type="DecisionTree" boostWeight="1.0000000000000000e+00" itree="25">
      <Node pos="s" depth="0" NCoef="0" IVar="3" Cut="7.8681164979934692e-01" cType="1" res="4.9764271825551987e-03" rms="4.9162465333938599e-01" purity="5.0105541944503784e-01" nType="0">
        <Node pos="l" depth="1" NCoef="0" IVar="6" Cut="1.6345729064941406e+02" cType="1" res="-2.8876101598143578e-02" rms="4.9238646030426025e-01" purity="4.4988629221916199e-01" nType="0">
          <Node pos="l" depth="2" NCoef="0" IVar="-1" Cut="0.0000000000000000e+00" cType="1" res="-2.2179861553013325e-03" rms="4.9144145846366882e-01" purity="4.3092897534370422e-01" nType="-99"/>
          <Node pos="r" depth="2" NCoef="0" IVar="-1" Cut="0.0000000000000000e+00" cType="1" res="5.6603541597723961e-03" rms="4.7151684761047363e-01" purity="6.6102427244186401e-01" nType="-99"/>
        </Node>
        <Node pos="r" depth="1" NCoef="0" IVar="4" Cut="4.4993707537651062e-01" cType="1" res="9.0762868523597717e-02" rms="4.7909477353096008e-01" purity="6.3072407245635986e-01" nType="0">
          <Node pos="l" depth="2" NCoef="0" IVar="-1" Cut="0.0000000000000000e+00" cType="1" res="5.0197215750813484e-03" rms="4.6892055869102478e-01" purity="6.6487312316894531e-01" nType="-99"/>
          <Node pos="r" depth="2" NCoef="0" IVar="-1" Cut="0.0000000000000000e+00" cType="1" res="1.1161797447130084e-03" rms="4.9196398258209229e-01" purity="5.6368279457092285e-01" nType="-99"/>
        </Node>
      </Node>
    </BinaryTree>
    <BinaryTree type="DecisionTree" boostWeight="1.0000000000000000e+00" itree="26">
      <Node pos="s" depth="0" NCoef="0" IVar="3" Cut="7.6624482870101929e-01" cType="1" res="8.4158906247466803e-04" rms="4.9128782749176025e-01" purity="4.9681302905082703e-01" nType="0">
        <Node pos="l" depth="1" NCoef="0" IVar="6" Cut="1.5205113220214844e+02" cType="1" res="-3.6308575421571732e-02" rms="4.9146208167076111e-01" purity="4.3871414661407471e-01" nType="0">
          <Node pos="l" depth="2" NCoef="0" IVar="-1" Cut="0.0000000000000000e+00" cType="1" res="-2.7246756944805384e-03" rms="4.8996391892433167e-01" purity="4.1658997535705566e-01" nType="-99"/>
          <Node pos="r" depth="2" NCoef="0" IVar="-1" Cut="0.0000000000000000e+00" cType="1" res="4.5754578895866871e-03" rms="4.8041987419128418e-01" purity="6.2837243080139160e-01" nType="-99"/>
        </Node>
        <Node pos="r" depth="1" NCoef="0" IVar="8" Cut="7.0306622982025146e-01" cType="1" res="7.9486452043056488e-02" rms="4.8155429959297180e-01" purity="6.1980533599853516e-01" nType="0">
          <Node pos="l" depth="2" NCoef="0" IVar="-1" Cut="0.0000000000000000e+00" cType="1" res="2.2417723666876554e-03" rms="4.8964998126029968e-01" purity="5.8510082960128784e-01" nType="-99"/>
          <Node pos="r" depth="2" NCoef="0" IVar="-1" Cut="0.0000000000000000e+00" cType="1" res="6.0627567581832409e-03" rms="4.4959589838981628e-01" purity="7.1573817729949951e-01" nType="-99"/>
        </Node>
      </Node>
    </BinaryTree>
    <BinaryTree type="DecisionTree" boostWeight="1.0000000000000000e+00" itree="27">
      <Node pos="s" depth="0" NCoef="0" IVar="8" Cut="3.6331534385681152e-01" cType="1" res="1.5557334991171956e-03" rms="4.9107062816619873e-01" purity="4.9737742543220520e-01" nType="0">
        <Node pos="l" depth="1" NCoef="0" IVar="4" Cut="3.1485545635223389e-01" cType="1" res="-4.6642720699310303e-02" rms="4.8942586779594421e-01" purity="4.2789870500564575e-01" nType="0">
          <Node pos="l" depth="2" NCoef="0" IVar="-1" Cut="0.0000000000000000e+00" cType="1" res="3.9328745333477855e-04" rms="4.9483183026313782e-01" purity="4.8366266489028931e-01" nType="-99"/>
          <Node pos="r" depth="2" NCoef="0" IVar="-1" Cut="0.0000000000000000e+00" cType="1" res="-4.4073155149817467e-03" rms="4.8213386535644531e-01" purity="3.8980206847190857e-01" nType="-99"/>
        </Node>
        <Node pos="r" depth="1" NCoef="0" IVar="4" Cut="4.0796083211898804e-01" cType="1" res="6.1120159924030304e-02" rms="4.8654344677925110e-01" purity="5.8324033021926880e-01" nType="0">
          <Node pos="l" depth="2" NCoef="0" IVar="-1" Cut="0.0000000000000000e+00" cType="1" res="4.2622522450983524e-03" rms="4.7812053561210632e-01" purity="6.2513870000839233e-01" nType="-99"/>
          <Node pos="r" depth="2" NCoef="0" IVar="-1" Cut="0.0000000000000000e+00" cType="1" res="3.5836364259012043e-04" rms="4.9241694808006287e-01" purity="5.2791970968246460e-01" nType="-99"/>
        </Node>
      </Node>
    </BinaryTree>
    <BinaryTree type="DecisionTree" boostWeight="1.0000000000000000e+00" itree="28">
      <Node pos="s" depth="0" NCoef="0" IVar="3" Cut="6.1512410640716553e-01" cType="1" res="4.9349078908562660e-03" rms="4.9102818965911865e-01" purity="5.0064837932586670e-01" nType="0">
        <Node pos="l" depth="1" NCoef="0" IVar="4" Cut="3.3802118897438049e-01" cType="1" res="-5.0366170704364777e-02" rms="4.8852676153182983e-01" purity="4.1373139619827271e-01" nType="0">
          <Node pos="l" depth="2" NCoef="0" IVar="-1" Cut="0.0000000000000000e+00" cType="1" res="4.1072784370044246e-05" rms="4.9537429213523865e-01" purity="4.6670374274253845e-01" nType="-99"/>
          <Node pos="r" depth="2" NCoef="0" IVar="-1" Cut="0.0000000000000000e+00" cType="1" res="-4.8341210931539536e-03" rms="4.7931927442550659e-01" purity="3.7234482169151306e-01" nType="-99"/>
        </Node>
        <Node pos="r" depth="1" NCoef="0" IVar="5" Cut="5.2769952392578125e+02" cType="1" res="5.3090542554855347e-02" rms="4.8811918497085571e-01" purity="5.7633495330810547e-01" nType="0">
          <Node pos="l" depth="2" NCoef="0" IVar="-1" Cut="0.0000000000000000e+00" cType="1" res="4.2344604480604175e-06" rms="4.9471935629844666e-01" purity="5.0857770442962646e-01" nType="-99"/>
          <Node pos="r" depth="2" NCoef="0" IVar="-1" Cut="0.0000000000000000e+00" cType="1" res="4.0404647588729858e-03" rms="4.7842285037040710e-01" purity="6.3121592998504639e-01" nType="-99"/>
        </Node>
      </Node>
    </BinaryTree>
    <BinaryTree type="DecisionTree" boostWeight="1.0000000000000000e+00" itree="29">
      <Node pos="s" depth="0" NCoef="0" IVar="3" Cut="6.5439355373382568e-01" cType="1" res="3.3591007813811302e-03" rms="4.9071711301803589e-01" purity="4.9914059042930603e-01" nType="0">
        <Node pos="l" depth="1" NCoef="0" IVar="5" Cut="4.5360504150390625e+02" cType="1" res="-4.6365045011043549e-02" rms="4.8895379900932312e-01" purity="4.1786360740661621e-01" nType="0">
          <Node pos="l" depth="2" NCoef="0" IVar="-1" Cut="0.0000000000000000e+00" cType="1" res="-5.7471999898552895e-03" rms="4.7178250551223755e-01" purity="3.3942103385925293e-01" nType="-99"/>
          <Node pos="r" depth="2" NCoef="0" IVar="-1" Cut="0.0000000000000000e+00" cType="1" res="-6.2566099222749472e-04" rms="4.9565094709396362e-01" purity="4.6381181478500366e-01" nType="-99"/>
        </Node>
        <Node pos="r" depth="1" NCoef="0" IVar="4" Cut="4.4605800509452820e-01" cType="1" res="5.5753450840711594e-02" rms="4.8710682988166809e-01" purity="5.8478218317031860e-01" nType="0">
          <Node pos="l" depth="2" NCoef="0" IVar="-1" Cut="0.0000000000000000e+00" cType="1" res="3.7934025749564171e-03" rms="4.7999253869056702e-01" purity="6.2047469615936279e-01" nType="-99"/>
          <Node pos="r" depth="2" NCoef="0" IVar="-1" Cut="0.0000000000000000e+00" cType="1" res="-3.7925509968772531e-04" rms="4.9382629990577698e-01" purity="5.1794940233230591e-01" nType="-99"/>
        </Node>
      </Node>
    </BinaryTree>
    <BinaryTree type="DecisionTree" boostWeight="1.0000000000000000e+00" itree="30">
      <Node pos="s" depth="0" NCoef="0" IVar="8" Cut="3.7875917553901672e-01" cType="1" res="2.2658300586044788e-03" rms="4.9061828851699829e-01" purity="4.9787408113479614e-01" nType="0">
        <Node pos="l" depth="1" NCoef="0" IVar="4" Cut="2.1019765734672546e-01" cType="1" res="-4.0369063615798950e-02" rms="4.8979067802429199e-01" purity="4.3250375986099243e-01" nType="0">
          <Node pos="l" depth="2" NCoef="0" IVar="-1" Cut="0.0000000000000000e+00" cType="1" res="1.7604186432436109e-03" rms="4.9518355727195740e-01" purity="5.1356530189514160e-01" nType="-99"/>
          <Node pos="r" depth="2" NCoef="0" IVar="-1" Cut="0.0000000000000000e+00" cType="1" res="-3.3479880075901747e-03" rms="4.8552539944648743e-01" purity="4.0701997280120850e-01" nType="-99"/>
        </Node>
        <Node pos="r" depth="1" NCoef="0" IVar="4" Cut="4.0907609462738037e-01" cType="1" res="6.0323622077703476e-02" rms="4.8576250672340393e-01" purity="5.8689177036285400e-01" nType="0">
          <Node pos="l" depth="2" NCoef="0" IVar="-1" Cut="0.0000000000000000e+00" cType="1" res="4.1492176242172718e-03" rms="4.7746047377586365e-01" purity="6.2775254249572754e-01" nType="-99"/>
          <Node pos="r" depth="2" NCoef="0" IVar="-1" Cut="0.0000000000000000e+00" cType="1" res="4.0402050944976509e-04" rms="4.9201533198356628e-01" purity="5.3208434581756592e-01" nType="-99"/>
        </Node>
      </Node>
    </BinaryTree>
    <BinaryTree type="DecisionTree" boostWeight="1.0000000000000000e+00" itree="31">
      <Node pos="s" depth="0" NCoef="0" IVar="3" Cut="6.2821930646896362e-01" cType="1" res="6.5597100183367729e-03" rms="4.9004486203193665e-01" purity="5.0236183404922485e-01" nType="0">
        <Node pos="l" depth="1" NCoef="0" IVar="5" Cut="5.7021252441406250e+02" cType="1" res="-4.6655759215354919e-02" rms="4.8816832900047302e-01" purity="4.1477599740028381e-01" nType="0">
          <Node pos="l" depth="2" NCoef="0" IVar="-1" Cut="0.0000000000000000e+00" cType="1" res="-4.4248267076909542e-03" rms="4.7933608293533325e-01" purity="3.6816832423210144e-01" nType="-99"/>
          <Node pos="r" depth="2" NCoef="0" IVar="-1" Cut="0.0000000000000000e+00" cType="1" res="5.1183433970436454e-04" rms="4.9675315618515015e-01" purity="4.8984929919242859e-01" nType="-99"/>
        </Node>
        <Node pos="r" depth="1" NCoef="0" IVar="4" Cut="4.8051568865776062e-01" cType="1" res="5.5594295263290405e-02" rms="4.8664319515228271e-01" purity="5.8306658267974854e-01" nType="0">
          <Node pos="l" depth="2" NCoef="0" IVar="-1" Cut="0.0000000000000000e+00" cType="1" res="3.5997778177261353e-03" rms="4.8082903027534485e-01" purity="6.1402767896652222e-01" nType="-99"/>
          <Node pos="r" depth="2" NCoef="0" IVar="-1" Cut="0.0000000000000000e+00" cType="1" res="-7.8738975571468472e-04" rms="4.9339234828948975e-01" purity="5.0599700212478638e-01" nType="-99"/>
        </Node>
      </Node>
    </BinaryTree>
    <BinaryTree type="DecisionTree" boostWeight="1.0000000000000000e+00" itree="32">
      <Node pos="s" depth="0" NCoef="0" IVar="3" Cut="7.7391523122787476e-01" cType="1" res="6.2006781809031963e-03" rms="4.8973345756530762e-01" purity="5.0214058160781860e-01" nType="0">
        <Node pos="l" depth="1" NCoef="0" IVar="6" Cut="1.5668678283691406e+02" cType="1" res="-2.8456775471568108e-02" rms="4.9093660712242126e-01" purity="4.4439390301704407e-01" nType="0">
          <Node pos="l" depth="2" NCoef="0" IVar="-1" Cut="0.0000000000000000e+00" cType="1" res="-2.1989899687469006e-03" rms="4.8997047543525696e-01" purity="4.2444798350334167e-01" nType="-99"/>
          <Node pos="r" depth="2" NCoef="0" IVar="-1" Cut="0.0000000000000000e+00" cType="1" res="4.8926551826298237e-03" rms="4.7656178474426270e-01" purity="6.4161777496337891e-01" nType="-99"/>
        </Node>
        <Node pos="r" depth="1" NCoef="0" IVar="8" Cut="7.3097562789916992e-01" cType="1" res="8.3352312445640564e-02" rms="4.7810673713684082e-01" purity="6.3069152832031250e-01" nType="0">
          <Node pos="l" depth="2" NCoef="0" IVar="-1" Cut="0.0000000000000000e+00" cType="1" res="2.5332961231470108e-03" rms="4.8627528548240662e-01" purity="5.9980291128158569e-01" nType="-99"/>
          <Node pos="r" depth="2" NCoef="0" IVar="-1" Cut="0.0000000000000000e+00" cType="1" res="6.3581150025129318e-03" rms="4.3934854865074158e-01" purity="7.3561084270477295e-01" nType="-99"/>
        </Node>
      </Node>
    </BinaryTree>
    <BinaryTree type="DecisionTree" boostWeight="1.0000000000000000e+00" itree="33">
      <Node pos="s" depth="0" NCoef="0" IVar="8" Cut="4.8686608672142029e-01" cType="1" res="4.5393663458526134e-03" rms="4.8975327610969543e-01" purity="5.0030416250228882e-01" nType="0">
        <Node pos="l" depth="1" NCoef="0" IVar="6" Cut="1.5778752136230469e+02" cType="1" res="-2.6796028017997742e-02" rms="4.9080675840377808e-01" purity="4.5008370280265808e-01" nType="0">
          <Node pos="l" depth="2" NCoef="0" IVar="-1" Cut="0.0000000000000000e+00" cType="1" res="-2.0727531518787146e-03" rms="4.9003288149833679e-01" purity="4.3076103925704956e-01" nType="-99"/>
          <Node pos="r" depth="2" NCoef="0" IVar="-1" Cut="0.0000000000000000e+00" cType="1" res="4.7366218641400337e-03" rms="4.7616398334503174e-01" purity="6.4134269952774048e-01" nType="-99"/>
        </Node>
        <Node pos="r" depth="1" NCoef="0" IVar="2" Cut="3.5509398579597473e-01" cType="1" res="8.3762429654598236e-02" rms="4.7800397872924805e-01" purity="6.2727296352386475e-01" nType="0">
          <Node pos="l" depth="2" NCoef="0" IVar="-1" Cut="0.0000000000000000e+00" cType="1" res="1.7283586785197258e-03" rms="4.8755869269371033e-01" purity="5.8235055208206177e-01" nType="-99"/>
          <Node pos="r" depth="2" NCoef="0" IVar="-1" Cut="0.0000000000000000e+00" cType="1" res="5.0863102078437805e-03" rms="4.6515345573425293e-01" purity="6.6928780078887939e-01" nType="-99"/>
        </Node>
      </Node>
    </BinaryTree>
    <BinaryTree type="DecisionTree" boostWeight="1.0000000000000000e+00" itree="34">
      <Node pos="s" depth="0" NCoef="0" IVar="8" Cut="5.0285959243774414e-01" cType="1" res="3.3861573319882154e-03" rms="4.8963370919227600e-01" purity="4.9879965186119080e-01" nType="0">
        <Node pos="l" depth="1" NCoef="0" IVar="4" Cut="2.7677801251411438e-01" cType="1" res="-2.5379743427038193e-02" rms="4.9082264304161072e-01" purity="4.5153731107711792e-01" nType="0">
          <Node pos="l" depth="2" NCoef="0" IVar="-1" Cut="0.0000000000000000e+00" cType="1" res="1.6537775518372655e-03" rms="4.9380210041999817e-01" purity="5.1656794548034668e-01" nType="-99"/>
          <Node pos="r" depth="2" NCoef="0" IVar="-1" Cut="0.0000000000000000e+00" cType="1" res="-2.8888790402561426e-03" rms="4.8634046316146851e-01" purity="4.1800633072853088e-01" nType="-99"/>
        </Node>
        <Node pos="r" depth="1" NCoef="0" IVar="4" Cut="4.7639700770378113e-01" cType="1" res="8.3918936550617218e-02" rms="4.7715365886688232e-01" purity="6.3111501932144165e-01" nType="0">
          <Node pos="l" depth="2" NCoef="0" IVar="-1" Cut="0.0000000000000000e+00" cType="1" res="4.6370178461074829e-03" rms="4.6749916672706604e-01" purity="6.6399937868118286e-01" nType="-99"/>
          <Node pos="r" depth="2" NCoef="0" IVar="-1" Cut="0.0000000000000000e+00" cType="1" res="6.5840728348121047e-04" rms="4.9229660630226135e-01" purity="5.5363112688064575e-01" nType="-99"/>
        </Node>
      </Node>
    </BinaryTree>
    <BinaryTree type="DecisionTree" boostWeight="1.0000000000000000e+00" itree="35">
      <Node pos="s" depth="0" NCoef="0" IVar="3" Cut="7.9718214273452759e-01" cType="1" res="3.9542322047054768e-03" rms="4.8968106508255005e-01" purity="4.9944841861724854e-01" nType="0">
        <Node pos="l" depth="1" NCoef="0" IVar="5" Cut="4.5268151855468750e+02" cType="1" res="-2.3441679775714874e-02" rms="4.9103084206581116e-01" purity="4.5223522186279297e-01" nType="0">
          <Node pos="l" depth="2" NCoef="0" IVar="-1" Cut="0.0000000000000000e+00" cType="1" res="-4.4939634390175343e-03" rms="4.7786614298820496e-01" purity="3.6625894904136658e-01" nType="-99"/>
          <Node pos="r" depth="2" NCoef="0" IVar="-1" Cut="0.0000000000000000e+00" cType="1" res="4.0752126369625330e-04" rms="4.9491351842880249e-01" purity="4.9792042374610901e-01" nType="-99"/>
        </Node>
        <Node pos="r" depth="1" NCoef="0" IVar="8" Cut="7.0949435234069824e-01" cType="1" res="8.1222154200077057e-02" rms="4.7745880484580994e-01" purity="6.3260936737060547e-01" nType="0">
          <Node pos="l" depth="2" NCoef="0" IVar="-1" Cut="0.0000000000000000e+00" cType="1" res="2.3925343994051218e-03" rms="4.8677858710289001e-01" purity="5.9755444526672363e-01" nType="-99"/>
          <Node pos="r" depth="2" NCoef="0" IVar="-1" Cut="0.0000000000000000e+00" cType="1" res="5.7277553714811802e-03" rms="4.4564595818519592e-01" purity="7.2350591421127319e-01" nType="-99"/>
        </Node>
      </Node>
    </BinaryTree>
    <BinaryTree type="DecisionTree" boostWeight="1.0000000000000000e+00" itree="36">
      <Node pos="s" depth="0" NCoef="0" IVar="8" Cut="3.7919607758522034e-01" cType="1" res="4.4055758044123650e-03" rms="4.8925063014030457e-01" purity="4.9975338578224182e-01" nType="0">
        <Node pos="l" depth="1" NCoef="0" IVar="4" Cut="4.0879791975021362e-01" cType="1" res="-3.6496214568614960e-02" rms="4.8918488621711731e-01" purity="4.3209502100944519e-01" nType="0">
          <Node pos="l" depth="2" NCoef="0" IVar="-1" Cut="0.0000000000000000e+00" cType="1" res="4.4465668906923383e-06" rms="4.9352818727493286e-01" purity="4.7130289673805237e-01" nType="-99"/>
          <Node pos="r" depth="2" NCoef="0" IVar="-1" Cut="0.0000000000000000e+00" cType="1" res="-4.6533411368727684e-03" rms="4.7840577363967896e-01" purity="3.7738621234893799e-01" nType="-99"/>
        </Node>
        <Node pos="r" depth="1" NCoef="0" IVar="4" Cut="3.7889248132705688e-01" cType="1" res="5.9819534420967102e-02" rms="4.8385542631149292e-01" purity="5.9141731262207031e-01" nType="0">
          <Node pos="l" depth="2" NCoef="0" IVar="-1" Cut="0.0000000000000000e+00" cType="1" res="4.3484331108629704e-03" rms="4.7308564186096191e-01" purity="6.4080899953842163e-01" nType="-99"/>
          <Node pos="r" depth="2" NCoef="0" IVar="-1" Cut="0.0000000000000000e+00" cType="1" res="5.9365550987422466e-04" rms="4.9070757627487183e-01" purity="5.3912293910980225e-01" nType="-99"/>
        </Node>
      </Node>
    </BinaryTree>
    <BinaryTree type="DecisionTree" boostWeight="1.0000000000000000e+00" itree="37">
      <Node pos="s" depth="0" NCoef="0" IVar="6" Cut="1.5548631286621094e+02" cType="1" res="6.5849935635924339e-03" rms="4.8913049697875977e-01" purity="5.0205850601196289e-01" nType="0">
        <Node pos="l" depth="1" NCoef="0" IVar="3" Cut="8.0015540122985840e-01" cType="1" res="-9.7097167745232582e-03" rms="4.8993876576423645e-01" purity="4.8038539290428162e-01" nType="0">
          <Node pos="l" depth="2" NCoef="0" IVar="-1" Cut="0.0000000000000000e+00" cType="1" res="-1.7894085031002760e-03" rms="4.9034836888313293e-01" purity="4.3407297134399414e-01" nType="-99"/>
          <Node pos="r" depth="2" NCoef="0" IVar="-1" Cut="0.0000000000000000e+00" cType="1" res="2.8724577277898788e-03" rms="4.8040792346000671e-01" purity="6.2025082111358643e-01" nType="-99"/>
        </Node>
        <Node pos="r" depth="1" NCoef="0" IVar="-1" Cut="0.0000000000000000e+00" cType="1" res="5.7928417809307575e-03" rms="4.5991447567939758e-01" purity="6.8456298112869263e-01" nType="-99"/>
      </Node>
    </BinaryTree>
    <BinaryTree type="DecisionTree" boostWeight="1.0000000000000000e+00" itree="38">
      <Node pos="s" depth="0" NCoef="0" IVar="8" Cut="3.7875100970268250e-01" cType="1" res="3.3845719881355762e-03" rms="4.8881170153617859e-01" purity="4.9888134002685547e-01" nType="0">
        <Node pos="l" depth="1" NCoef="0" IVar="4" Cut="4.0544977784156799e-01" cType="1" res="-3.6271534860134125e-02" rms="4.8870992660522461e-01" purity="4.3119907379150391e-01" nType="0">
          <Node pos="l" depth="2" NCoef="0" IVar="-1" Cut="0.0000000000000000e+00" cType="1" res="-1.5045417057990562e-05" rms="4.9334114789962769e-01" purity="4.7100546956062317e-01" nType="-99"/>
          <Node pos="r" depth="2" NCoef="0" IVar="-1" Cut="0.0000000000000000e+00" cType="1" res="-4.5620943419635296e-03" rms="4.7787994146347046e-01" purity="3.7650537490844727e-01" nType="-99"/>
        </Node>
        <Node pos="r" depth="1" NCoef="0" IVar="5" Cut="5.4412115478515625e+02" cType="1" res="5.7087589055299759e-02" rms="4.8379537463188171e-01" purity="5.9053796529769897e-01" nType="0">
          <Node pos="l" depth="2" NCoef="0" IVar="-1" Cut="0.0000000000000000e+00" cType="1" res="4.4609836186282337e-04" rms="4.9129992723464966e-01" purity="5.2951443195343018e-01" nType="-99"/>
          <Node pos="r" depth="2" NCoef="0" IVar="-1" Cut="0.0000000000000000e+00" cType="1" res="4.0028602816164494e-03" rms="4.7415918111801147e-01" purity="6.4011174440383911e-01" nType="-99"/>
        </Node>
      </Node>
    </BinaryTree>
    <BinaryTree type="DecisionTree" boostWeight="1.0000000000000000e+00" itree="39">
      <Node pos="s" depth="0" NCoef="0" IVar="3" Cut="6.1155539751052856e-01" cType="1" res="5.4777376353740692e-03" rms="4.8853740096092224e-01" purity="5.0091743469238281e-01" nType="0">
        <Node pos="l" depth="1" NCoef="0" IVar="5" Cut="5.8952282714843750e+02" cType="1" res="-4.6706054359674454e-02" rms="4.8641848564147949e-01" purity="4.0844056010246277e-01" nType="0">
          <Node pos="l" depth="2" NCoef="0" IVar="-1" Cut="0.0000000000000000e+00" cType="1" res="-4.1371313855051994e-03" rms="4.7851932048797607e-01" purity="3.6772477626800537e-01" nType="-99"/>
          <Node pos="r" depth="2" NCoef="0" IVar="-1" Cut="0.0000000000000000e+00" cType="1" res="4.6153159928508103e-04" rms="4.9615997076034546e-01" purity="4.8536494374275208e-01" nType="-99"/>
        </Node>
        <Node pos="r" depth="1" NCoef="0" IVar="5" Cut="5.3733453369140625e+02" cType="1" res="5.0126623362302780e-02" rms="4.8591446876525879e-01" purity="5.8004146814346313e-01" nType="0">
          <Node pos="l" depth="2" NCoef="0" IVar="-1" Cut="0.0000000000000000e+00" cType="1" res="8.3429302321746945e-05" rms="4.9275955557823181e-01" purity="5.1538425683975220e-01" nType="-99"/>
          <Node pos="r" depth="2" NCoef="0" IVar="-1" Cut="0.0000000000000000e+00" cType="1" res="3.8736194837838411e-03" rms="4.7592413425445557e-01" purity="6.3621741533279419e-01" nType="-99"/>
        </Node>
      </Node>
    </BinaryTree>
    <BinaryTree type="DecisionTree" boostWeight="1.0000000000000000e+00" itree="40">
      <Node pos="s" depth="0" NCoef="0" IVar="5" Cut="3.6462905883789062e+02" cType="1" res="5.0800149329006672e-03" rms="4.8864829540252686e-01" purity="5.0043642520904541e-01" nType="0">
        <Node pos="l" depth="1" NCoef="0" IVar="4" Cut="3.8869029283523560e-01" cType="1" res="-1.0948072373867035e-01" rms="4.7026258707046509e-01" purity="3.5154330730438232e-01" nType="0">
          <Node pos="l" depth="2" NCoef="0" IVar="-1" Cut="0.0000000000000000e+00" cType="1" res="-2.8820505831390619e-03" rms="4.8517793416976929e-01" purity="4.1075596213340759e-01" nType="-99"/>
          <Node pos="r" depth="2" NCoef="0" IVar="-1" Cut="0.0000000000000000e+00" cType="1" res="-1.1037568561732769e-02" rms="4.3552625179290771e-01" purity="2.6377072930335999e-01" nType="-99"/>
        </Node>
        <Node pos="r" depth="1" NCoef="0" IVar="8" Cut="5.1831752061843872e-01" cType="1" res="2.2467987611889839e-02" rms="4.8903858661651611e-01" purity="5.2303534746170044e-01" nType="0">
          <Node pos="l" depth="2" NCoef="0" IVar="-1" Cut="0.0000000000000000e+00" cType="1" res="-1.2911467638332397e-04" rms="4.9271437525749207e-01" purity="4.7785833477973938e-01" nType="-99"/>
          <Node pos="r" depth="2" NCoef="0" IVar="-1" Cut="0.0000000000000000e+00" cType="1" res="3.9094965904951096e-03" rms="4.7102916240692139e-01" purity="6.5223282575607300e-01" nType="-99"/>
        </Node>
      </Node>
    </BinaryTree>
    <BinaryTree type="DecisionTree" boostWeight="1.0000000000000000e+00" itree="41">
      <Node pos="s" depth="0" NCoef="0" IVar="3" Cut="7.8171813488006592e-01" cType="1" res="5.2871829830110073e-03" rms="4.8825439810752869e-01" purity="5.0085318088531494e-01" nType="0">
        <Node pos="l" depth="1" NCoef="0" IVar="5" Cut="4.7317840576171875e+02" cType="1" res="-2.4253748357295990e-02" rms="4.8994612693786621e-01" purity="4.4605931639671326e-01" nType="0">
          <Node pos="l" depth="2" NCoef="0" IVar="-1" Cut="0.0000000000000000e+00" cType="1" res="-4.2353919707238674e-03" rms="4.7749906778335571e-01" purity="3.6495247483253479e-01" nType="-99"/>
          <Node pos="r" depth="2" NCoef="0" IVar="-1" Cut="0.0000000000000000e+00" cType="1" res="5.3541333181783557e-04" rms="4.9471643567085266e-01" purity="4.9912413954734802e-01" nType="-99"/>
        </Node>
        <Node pos="r" depth="1" NCoef="0" IVar="4" Cut="5.1211351156234741e-01" cType="1" res="7.6243244111537933e-02" rms="4.7674584388732910e-01" purity="6.3246583938598633e-01" nType="0">
          <Node pos="l" depth="2" NCoef="0" IVar="-1" Cut="0.0000000000000000e+00" cType="1" res="4.0794280357658863e-03" rms="4.6950969099998474e-01" purity="6.5840488672256470e-01" nType="-99"/>
          <Node pos="r" depth="2" NCoef="0" IVar="-1" Cut="0.0000000000000000e+00" cType="1" res="7.1343663421430392e-07" rms="4.9243322014808655e-01" purity="5.4623651504516602e-01" nType="-99"/>
        </Node>
      </Node>
    </BinaryTree>
    <BinaryTree type="DecisionTree" boostWeight="1.0000000000000000e+00" itree="42">
      <Node pos="s" depth="0" NCoef="0" IVar="5" Cut="5.3934423828125000e+02" cType="1" res="7.1971435099840164e-03" rms="4.8816207051277161e-01" purity="5.0247001647949219e-01" nType="0">
        <Node pos="l" depth="1" NCoef="0" IVar="4" Cut="4.4317829608917236e-01" cType="1" res="-3.6201324313879013e-02" rms="4.8624277114868164e-01" purity="4.3776464462280273e-01" nType="0">
          <Node pos="l" depth="2" NCoef="0" IVar="-1" Cut="0.0000000000000000e+00" cType="1" res="2.0339321054052562e-04" rms="4.8992148041725159e-01" purity="4.8304313421249390e-01" nType="-99"/>
          <Node pos="r" depth="2" NCoef="0" IVar="-1" Cut="0.0000000000000000e+00" cType="1" res="-6.6824979148805141e-03" rms="4.6669623255729675e-01" purity="3.4102794528007507e-01" nType="-99"/>
        </Node>
        <Node pos="r" depth="1" NCoef="0" IVar="6" Cut="1.3760362243652344e+02" cType="1" res="5.3287465125322342e-02" rms="4.8596692085266113e-01" purity="5.7118874788284302e-01" nType="0">
          <Node pos="l" depth="2" NCoef="0" IVar="-1" Cut="0.0000000000000000e+00" cType="1" res="1.3213405618444085e-03" rms="4.9072742462158203e-01" purity="5.3887045383453369e-01" nType="-99"/>
          <Node pos="r" depth="2" NCoef="0" IVar="-1" Cut="0.0000000000000000e+00" cType="1" res="5.7963612489402294e-03" rms="4.5714429020881653e-01" purity="6.8893414735794067e-01" nType="-99"/>
        </Node>
      </Node>
    </BinaryTree>
    <BinaryTree type="DecisionTree" boostWeight="1.0000000000000000e+00" itree="43">
      <Node pos="s" depth="0" NCoef="0" IVar="5" Cut="4.9260348510742188e+02" cType="1" res="5.3575537167489529e-03" rms="4.8806586861610413e-01" purity="5.0065433979034424e-01" nType="0">
        <Node pos="l" depth="1" NCoef="0" IVar="4" Cut="4.7755572199821472e-01" cType="1" res="-4.5101415365934372e-02" rms="4.8421710729598999e-01" purity="4.2236825823783875e-01" nType="0">
          <Node pos="l" depth="2" NCoef="0" IVar="-1" Cut="0.0000000000000000e+00" cType="1" res="-5.2338209934532642e-04" rms="4.8926284909248352e-01" purity="4.6142116189002991e-01" nType="-99"/>
          <Node pos="r" depth="2" NCoef="0" IVar="-1" Cut="0.0000000000000000e+00" cType="1" res="-8.1009138375520706e-03" rms="4.5508477091789246e-01" purity="3.0993440747261047e-01" nType="-99"/>
        </Node>
        <Node pos="r" depth="1" NCoef="0" IVar="6" Cut="1.3957653808593750e+02" cType="1" res="4.2070664465427399e-02" rms="4.8757624626159668e-01" purity="5.5761396884918213e-01" nType="0">
          <Node pos="l" depth="2" NCoef="0" IVar="-1" Cut="0.0000000000000000e+00" cType="1" res="9.4569253269582987e-04" rms="4.9118238687515259e-01" purity="5.2829021215438843e-01" nType="-99"/>
          <Node pos="r" depth="2" NCoef="0" IVar="-1" Cut="0.0000000000000000e+00" cType="1" res="5.4233735427260399e-03" rms="4.6108725666999817e-01" purity="6.8077164888381958e-01" nType="-99"/>
        </Node>
      </Node>
    </BinaryTree>
    <BinaryTree type="DecisionTree" boostWeight="1.0000000000000000e+00" itree="44">
      <Node pos="s" depth="0" NCoef="0" IVar="3" Cut="7.9718691110610962e-01" cType="1" res="5.5270032025873661e-03" rms="4.8769557476043701e-01" purity="5.0126987695693970e-01" nType="0">
        <Node pos="l" depth="1" NCoef="0" IVar="5" Cut="5.8658685302734375e+02" cType="1" res="-2.0541101694107056e-02" rms="4.8963356018066406e-01" purity="4.5246908068656921e-01" nType="0">
          <Node pos="l" depth="2" NCoef="0" IVar="-1" Cut="0.0000000000000000e+00" cType="1" res="-2.6967709418386221e-03" rms="4.8436444997787476e-01" purity="4.0468358993530273e-01" nType="-99"/>
          <Node pos="r" depth="2" NCoef="0" IVar="-1" Cut="0.0000000000000000e+00" cType="1" res="1.3821991160511971e-03" rms="4.9382293224334717e-01" purity="5.2903348207473755e-01" nType="-99"/>
        </Node>
        <Node pos="r" depth="1" NCoef="0" IVar="5" Cut="4.2595989990234375e+02" cType="1" res="7.8656420111656189e-02" rms="4.7463601827621460e-01" purity="6.3817173242568970e-01" nType="0">
          <Node pos="l" depth="2" NCoef="0" IVar="-1" Cut="0.0000000000000000e+00" cType="1" res="6.7764674895443022e-05" rms="4.9340721964836121e-01" purity="5.3212440013885498e-01" nType="-99"/>
          <Node pos="r" depth="2" NCoef="0" IVar="-1" Cut="0.0000000000000000e+00" cType="1" res="4.1738534346222878e-03" rms="4.6635943651199341e-01" purity="6.7004722356796265e-01" nType="-99"/>
        </Node>
      </Node>
    </BinaryTree>
    <BinaryTree type="DecisionTree" boostWeight="1.0000000000000000e+00" itree="45">
      <Node pos="s" depth="0" NCoef="0" IVar="5" Cut="3.6905603027343750e+02" cType="1" res="3.9730593562126160e-03" rms="4.8752757906913757e-01" purity="4.9944728612899780e-01" nType="0">
        <Node pos="l" depth="1" NCoef="0" IVar="4" Cut="4.1530057787895203e-01" cType="1" res="-1.0108500719070435e-01" rms="4.6951478719711304e-01" purity="3.5276412963867188e-01" nType="0">
          <Node pos="l" depth="2" NCoef="0" IVar="-1" Cut="0.0000000000000000e+00" cType="1" res="-2.7829033788293600e-03" rms="4.8490285873413086e-01" purity="4.0797728300094604e-01" nType="-99"/>
          <Node pos="r" depth="2" NCoef="0" IVar="-1" Cut="0.0000000000000000e+00" cType="1" res="-1.1142737232148647e-02" rms="4.2680862545967102e-01" purity="2.5164416432380676e-01" nType="-99"/>
        </Node>
        <Node pos="r" depth="1" NCoef="0" IVar="3" Cut="8.2561910152435303e-01" cType="1" res="2.1390521898865700e-02" rms="4.8827037215232849e-01" purity="5.2376580238342285e-01" nType="0">
          <Node pos="l" depth="2" NCoef="0" IVar="-1" Cut="0.0000000000000000e+00" cType="1" res="-6.3844049691397231e-07" rms="4.9187684059143066e-01" purity="4.8576676845550537e-01" nType="-99"/>
          <Node pos="r" depth="2" NCoef="0" IVar="-1" Cut="0.0000000000000000e+00" cType="1" res="4.2553623206913471e-03" rms="4.6474596858024597e-01" purity="6.7135113477706909e-01" nType="-99"/>
        </Node>
      </Node>
    </BinaryTree>
    <BinaryTree type="DecisionTree" boostWeight="1.0000000000000000e+00" itree="46">
      <Node pos="s" depth="0" NCoef="0" IVar="3" Cut="5.4968708753585815e-01" cType="1" res="4.5189345255494118e-03" rms="4.8749008774757385e-01" purity="4.9982362985610962e-01" nType="0">
        <Node pos="l" depth="1" NCoef="0" IVar="4" Cut="1.9748206436634064e-01" cType="1" res="-4.6684078872203827e-02" rms="4.8439893126487732e-01" purity="4.0263274312019348e-01" nType="0">
          <Node pos="l" depth="2" NCoef="0" IVar="-1" Cut="0.0000000000000000e+00" cType="1" res="1.4181578299030662e-03" rms="4.9586516618728638e-01" purity="4.8817601799964905e-01" nType="-99"/>
          <Node pos="r" depth="2" NCoef="0" IVar="-1" Cut="0.0000000000000000e+00" cType="1" res="-3.6551903467625380e-03" rms="4.7898334264755249e-01" purity="3.7858444452285767e-01" nType="-99"/>
        </Node>
        <Node pos="r" depth="1" NCoef="0" IVar="6" Cut="1.5620928955078125e+02" cType="1" res="3.7089765071868896e-02" rms="4.8665082454681396e-01" purity="5.6164789199829102e-01" nType="0">
          <Node pos="l" depth="2" NCoef="0" IVar="-1" Cut="0.0000000000000000e+00" cType="1" res="1.0410973336547613e-03" rms="4.8938494920730591e-01" purity="5.4272210597991943e-01" nType="-99"/>
          <Node pos="r" depth="2" NCoef="0" IVar="-1" Cut="0.0000000000000000e+00" cType="1" res="5.8309021405875683e-03" rms="4.4983392953872681e-01" purity="7.0909833908081055e-01" nType="-99"/>
        </Node>
      </Node>
    </BinaryTree>
    <BinaryTree type="DecisionTree" boostWeight="1.0000000000000000e+00" itree="47">
      <Node pos="s" depth="0" NCoef="0" IVar="5" Cut="5.3630700683593750e+02" cType="1" res="3.1275860965251923e-03" rms="4.8710924386978149e-01" purity="4.9865281581878662e-01" nType="0">
        <Node pos="l" depth="1" NCoef="0" IVar="4" Cut="3.4083586931228638e-01" cType="1" res="-3.9911072701215744e-02" rms="4.8451447486877441e-01" purity="4.3091902136802673e-01" nType="0">
          <Node pos="l" depth="2" NCoef="0" IVar="-1" Cut="0.0000000000000000e+00" cType="1" res="8.5353764006868005e-04" rms="4.9056866765022278e-01" purity="4.9949359893798828e-01" nType="-99"/>
          <Node pos="r" depth="2" NCoef="0" IVar="-1" Cut="0.0000000000000000e+00" cType="1" res="-4.9153636209666729e-03" rms="4.7293713688850403e-01" purity="3.6904177069664001e-01" nType="-99"/>
        </Node>
        <Node pos="r" depth="1" NCoef="0" IVar="6" Cut="1.5805862426757812e+02" cType="1" res="4.7907009720802307e-02" rms="4.8576340079307556e-01" purity="5.6912618875503540e-01" nType="0">
          <Node pos="l" depth="2" NCoef="0" IVar="-1" Cut="0.0000000000000000e+00" cType="1" res="1.3784426264464855e-03" rms="4.8974648118019104e-01" purity="5.4417061805725098e-01" nType="-99"/>
          <Node pos="r" depth="2" NCoef="0" IVar="-1" Cut="0.0000000000000000e+00" cType="1" res="6.3235820271074772e-03" rms="4.4399848580360413e-01" purity="7.2534638643264771e-01" nType="-99"/>
        </Node>
      </Node>
    </BinaryTree>
    <BinaryTree type="DecisionTree" boostWeight="1.0000000000000000e+00" itree="48">
      <Node pos="s" depth="0" NCoef="0" IVar="8" Cut="4.4102782011032104e-01" cType="1" res="5.8365245349705219e-03" rms="4.8710459470748901e-01" purity="5.0128203630447388e-01" nType="0">
        <Node pos="l" depth="1" NCoef="0" IVar="6" Cut="1.5218653869628906e+02" cType="1" res="-2.3723524063825607e-02" rms="4.8839652538299561e-01" purity="4.4469973444938660e-01" nType="0">
          <Node pos="l" depth="2" NCoef="0" IVar="-1" Cut="0.0000000000000000e+00" cType="1" res="-1.8960998859256506e-03" rms="4.8768958449363708e-01" purity="4.2445722222328186e-01" nType="-99"/>
          <Node pos="r" depth="2" NCoef="0" IVar="-1" Cut="0.0000000000000000e+00" cType="1" res="4.0518254972994328e-03" rms="4.7849741578102112e-01" purity="6.2575745582580566e-01" nType="-99"/>
        </Node>
        <Node pos="r" depth="1" NCoef="0" IVar="4" Cut="3.7942939996719360e-01" cType="1" res="6.3032865524291992e-02" rms="4.7944784164428711e-01" purity="6.1076408624649048e-01" nType="0">
          <Node pos="l" depth="2" NCoef="0" IVar="-1" Cut="0.0000000000000000e+00" cType="1" res="4.2475322261452675e-03" rms="4.6851012110710144e-01" purity="6.5709531307220459e-01" nType="-99"/>
          <Node pos="r" depth="2" NCoef="0" IVar="-1" Cut="0.0000000000000000e+00" cType="1" res="9.5121300546452403e-04" rms="4.8730435967445374e-01" purity="5.6173050403594971e-01" nType="-99"/>
        </Node>
      </Node>
    </BinaryTree>
    <BinaryTree type="DecisionTree" boostWeight="1.0000000000000000e+00" itree="49">
      <Node pos="s" depth="0" NCoef="0" IVar="8" Cut="5.4864144325256348e-01" cType="1" res="3.5540109965950251e-03" rms="4.8726347088813782e-01" purity="4.9875357747077942e-01" nType="0">
        <Node pos="l" depth="1" NCoef="0" IVar="2" Cut="3.6013838648796082e-01" cType="1" res="-1.6931232064962387e-02" rms="4.8932144045829773e-01" purity="4.5868891477584839e-01" nType="0">
          <Node pos="l" depth="2" NCoef="0" IVar="-1" Cut="0.0000000000000000e+00" cType="1" res="-2.9231677763164043e-03" rms="4.8387265205383301e-01" purity="4.1882956027984619e-01" nType="-99"/>
          <Node pos="r" depth="2" NCoef="0" IVar="-1" Cut="0.0000000000000000e+00" cType="1" res="1.0100225917994976e-03" rms="4.9137502908706665e-01" purity="4.9616366624832153e-01" nType="-99"/>
        </Node>
        <Node pos="r" depth="1" NCoef="0" IVar="4" Cut="3.8551324605941772e-01" cType="1" res="7.7808253467082977e-02" rms="4.7234079241752625e-01" purity="6.4397871494293213e-01" nType="0">
          <Node pos="l" depth="2" NCoef="0" IVar="-1" Cut="0.0000000000000000e+00" cType="1" res="4.7270189970731735e-03" rms="4.5682319998741150e-01" purity="6.9133722782135010e-01" nType="-99"/>
          <Node pos="r" depth="2" NCoef="0" IVar="-1" Cut="0.0000000000000000e+00" cType="1" res="1.5414447989314795e-03" rms="4.8519214987754822e-01" purity="5.9232085943222046e-01" nType="-99"/>
        </Node>
      </Node>
    </BinaryTree>
    <BinaryTree type="DecisionTree" boostWeight="1.0000000000000000e+00" itree="50">
      <Node pos="s" depth="0" NCoef="0" IVar="5" Cut="3.6905603027343750e+02" cType="1" res="6.2097269110381603e-03" rms="4.8698467016220093e-01" purity="5.0136542320251465e-01" nType="0">
        <Node pos="l" depth="1" NCoef="0" IVar="4" Cut="3.7654238939285278e-01" cType="1" res="-9.4007499516010284e-02" rms="4.6982705593109131e-01" purity="3.5517394542694092e-01" nType="0">
          <Node pos="l" depth="2" NCoef="0" IVar="-1" Cut="0.0000000000000000e+00" cType="1" res="-2.3723270278424025e-03" rms="4.8593923449516296e-01" purity="4.1522797942161560e-01" nType="-99"/>
          <Node pos="r" depth="2" NCoef="0" IVar="-1" Cut="0.0000000000000000e+00" cType="1" res="-9.1561032459139824e-03" rms="4.4001322984695435e-01" purity="2.7619022130966187e-01" nType="-99"/>
        </Node>
        <Node pos="r" depth="1" NCoef="0" IVar="7" Cut="2.3904798924922943e-01" cType="1" res="2.2809408605098724e-02" rms="4.8778495192527771e-01" purity="5.2558016777038574e-01" nType="0">
          <Node pos="l" depth="2" NCoef="0" IVar="-1" Cut="0.0000000000000000e+00" cType="1" res="-2.4731692974455655e-04" rms="4.9035462737083435e-01" purity="4.7974872589111328e-01" nType="-99"/>
          <Node pos="r" depth="2" NCoef="0" IVar="-1" Cut="0.0000000000000000e+00" cType="1" res="3.2630749046802521e-03" rms="4.7837716341018677e-01" purity="6.1284434795379639e-01" nType="-99"/>
        </Node>
      </Node>
    </BinaryTree>
    <BinaryTree type="DecisionTree" boostWeight="1.0000000000000000e+00" itree="51">
      <Node pos="s" depth="0" NCoef="0" IVar="5" Cut="3.6999465942382812e+02" cType="1" res="4.1317637078464031e-03" rms="4.8679465055465698e-01" purity="4.9958884716033936e-01" nType="0">
        <Node pos="l" depth="1" NCoef="0" IVar="4" Cut="4.1517135500907898e-01" cType="1" res="-9.3299061059951782e-02" rms="4.6915695071220398e-01" purity="3.5383465886116028e-01" nType="0">
          <Node pos="l" depth="2" NCoef="0" IVar="-1" Cut="0.0000000000000000e+00" cType="1" res="-2.5649624876677990e-03" rms="4.8457828164100647e-01" purity="4.0903148055076599e-01" nType="-99"/>
          <Node pos="r" depth="2" NCoef="0" IVar="-1" Cut="0.0000000000000000e+00" cType="1" res="-1.0390427894890308e-02" rms="4.2830064892768860e-01" purity="2.5276586413383484e-01" nType="-99"/>
        </Node>
        <Node pos="r" depth="1" NCoef="0" IVar="3" Cut="6.9687312841415405e-01" cType="1" res="2.0508179441094398e-02" rms="4.8779022693634033e-01" purity="5.2408760786056519e-01" nType="0">
          <Node pos="l" depth="2" NCoef="0" IVar="-1" Cut="0.0000000000000000e+00" cType="1" res="-6.7177833989262581e-04" rms="4.9170389771461487e-01" purity="4.4952571392059326e-01" nType="-99"/>
          <Node pos="r" depth="2" NCoef="0" IVar="-1" Cut="0.0000000000000000e+00" cType="1" res="2.6821899227797985e-03" rms="4.7954630851745605e-01" purity="6.1682695150375366e-01" nType="-99"/>
        </Node>
      </Node>
    </BinaryTree>
    <BinaryTree type="DecisionTree" boostWeight="1.0000000000000000e+00" itree="52">
      <Node pos="s" depth="0" NCoef="0" IVar="3" Cut="7.9837632179260254e-01" cType="1" res="3.3354137558490038e-03" rms="4.8648029565811157e-01" purity="4.9882918596267700e-01" nType="0">
        <Node pos="l" depth="1" NCoef="0" IVar="2" Cut="3.4495556354522705e-01" cType="1" res="-2.0261239260435104e-02" rms="4.8848062753677368e-01" purity="4.5053660869598389e-01" nType="0">
          <Node pos="l" depth="2" NCoef="0" IVar="-1" Cut="0.0000000000000000e+00" cType="1" res="-3.1938925385475159e-03" rms="4.8214676976203918e-01" purity="4.0913885831832886e-01" nType="-99"/>
          <Node pos="r" depth="2" NCoef="0" IVar="-1" Cut="0.0000000000000000e+00" cType="1" res="7.5715506682172418e-04" rms="4.9104970693588257e-01" purity="4.8616576194763184e-01" nType="-99"/>
        </Node>
        <Node pos="r" depth="1" NCoef="0" IVar="4" Cut="4.3152883648872375e-01" cType="1" res="7.0310458540916443e-02" rms="4.7440662980079651e-01" purity="6.3589942455291748e-01" nType="0">
          <Node pos="l" depth="2" NCoef="0" IVar="-1" Cut="0.0000000000000000e+00" cType="1" res="4.1556237265467644e-03" rms="4.6343770623207092e-01" purity="6.7527639865875244e-01" nType="-99"/>
          <Node pos="r" depth="2" NCoef="0" IVar="-1" Cut="0.0000000000000000e+00" cType="1" res="7.4506847886368632e-04" rms="4.8793008923530579e-01" purity="5.6876218318939209e-01" nType="-99"/>
        </Node>
      </Node>
    </BinaryTree>
    <BinaryTree type="DecisionTree" boostWeight="1.0000000000000000e+00" itree="53">
      <Node pos="s" depth="0" NCoef="0" IVar="6" Cut="1.5548631286621094e+02" cType="1" res="6.1022168956696987e-03" rms="4.8646461963653564e-01" purity="5.0140345096588135e-01" nType="0">
        <Node pos="l" depth="1" NCoef="0" IVar="4" Cut="2.4175626039505005e-01" cType="1" res="-7.9638678580522537e-03" rms="4.8761281371116638e-01" purity="4.8031774163246155e-01" nType="0">
          <Node pos="l" depth="2" NCoef="0" IVar="-1" Cut="0.0000000000000000e+00" cType="1" res="2.6712194085121155e-03" rms="4.8693791031837463e-01" purity="5.5797684192657471e-01" nType="-99"/>
          <Node pos="r" depth="2" NCoef="0" IVar="-1" Cut="0.0000000000000000e+00" cType="1" res="-1.7277420265600085e-03" rms="4.8531398177146912e-01" purity="4.4914904236793518e-01" nType="-99"/>
        </Node>
        <Node pos="r" depth="1" NCoef="0" IVar="-1" Cut="0.0000000000000000e+00" cType="1" res="5.0938790664076805e-03" rms="4.5972764492034912e-01" purity="6.7979645729064941e-01" nType="-99"/>
      </Node>
    </BinaryTree>
    <BinaryTree type="DecisionTree" boostWeight="1.0000000000000000e+00" itree="54">
      <Node pos="s" depth="0" NCoef="0" IVar="8" Cut="3.4828019142150879e-01" cType="1" res="2.2362230811268091e-03" rms="4.8611891269683838e-01" purity="4.9825489521026611e-01" nType="0">
        <Node pos="l" depth="1" NCoef="0" IVar="2" Cut="3.3177092671394348e-01" cType="1" res="-3.5393457859754562e-02" rms="4.8604133725166321e-01" purity="4.2565891146659851e-01" nType="0">
          <Node pos="l" depth="2" NCoef="0" IVar="-1" Cut="0.0000000000000000e+00" cType="1" res="-4.2122616432607174e-03" rms="4.7684708237648010e-01" purity="3.8096439838409424e-01" nType="-99"/>
          <Node pos="r" depth="2" NCoef="0" IVar="-1" Cut="0.0000000000000000e+00" cType="1" res="-1.0899984044954181e-04" rms="4.9029117822647095e-01" purity="4.5952516794204712e-01" nType="-99"/>
        </Node>
        <Node pos="r" depth="1" NCoef="0" IVar="4" Cut="3.9080610871315002e-01" cType="1" res="4.4188089668750763e-02" rms="4.8275989294052124e-01" purity="5.7918930053710938e-01" nType="0">
          <Node pos="l" depth="2" NCoef="0" IVar="-1" Cut="0.0000000000000000e+00" cType="1" res="3.4276600927114487e-03" rms="4.7548794746398926e-01" purity="6.2455028295516968e-01" nType="-99"/>
          <Node pos="r" depth="2" NCoef="0" IVar="-1" Cut="0.0000000000000000e+00" cType="1" res="1.3578946527559310e-04" rms="4.8772630095481873e-01" purity="5.2711367607116699e-01" nType="-99"/>
        </Node>
      </Node>
    </BinaryTree>
    <BinaryTree type="DecisionTree" boostWeight="1.0000000000000000e+00" itree="55">
      <Node pos="s" depth="0" NCoef="0" IVar="5" Cut="3.6475225830078125e+02" cType="1" res="5.5073196999728680e-03" rms="4.8642432689666748e-01" purity="5.0051963329315186e-01" nType="0">
        <Node pos="l" depth="1" NCoef="0" IVar="2" Cut="4.7452351450920105e-01" cType="1" res="-8.9401550590991974e-02" rms="4.6854072809219360e-01" purity="3.5432609915733337e-01" nType="0">
          <Node pos="l" depth="2" NCoef="0" IVar="-1" Cut="0.0000000000000000e+00" cType="1" res="-7.5873015448451042e-03" rms="4.5060437917709351e-01" purity="3.0552658438682556e-01" nType="-99"/>
          <Node pos="r" depth="2" NCoef="0" IVar="-1" Cut="0.0000000000000000e+00" cType="1" res="-1.3048901455476880e-03" rms="4.8646512627601624e-01" purity="4.2537716031074524e-01" nType="-99"/>
        </Node>
        <Node pos="r" depth="1" NCoef="0" IVar="6" Cut="1.3583700561523438e+02" cType="1" res="2.0192001014947891e-02" rms="4.8748505115509033e-01" purity="5.2313923835754395e-01" nType="0">
          <Node pos="l" depth="2" NCoef="0" IVar="-1" Cut="0.0000000000000000e+00" cType="1" res="1.2136873556300998e-04" rms="4.8951867222785950e-01" purity="4.9663800001144409e-01" nType="-99"/>
          <Node pos="r" depth="2" NCoef="0" IVar="-1" Cut="0.0000000000000000e+00" cType="1" res="4.1137696243822575e-03" rms="4.7075209021568298e-01" purity="6.3914704322814941e-01" nType="-99"/>
        </Node>
      </Node>
    </BinaryTree>
    <BinaryTree type="DecisionTree" boostWeight="1.0000000000000000e+00" itree="56">
      <Node pos="s" depth="0" NCoef="0" IVar="4" Cut="2.3144145309925079e-01" cType="1" res="3.8496670313179493e-03" rms="4.8589724302291870e-01" purity="4.9906203150749207e-01" nType="0">
        <Node pos="l" depth="1" NCoef="0" IVar="7" Cut="2.6768338680267334e-01" cType="1" res="6.7610517144203186e-02" rms="4.8334583640098572e-01" purity="5.7459408044815063e-01" nType="0">
          <Node pos="l" depth="2" NCoef="0" IVar="-1" Cut="0.0000000000000000e+00" cType="1" res="2.0432502496987581e-03" rms="4.9012535810470581e-01" purity="5.3524714708328247e-01" nType="-99"/>
          <Node pos="r" depth="2" NCoef="0" IVar="-1" Cut="0.0000000000000000e+00" cType="1" res="5.4589849896728992e-03" rms="4.5744019746780396e-01" purity="6.8455070257186890e-01" nType="-99"/>
        </Node>
        <Node pos="r" depth="1" NCoef="0" IVar="5" Cut="5.6774395751953125e+02" cType="1" res="-1.9882574677467346e-02" rms="4.8470628261566162e-01" purity="4.7094848752021790e-01" nType="0">
          <Node pos="l" depth="2" NCoef="0" IVar="-1" Cut="0.0000000000000000e+00" cType="1" res="-3.2887766137719154e-03" rms="4.7825688123703003e-01" purity="4.0229573845863342e-01" nType="-99"/>
          <Node pos="r" depth="2" NCoef="0" IVar="-1" Cut="0.0000000000000000e+00" cType="1" res="1.5355101786553860e-03" rms="4.8720556497573853e-01" purity="5.5540090799331665e-01" nType="-99"/>
        </Node>
      </Node>
    </BinaryTree>
    <BinaryTree type="DecisionTree" boostWeight="1.0000000000000000e+00" itree="57">
      <Node pos="s" depth="0" NCoef="0" IVar="4" Cut="2.0673452317714691e-01" cType="1" res="7.6450961641967297e-03" rms="4.8586082458496094e-01" purity="5.0338304042816162e-01" nType="0">
        <Node pos="l" depth="1" NCoef="0" IVar="7" Cut="1.7192526161670685e-01" cType="1" res="7.5924478471279144e-02" rms="4.8201242089271545e-01" purity="5.8511972427368164e-01" nType="0">
          <Node pos="l" depth="2" NCoef="0" IVar="-1" Cut="0.0000000000000000e+00" cType="1" res="1.6870080726221204e-03" rms="4.9182412028312683e-01" purity="5.2220064401626587e-01" nType="-99"/>
          <Node pos="r" depth="2" NCoef="0" IVar="-1" Cut="0.0000000000000000e+00" cType="1" res="4.6809241175651550e-03" rms="4.7092559933662415e-01" purity="6.3818079233169556e-01" nType="-99"/>
        </Node>
        <Node pos="r" depth="1" NCoef="0" IVar="5" Cut="5.3733453369140625e+02" cType="1" res="-1.3058451935648918e-02" rms="4.8512667417526245e-01" purity="4.7859898209571838e-01" nType="0">
          <Node pos="l" depth="2" NCoef="0" IVar="-1" Cut="0.0000000000000000e+00" cType="1" res="-2.8118959162384272e-03" rms="4.7911632061004639e-01" purity="4.0717098116874695e-01" nType="-99"/>
          <Node pos="r" depth="2" NCoef="0" IVar="-1" Cut="0.0000000000000000e+00" cType="1" res="1.2845594901591539e-03" rms="4.8755216598510742e-01" purity="5.4953128099441528e-01" nType="-99"/>
        </Node>
      </Node>
    </BinaryTree>
    <BinaryTree type="DecisionTree" boostWeight="1.0000000000000000e+00" itree="58">
      <Node pos="s" depth="0" NCoef="0" IVar="6" Cut="1.3583700561523438e+02" cType="1" res="4.0680910460650921e-03" rms="4.8557934165000916e-01" purity="4.9950093030929565e-01" nType="0">
        <Node pos="l" depth="1" NCoef="0" IVar="4" Cut="4.6014565229415894e-01" cType="1" res="-1.3650121167302132e-02" rms="4.8658469319343567e-01" purity="4.7244045138359070e-01" nType="0">
          <Node pos="l" depth="2" NCoef="0" IVar="-1" Cut="0.0000000000000000e+00" cType="1" res="6.4265547553077340e-04" rms="4.8853293061256409e-01" purity="5.0625532865524292e-01" nType="-99"/>
          <Node pos="r" depth="2" NCoef="0" IVar="-1" Cut="0.0000000000000000e+00" cType="1" res="-3.7293594796210527e-03" rms="4.7724083065986633e-01" purity="4.0018805861473083e-01" nType="-99"/>
        </Node>
        <Node pos="r" depth="1" NCoef="0" IVar="2" Cut="2.6412528753280640e-01" cType="1" res="8.7001211941242218e-02" rms="4.7208598256111145e-01" purity="6.2616199254989624e-01" nType="0">
          <Node pos="l" depth="2" NCoef="0" IVar="-1" Cut="0.0000000000000000e+00" cType="1" res="1.0968744754791260e-03" rms="4.8540934920310974e-01" purity="5.6026464700698853e-01" nType="-99"/>
          <Node pos="r" depth="2" NCoef="0" IVar="-1" Cut="0.0000000000000000e+00" cType="1" res="4.8343418166041374e-03" rms="4.6303743124008179e-01" purity="6.5637791156768799e-01" nType="-99"/>
        </Node>
      </Node>
    </BinaryTree>
    <BinaryTree type="DecisionTree" boostWeight="1.0000000000000000e+00" itree="59">
      <Node pos="s" depth="0" NCoef="0" IVar="3" Cut="7.8171223402023315e-01" cType="1" res="2.9174685478210449e-03" rms="4.8541337251663208e-01" purity="4.9850374460220337e-01" nType="0">
        <Node pos="l" depth="1" NCoef="0" IVar="6" Cut="1.3758741760253906e+02" cType="1" res="-2.1600719541311264e-02" rms="4.8732748627662659e-01" purity="4.4505017995834351e-01" nType="0">
          <Node pos="l" depth="2" NCoef="0" IVar="-1" Cut="0.0000000000000000e+00" cType="1" res="-1.9551999866962433e-03" rms="4.8645958304405212e-01" purity="4.1860866546630859e-01" nType="-99"/>
          <Node pos="r" depth="2" NCoef="0" IVar="-1" Cut="0.0000000000000000e+00" cType="1" res="2.9111546464264393e-03" rms="4.8261469602584839e-01" purity="5.8727794885635376e-01" nType="-99"/>
        </Node>
        <Node pos="r" depth="1" NCoef="0" IVar="8" Cut="7.3641103506088257e-01" cType="1" res="6.2560595571994781e-02" rms="4.7547563910484314e-01" purity="6.2853527069091797e-01" nType="0">
          <Node pos="l" depth="2" NCoef="0" IVar="-1" Cut="0.0000000000000000e+00" cType="1" res="1.8593291752040386e-03" rms="4.8344790935516357e-01" purity="5.9923851490020752e-01" nType="-99"/>
          <Node pos="r" depth="2" NCoef="0" IVar="-1" Cut="0.0000000000000000e+00" cType="1" res="5.1405886188149452e-03" rms="4.4020062685012817e-01" purity="7.2957062721252441e-01" nType="-99"/>
        </Node>
      </Node>
    </BinaryTree>
    <BinaryTree type="DecisionTree" boostWeight="1.0000000000000000e+00" itree="60">
      <Node pos="s" depth="0" NCoef="0" IVar="3" Cut="7.9718691110610962e-01" cType="1" res="5.6342878378927708e-03" rms="4.8516604304313660e-01" purity="5.0126731395721436e-01" nType="0">
        <Node pos="l" depth="1" NCoef="0" IVar="5" Cut="4.5983755493164062e+02" cType="1" res="-1.7087867483496666e-02" rms="4.8741081357002258e-01" purity="4.5269805192947388e-01" nType="0">
          <Node pos="l" depth="2" NCoef="0" IVar="-1" Cut="0.0000000000000000e+00" cType="1" res="-3.6362677346915007e-03" rms="4.7403737902641296e-01" purity="3.6361539363861084e-01" nType="-99"/>
          <Node pos="r" depth="2" NCoef="0" IVar="-1" Cut="0.0000000000000000e+00" cType="1" res="5.1404186524450779e-04" rms="4.9257835745811462e-01" purity="5.0275999307632446e-01" nType="-99"/>
        </Node>
        <Node pos="r" depth="1" NCoef="0" IVar="2" Cut="3.4681317210197449e-01" cType="1" res="7.0261180400848389e-02" rms="4.7279110550880432e-01" purity="6.3940912485122681e-01" nType="0">
          <Node pos="l" depth="2" NCoef="0" IVar="-1" Cut="0.0000000000000000e+00" cType="1" res="1.3463693903759122e-03" rms="4.8253676295280457e-01" purity="5.9779649972915649e-01" nType="-99"/>
          <Node pos="r" depth="2" NCoef="0" IVar="-1" Cut="0.0000000000000000e+00" cType="1" res="4.2404048144817352e-03" rms="4.6189615130424500e-01" purity="6.7433768510818481e-01" nType="-99"/>
        </Node>
      </Node>
    </BinaryTree>
    <BinaryTree type="DecisionTree" boostWeight="1.0000000000000000e+00" itree="61">
      <Node pos="s" depth="0" NCoef="0" IVar="4" Cut="4.2606472969055176e-01" cType="1" res="5.0735678523778915e-03" rms="4.8523265123367310e-01" purity="5.0022828578948975e-01" nType="0">
        <Node pos="l" depth="1" NCoef="0" IVar="8" Cut="3.7858274579048157e-01" cType="1" res="3.4197695553302765e-02" rms="4.8546677827835083e-01" purity="5.3784662485122681e-01" nType="0">
          <Node pos="l" depth="2" NCoef="0" IVar="-1" Cut="0.0000000000000000e+00" cType="1" res="1.6495703312102705e-04" rms="4.9139058589935303e-01" purity="4.7141271829605103e-01" nType="-99"/>
          <Node pos="r" depth="2" NCoef="0" IVar="-1" Cut="0.0000000000000000e+00" cType="1" res="3.2791711855679750e-03" rms="4.7388124465942383e-01" purity="6.2954449653625488e-01" nType="-99"/>
        </Node>
        <Node pos="r" depth="1" NCoef="0" IVar="5" Cut="6.3917822265625000e+02" cType="1" res="-4.0388785302639008e-02" rms="4.8135754466056824e-01" purity="4.4150647521018982e-01" nType="0">
          <Node pos="l" depth="2" NCoef="0" IVar="-1" Cut="0.0000000000000000e+00" cType="1" res="-4.4363560155034065e-03" rms="4.7183170914649963e-01" purity="3.7681290507316589e-01" nType="-99"/>
          <Node pos="r" depth="2" NCoef="0" IVar="-1" Cut="0.0000000000000000e+00" cType="1" res="1.4913968043401837e-03" rms="4.8846116662025452e-01" purity="5.5114156007766724e-01" nType="-99"/>
        </Node>
      </Node>
    </BinaryTree>
    <BinaryTree type="DecisionTree" boostWeight="1.0000000000000000e+00" itree="62">
      <Node pos="s" depth="0" NCoef="0" IVar="7" Cut="2.6768338680267334e-01" cType="1" res="1.2137043522670865e-03" rms="4.8509824275970459e-01" purity="4.9685958027839661e-01" nType="0">
        <Node pos="l" depth="1" NCoef="0" IVar="2" Cut="2.7143085002899170e-01" cType="1" res="-2.1443635225296021e-02" rms="4.8614788055419922e-01" purity="4.5628064870834351e-01" nType="0">
          <Node pos="l" depth="2" NCoef="0" IVar="-1" Cut="0.0000000000000000e+00" cType="1" res="-3.9092353545129299e-03" rms="4.7765234112739563e-01" purity="4.0054553747177124e-01" nType="-99"/>
          <Node pos="r" depth="2" NCoef="0" IVar="-1" Cut="0.0000000000000000e+00" cType="1" res="1.7509241297375411e-04" rms="4.8804658651351929e-01" purity="4.8228329420089722e-01" nType="-99"/>
        </Node>
        <Node pos="r" depth="1" NCoef="0" IVar="8" Cut="7.0468807220458984e-01" cType="1" res="6.1356194317340851e-02" rms="4.7711047530174255e-01" purity="6.0457384586334229e-01" nType="0">
          <Node pos="l" depth="2" NCoef="0" IVar="-1" Cut="0.0000000000000000e+00" cType="1" res="1.8264547688886523e-03" rms="4.8574250936508179e-01" purity="5.6688457727432251e-01" nType="-99"/>
