<?xml version="1.0"?>
<MethodSetup Method="BDT::BDTG">
  <GeneralInfo>
    <Info name="TMVA Release" value="4.2.0 [262656]"/>
    <Info name="ROOT Release" value="6.02/05 [393733]"/>
    <Info name="Creator" value="kelmorab"/>
    <Info name="Date" value="Sun Oct 11 13:14:03 2015"/>
    <Info name="Host" value="Linux cmsbuild32.cern.ch 2.6.32-504.8.1.el6.x86_64 #1 SMP Wed Jan 28 08:50:46 CET 2015 x86_64 x86_64 x86_64 GNU/Linux"/>
    <Info name="Dir" value="/nfs/dust/cms/user/kelmorab/ThesisPlots/TTH_Analysis_Chain/3makeHistosAndCards"/>
    <Info name="Training events" value="2505"/>
    <Info name="TrainingTime" value="2.25865602e+00"/>
    <Info name="AnalysisType" value="Classification"/>
  </GeneralInfo>
  <Options>
    <Option name="V" modified="Yes">False</Option>
    <Option name="VerbosityLevel" modified="No">Default</Option>
    <Option name="VarTransform" modified="No">None</Option>
    <Option name="H" modified="Yes">False</Option>
    <Option name="CreateMVAPdfs" modified="No">False</Option>
    <Option name="IgnoreNegWeightsInTraining" modified="No">False</Option>
    <Option name="NTrees" modified="Yes">1025</Option>
    <Option name="MaxDepth" modified="Yes">2</Option>
    <Option name="MinNodeSize" modified="No">5%</Option>
    <Option name="nCuts" modified="Yes">24</Option>
    <Option name="BoostType" modified="Yes">Grad</Option>
    <Option name="AdaBoostR2Loss" modified="No">quadratic</Option>
    <Option name="UseBaggedBoost" modified="Yes">True</Option>
    <Option name="Shrinkage" modified="Yes">9.330372e-03</Option>
    <Option name="AdaBoostBeta" modified="No">5.000000e-01</Option>
    <Option name="UseRandomisedTrees" modified="No">False</Option>
    <Option name="UseNvars" modified="No">3</Option>
    <Option name="UsePoissonNvars" modified="No">True</Option>
    <Option name="BaggedSampleFraction" modified="No">4.894101e-01</Option>
    <Option name="UseYesNoLeaf" modified="No">True</Option>
    <Option name="NegWeightTreatment" modified="Yes">ignorenegweightsintraining</Option>
    <Option name="Css" modified="No">1.000000e+00</Option>
    <Option name="Cts_sb" modified="No">1.000000e+00</Option>
    <Option name="Ctb_ss" modified="No">1.000000e+00</Option>
    <Option name="Cbb" modified="No">1.000000e+00</Option>
    <Option name="NodePurityLimit" modified="No">5.000000e-01</Option>
    <Option name="SeparationType" modified="No">giniindex</Option>
    <Option name="DoBoostMonitor" modified="No">False</Option>
    <Option name="UseFisherCuts" modified="No">False</Option>
    <Option name="MinLinCorrForFisher" modified="No">8.000000e-01</Option>
    <Option name="UseExclusiveVars" modified="No">False</Option>
    <Option name="DoPreselection" modified="No">False</Option>
    <Option name="SigToBkgFraction" modified="No">1.000000e+00</Option>
    <Option name="PruneMethod" modified="No">nopruning</Option>
    <Option name="PruneStrength" modified="No">0.000000e+00</Option>
    <Option name="PruningValFraction" modified="No">5.000000e-01</Option>
    <Option name="nEventsMin" modified="No">0</Option>
    <Option name="UseBaggedGrad" modified="No">False</Option>
    <Option name="GradBaggingFraction" modified="Yes">4.894101e-01</Option>
    <Option name="UseNTrainEvents" modified="No">0</Option>
    <Option name="NNodesMax" modified="No">0</Option>
  </Options>
  <Variables NVar="9">
    <Variable VarIndex="0" Expression="BDTOhio_v2_input_avg_dr_tagged_jets" Label="BDTOhio_v2_input_avg_dr_tagged_jets" Title="BDTOhio_v2_input_avg_dr_tagged_jets" Unit="" Internal="BDTOhio_v2_input_avg_dr_tagged_jets" Type="F" Min="1.05849206e+00" Max="3.36670804e+00"/>
    <Variable VarIndex="1" Expression="BDTOhio_v2_input_closest_tagged_dijet_mass" Label="BDTOhio_v2_input_closest_tagged_dijet_mass" Title="BDTOhio_v2_input_closest_tagged_dijet_mass" Unit="" Internal="BDTOhio_v2_input_closest_tagged_dijet_mass" Type="F" Min="2.01188431e+01" Max="4.78472198e+02"/>
    <Variable VarIndex="2" Expression="BDTOhio_v2_input_avg_btag_disc_btags" Label="BDTOhio_v2_input_avg_btag_disc_btags" Title="BDTOhio_v2_input_avg_btag_disc_btags" Unit="" Internal="BDTOhio_v2_input_avg_btag_disc_btags" Type="F" Min="9.08487439e-01" Max="9.99599755e-01"/>
    <Variable VarIndex="3" Expression="BDTOhio_v2_input_min_dr_tagged_jets" Label="BDTOhio_v2_input_min_dr_tagged_jets" Title="BDTOhio_v2_input_min_dr_tagged_jets" Unit="" Internal="BDTOhio_v2_input_min_dr_tagged_jets" Type="F" Min="3.95013630e-01" Max="2.66094446e+00"/>
    <Variable VarIndex="4" Expression="BDTOhio_v2_input_M3" Label="BDTOhio_v2_input_M3" Title="BDTOhio_v2_input_M3" Unit="" Internal="BDTOhio_v2_input_M3" Type="F" Min="5.64016342e+01" Max="1.43993762e+03"/>
    <Variable VarIndex="5" Expression="Evt_Deta_JetsAverage" Label="Evt_Deta_JetsAverage" Title="Evt_Deta_JetsAverage" Unit="" Internal="Evt_Deta_JetsAverage" Type="F" Min="7.38204345e-02" Max="2.65379858e+00"/>
    <Variable VarIndex="6" Expression="BDTOhio_v2_input_maxeta_jet_tag" Label="BDTOhio_v2_input_maxeta_jet_tag" Title="BDTOhio_v2_input_maxeta_jet_tag" Unit="" Internal="BDTOhio_v2_input_maxeta_jet_tag" Type="F" Min="1.91365704e-02" Max="1.59217596e+00"/>
    <Variable VarIndex="7" Expression="BDTOhio_v2_input_all_sum_pt_with_met" Label="BDTOhio_v2_input_all_sum_pt_with_met" Title="BDTOhio_v2_input_all_sum_pt_with_met" Unit="" Internal="BDTOhio_v2_input_all_sum_pt_with_met" Type="F" Min="2.25156601e+02" Max="2.22415430e+03"/>
    <Variable VarIndex="8" Expression="BDTOhio_v2_input_HT" Label="BDTOhio_v2_input_HT" Title="BDTOhio_v2_input_HT" Unit="" Internal="BDTOhio_v2_input_HT" Type="F" Min="1.36091568e+02" Max="1.94101453e+03"/>
  </Variables>
  <Spectators NSpec="0"/>
  <Classes NClass="2">
    <Class Name="Signal" Index="0"/>
    <Class Name="Background" Index="1"/>
  </Classes>
  <Transformations NTransformations="0"/>
  <MVAPdfs/>
  <Weights NTrees="1025" AnalysisType="1">
    <BinaryTree type="DecisionTree" boostWeight="1.0000000000000000e+00" itree="0">
      <Node pos="s" depth="0" NCoef="0" IVar="2" Cut="9.7009783983230591e-01" cType="1" res="-2.9724901542067528e-03" rms="4.9999117851257324e-01" purity="4.9702751636505127e-01" nType="0">
        <Node pos="l" depth="1" NCoef="0" IVar="5" Cut="1.3422589302062988e+00" cType="1" res="-1.2928561866283417e-01" rms="4.8299610614776611e-01" purity="3.7071436643600464e-01" nType="0">
          <Node pos="l" depth="2" NCoef="0" IVar="-1" Cut="0.0000000000000000e+00" cType="1" res="-1.1101502459496260e-03" rms="4.9455597996711731e-01" purity="4.2641758918762207e-01" nType="-99"/>
          <Node pos="r" depth="2" NCoef="0" IVar="-1" Cut="0.0000000000000000e+00" cType="1" res="-4.3041594326496124e-03" rms="3.6568665504455566e-01" purity="1.5901133418083191e-01" nType="-99"/>
        </Node>
        <Node pos="r" depth="1" NCoef="0" IVar="7" Cut="3.4913995361328125e+02" cType="1" res="1.6632828116416931e-01" rms="4.7152402997016907e-01" purity="6.6632825136184692e-01" nType="0">
          <Node pos="l" depth="2" NCoef="0" IVar="-1" Cut="0.0000000000000000e+00" cType="1" res="-2.6401497889310122e-03" rms="4.6245053410530090e-01" purity="3.0989602208137512e-01" nType="-99"/>
          <Node pos="r" depth="2" NCoef="0" IVar="-1" Cut="0.0000000000000000e+00" cType="1" res="4.3899444863200188e-03" rms="4.4493064284324646e-01" purity="7.2811561822891235e-01" nType="-99"/>
        </Node>
      </Node>
    </BinaryTree>
    <BinaryTree type="DecisionTree" boostWeight="1.0000000000000000e+00" itree="1">
      <Node pos="s" depth="0" NCoef="0" IVar="2" Cut="9.6711176633834839e-01" cType="1" res="-1.0765586979687214e-02" rms="4.9935621023178101e-01" purity="4.8939296603202820e-01" nType="0">
        <Node pos="l" depth="1" NCoef="0" IVar="5" Cut="1.1128244400024414e+00" cType="1" res="-1.4421528577804565e-01" rms="4.7830885648727417e-01" purity="3.5488331317901611e-01" nType="0">
          <Node pos="l" depth="2" NCoef="0" IVar="-1" Cut="0.0000000000000000e+00" cType="1" res="-7.1549444692209363e-04" rms="4.9777635931968689e-01" purity="4.5289674401283264e-01" nType="-99"/>
          <Node pos="r" depth="2" NCoef="0" IVar="-1" Cut="0.0000000000000000e+00" cType="1" res="-4.0510967373847961e-03" rms="3.8647422194480896e-01" purity="1.8295185267925262e-01" nType="-99"/>
        </Node>
        <Node pos="r" depth="1" NCoef="0" IVar="5" Cut="1.0733048915863037e+00" cType="1" res="1.5079960227012634e-01" rms="4.7603049874305725e-01" purity="6.5224146842956543e-01" nType="0">
          <Node pos="l" depth="2" NCoef="0" IVar="-1" Cut="0.0000000000000000e+00" cType="1" res="5.2644829265773296e-03" rms="4.2342618107795715e-01" purity="7.6552540063858032e-01" nType="-99"/>
          <Node pos="r" depth="2" NCoef="0" IVar="-1" Cut="0.0000000000000000e+00" cType="1" res="-5.2418920677155256e-04" rms="4.9885097146034241e-01" purity="4.6740919351577759e-01" nType="-99"/>
        </Node>
      </Node>
    </BinaryTree>
    <BinaryTree type="DecisionTree" boostWeight="1.0000000000000000e+00" itree="2">
      <Node pos="s" depth="0" NCoef="0" IVar="2" Cut="9.6740734577178955e-01" cType="1" res="2.4298017844557762e-02" rms="4.9819102883338928e-01" purity="5.2473664283752441e-01" nType="0">
        <Node pos="l" depth="1" NCoef="0" IVar="7" Cut="4.6229553222656250e+02" cType="1" res="-1.2237385660409927e-01" rms="4.8406112194061279e-01" purity="3.7577012181282043e-01" nType="0">
          <Node pos="l" depth="2" NCoef="0" IVar="-1" Cut="0.0000000000000000e+00" cType="1" res="-2.8885072097182274e-03" rms="4.5230230689048767e-01" purity="2.8739506006240845e-01" nType="-99"/>
          <Node pos="r" depth="2" NCoef="0" IVar="-1" Cut="0.0000000000000000e+00" cType="1" res="-2.2242972045205534e-04" rms="4.9954271316528320e-01" purity="4.8423099517822266e-01" nType="-99"/>
        </Node>
        <Node pos="r" depth="1" NCoef="0" IVar="0" Cut="2.4005258083343506e+00" cType="1" res="1.9505695998668671e-01" rms="4.5841962099075317e-01" purity="6.9816702604293823e-01" nType="0">
          <Node pos="l" depth="2" NCoef="0" IVar="-1" Cut="0.0000000000000000e+00" cType="1" res="5.9590898454189301e-03" rms="4.0384104847908020e-01" purity="7.9433077573776245e-01" nType="-99"/>
          <Node pos="r" depth="2" NCoef="0" IVar="-1" Cut="0.0000000000000000e+00" cType="1" res="-2.1613780409097672e-03" rms="4.7699135541915894e-01" purity="3.4984576702117920e-01" nType="-99"/>
        </Node>
      </Node>
    </BinaryTree>
    <BinaryTree type="DecisionTree" boostWeight="1.0000000000000000e+00" itree="3">
      <Node pos="s" depth="0" NCoef="0" IVar="2" Cut="9.6355491876602173e-01" cType="1" res="2.9073027893900871e-02" rms="4.9725589156150818e-01" purity="5.3040254116058350e-01" nType="0">
        <Node pos="l" depth="1" NCoef="0" IVar="8" Cut="2.7295379638671875e+02" cType="1" res="-1.3876931369304657e-01" rms="4.7910246253013611e-01" purity="3.5851481556892395e-01" nType="0">
          <Node pos="l" depth="2" NCoef="0" IVar="-1" Cut="0.0000000000000000e+00" cType="1" res="-3.7515177391469479e-03" rms="4.0554323792457581e-01" purity="2.0807518064975739e-01" nType="-99"/>
          <Node pos="r" depth="2" NCoef="0" IVar="-1" Cut="0.0000000000000000e+00" cType="1" res="-7.8260694863274693e-04" rms="4.9686461687088013e-01" purity="4.4672679901123047e-01" nType="-99"/>
        </Node>
        <Node pos="r" depth="1" NCoef="0" IVar="5" Cut="1.0847331285476685e+00" cType="1" res="1.6145350039005280e-01" rms="4.7063705325126648e-01" purity="6.6597372293472290e-01" nType="0">
          <Node pos="l" depth="2" NCoef="0" IVar="-1" Cut="0.0000000000000000e+00" cType="1" res="5.6084888055920601e-03" rms="4.1222241520881653e-01" purity="7.8264367580413818e-01" nType="-99"/>
          <Node pos="r" depth="2" NCoef="0" IVar="-1" Cut="0.0000000000000000e+00" cType="1" res="-8.7204086594283581e-04" rms="4.9663895368576050e-01" purity="4.4409045577049255e-01" nType="-99"/>
        </Node>
      </Node>
    </BinaryTree>
    <BinaryTree type="DecisionTree" boostWeight="1.0000000000000000e+00" itree="4">
      <Node pos="s" depth="0" NCoef="0" IVar="5" Cut="1.3422589302062988e+00" cType="1" res="-2.2103147057350725e-04" rms="4.9743247032165527e-01" purity="5.0106626749038696e-01" nType="0">
        <Node pos="l" depth="1" NCoef="0" IVar="2" Cut="9.6554350852966309e-01" cType="1" res="8.2601048052310944e-02" rms="4.9044099450111389e-01" purity="5.8519726991653442e-01" nType="0">
          <Node pos="l" depth="2" NCoef="0" IVar="-1" Cut="0.0000000000000000e+00" cType="1" res="-9.7969197668135166e-04" rms="4.9511212110519409e-01" purity="4.3283003568649292e-01" nType="-99"/>
          <Node pos="r" depth="2" NCoef="0" IVar="-1" Cut="0.0000000000000000e+00" cType="1" res="4.5172213576734066e-03" rms="4.3761160969734192e-01" purity="7.3987036943435669e-01" nType="-99"/>
        </Node>
        <Node pos="r" depth="1" NCoef="0" IVar="2" Cut="9.6310001611709595e-01" cType="1" res="-2.8562834858894348e-01" rms="4.0760809183120728e-01" purity="2.1114857494831085e-01" nType="0">
          <Node pos="l" depth="2" NCoef="0" IVar="-1" Cut="0.0000000000000000e+00" cType="1" res="-4.6008788049221039e-03" rms="3.2637152075767517e-01" purity="1.2129387259483337e-01" nType="-99"/>
          <Node pos="r" depth="2" NCoef="0" IVar="-1" Cut="0.0000000000000000e+00" cType="1" res="-2.8547309339046478e-03" rms="4.5472842454910278e-01" purity="2.9163318872451782e-01" nType="-99"/>
        </Node>
      </Node>
    </BinaryTree>
    <BinaryTree type="DecisionTree" boostWeight="1.0000000000000000e+00" itree="5">
      <Node pos="s" depth="0" NCoef="0" IVar="5" Cut="1.1340888738632202e+00" cType="1" res="2.1156933158636093e-02" rms="4.9655714631080627e-01" purity="5.2305358648300171e-01" nType="0">
        <Node pos="l" depth="1" NCoef="0" IVar="2" Cut="9.6592378616333008e-01" cType="1" res="1.2762205302715302e-01" rms="4.7985973954200745e-01" purity="6.3228571414947510e-01" nType="0">
          <Node pos="l" depth="2" NCoef="0" IVar="-1" Cut="0.0000000000000000e+00" cType="1" res="-2.3368612164631486e-04" rms="4.9951076507568359e-01" purity="4.8253977298736572e-01" nType="-99"/>
          <Node pos="r" depth="2" NCoef="0" IVar="-1" Cut="0.0000000000000000e+00" cType="1" res="5.2578062750399113e-03" rms="4.1858500242233276e-01" purity="7.7293014526367188e-01" nType="-99"/>
        </Node>
        <Node pos="r" depth="1" NCoef="0" IVar="5" Cut="1.7744030952453613e+00" cType="1" res="-1.8008866906166077e-01" rms="4.6417823433876038e-01" purity="3.1657761335372925e-01" nType="0">
          <Node pos="l" depth="2" NCoef="0" IVar="-1" Cut="0.0000000000000000e+00" cType="1" res="-1.9325654720887542e-03" rms="4.8005095124244690e-01" purity="3.6312881112098694e-01" nType="-99"/>
          <Node pos="r" depth="2" NCoef="0" IVar="-1" Cut="0.0000000000000000e+00" cType="1" res="-4.3808678165078163e-03" rms="3.5167461633682251e-01" purity="1.4506112039089203e-01" nType="-99"/>
        </Node>
      </Node>
    </BinaryTree>
    <BinaryTree type="DecisionTree" boostWeight="1.0000000000000000e+00" itree="6">
      <Node pos="s" depth="0" NCoef="0" IVar="2" Cut="9.7456121444702148e-01" cType="1" res="-3.2444007694721222e-02" rms="4.9594765901565552e-01" purity="4.6966910362243652e-01" nType="0">
        <Node pos="l" depth="1" NCoef="0" IVar="5" Cut="1.3167877197265625e+00" cType="1" res="-1.1512336879968643e-01" rms="4.8440521955490112e-01" purity="3.8363835215568542e-01" nType="0">
          <Node pos="l" depth="2" NCoef="0" IVar="-1" Cut="0.0000000000000000e+00" cType="1" res="-8.1558839883655310e-04" rms="4.9609977006912231e-01" purity="4.4769012928009033e-01" nType="-99"/>
          <Node pos="r" depth="2" NCoef="0" IVar="-1" Cut="0.0000000000000000e+00" cType="1" res="-3.9450936019420624e-03" rms="3.8766795396804810e-01" purity="1.8485377728939056e-01" nType="-99"/>
        </Node>
        <Node pos="r" depth="1" NCoef="0" IVar="5" Cut="1.3105508089065552e+00" cType="1" res="1.6546262800693512e-01" rms="4.6639052033424377e-01" purity="6.7559790611267090e-01" nType="0">
          <Node pos="l" depth="2" NCoef="0" IVar="-1" Cut="0.0000000000000000e+00" cType="1" res="4.6701780520379543e-03" rms="4.3272778391838074e-01" purity="7.5053751468658447e-01" nType="-99"/>
          <Node pos="r" depth="2" NCoef="0" IVar="-1" Cut="0.0000000000000000e+00" cType="1" res="-1.4042794937267900e-03" rms="4.9081063270568848e-01" purity="4.0390759706497192e-01" nType="-99"/>
        </Node>
      </Node>
    </BinaryTree>
    <BinaryTree type="DecisionTree" boostWeight="1.0000000000000000e+00" itree="7">
      <Node pos="s" depth="0" NCoef="0" IVar="5" Cut="9.7819721698760986e-01" cType="1" res="4.9811974167823792e-03" rms="4.9560764431953430e-01" purity="5.0752937793731689e-01" nType="0">
        <Node pos="l" depth="1" NCoef="0" IVar="2" Cut="9.7219520807266235e-01" cType="1" res="1.4648975431919098e-01" rms="4.7264769673347473e-01" purity="6.5326565504074097e-01" nType="0">
          <Node pos="l" depth="2" NCoef="0" IVar="-1" Cut="0.0000000000000000e+00" cType="1" res="3.5710743395611644e-04" rms="4.9884018301963806e-01" purity="5.2211439609527588e-01" nType="-99"/>
          <Node pos="r" depth="2" NCoef="0" IVar="-1" Cut="0.0000000000000000e+00" cType="1" res="7.4389334768056870e-03" rms="3.4937253594398499e-01" purity="8.5757917165756226e-01" nType="-99"/>
        </Node>
        <Node pos="r" depth="1" NCoef="0" IVar="8" Cut="2.3437838745117188e+02" cType="1" res="-1.6248956322669983e-01" rms="4.6924588084220886e-01" purity="3.3505529165267944e-01" nType="0">
          <Node pos="l" depth="2" NCoef="0" IVar="-1" Cut="0.0000000000000000e+00" cType="1" res="-4.6777552925050259e-03" rms="3.1574451923370361e-01" purity="1.1295973509550095e-01" nType="-99"/>
          <Node pos="r" depth="2" NCoef="0" IVar="-1" Cut="0.0000000000000000e+00" cType="1" res="-1.4611893566325307e-03" rms="4.8725712299346924e-01" purity="3.9999288320541382e-01" nType="-99"/>
        </Node>
      </Node>
    </BinaryTree>
    <BinaryTree type="DecisionTree" boostWeight="1.0000000000000000e+00" itree="8">
      <Node pos="s" depth="0" NCoef="0" IVar="2" Cut="9.6740734577178955e-01" cType="1" res="2.7259681373834610e-03" rms="4.9509909749031067e-01" purity="5.0533872842788696e-01" nType="0">
        <Node pos="l" depth="1" NCoef="0" IVar="5" Cut="1.3350355625152588e+00" cType="1" res="-1.3093589246273041e-01" rms="4.7947162389755249e-01" purity="3.6356207728385925e-01" nType="0">
          <Node pos="l" depth="2" NCoef="0" IVar="-1" Cut="0.0000000000000000e+00" cType="1" res="-1.0430586989969015e-03" rms="4.9404764175415039e-01" purity="4.2769482731819153e-01" nType="-99"/>
          <Node pos="r" depth="2" NCoef="0" IVar="-1" Cut="0.0000000000000000e+00" cType="1" res="-4.1850446723401546e-03" rms="3.6191123723983765e-01" purity="1.5532110631465912e-01" nType="-99"/>
        </Node>
        <Node pos="r" depth="1" NCoef="0" IVar="5" Cut="1.2483192682266235e+00" cType="1" res="1.5127786993980408e-01" rms="4.6917632222175598e-01" purity="6.6290944814682007e-01" nType="0">
          <Node pos="l" depth="2" NCoef="0" IVar="-1" Cut="0.0000000000000000e+00" cType="1" res="4.5405747368931770e-03" rms="4.3311858177185059e-01" purity="7.4786382913589478e-01" nType="-99"/>
          <Node pos="r" depth="2" NCoef="0" IVar="-1" Cut="0.0000000000000000e+00" cType="1" res="-1.4403610257431865e-03" rms="4.8908594250679016e-01" purity="3.9949351549148560e-01" nType="-99"/>
        </Node>
      </Node>
    </BinaryTree>
    <BinaryTree type="DecisionTree" boostWeight="1.0000000000000000e+00" itree="9">
      <Node pos="s" depth="0" NCoef="0" IVar="2" Cut="9.6988075971603394e-01" cType="1" res="1.0435828007757664e-02" rms="4.9459290504455566e-01" purity="5.1310455799102783e-01" nType="0">
        <Node pos="l" depth="1" NCoef="0" IVar="5" Cut="1.3350355625152588e+00" cType="1" res="-1.0053437948226929e-01" rms="4.8693391680717468e-01" purity="3.9433237910270691e-01" nType="0">
          <Node pos="l" depth="2" NCoef="0" IVar="-1" Cut="0.0000000000000000e+00" cType="1" res="-6.8057031603530049e-04" rms="4.9711433053016663e-01" purity="4.5317131280899048e-01" nType="-99"/>
          <Node pos="r" depth="2" NCoef="0" IVar="-1" Cut="0.0000000000000000e+00" cType="1" res="-3.9873546920716763e-03" rms="3.7713071703910828e-01" purity="1.7226456105709076e-01" nType="-99"/>
        </Node>
        <Node pos="r" depth="1" NCoef="0" IVar="5" Cut="1.3525100946426392e+00" cType="1" res="1.6902548074722290e-01" rms="4.6110317111015320e-01" purity="6.8284416198730469e-01" nType="0">
          <Node pos="l" depth="2" NCoef="0" IVar="-1" Cut="0.0000000000000000e+00" cType="1" res="5.0105424597859383e-03" rms="4.2034339904785156e-01" purity="7.6862722635269165e-01" nType="-99"/>
          <Node pos="r" depth="2" NCoef="0" IVar="-1" Cut="0.0000000000000000e+00" cType="1" res="-2.1994374692440033e-03" rms="4.7388309240341187e-01" purity="3.4055021405220032e-01" nType="-99"/>
        </Node>
      </Node>
    </BinaryTree>
    <BinaryTree type="DecisionTree" boostWeight="1.0000000000000000e+00" itree="10">
      <Node pos="s" depth="0" NCoef="0" IVar="5" Cut="1.3455229997634888e+00" cType="1" res="1.5741001814603806e-02" rms="4.9466288089752197e-01" purity="5.1978665590286255e-01" nType="0">
        <Node pos="l" depth="1" NCoef="0" IVar="4" Cut="1.9065757751464844e+02" cType="1" res="7.1082383394241333e-02" rms="4.8996967077255249e-01" purity="5.7880771160125732e-01" nType="0">
          <Node pos="l" depth="2" NCoef="0" IVar="-1" Cut="0.0000000000000000e+00" cType="1" res="-9.5804489683359861e-04" rms="4.9323046207427979e-01" purity="4.4412156939506531e-01" nType="-99"/>
          <Node pos="r" depth="2" NCoef="0" IVar="-1" Cut="0.0000000000000000e+00" cType="1" res="3.5539923701435328e-03" rms="4.5546743273735046e-01" purity="6.9779449701309204e-01" nType="-99"/>
        </Node>
        <Node pos="r" depth="1" NCoef="0" IVar="1" Cut="6.9868927001953125e+01" cType="1" res="-2.1916562318801880e-01" rms="4.4286021590232849e-01" purity="2.6926088333129883e-01" nType="0">
          <Node pos="l" depth="2" NCoef="0" IVar="-1" Cut="0.0000000000000000e+00" cType="1" res="-4.3361322022974491e-03" rms="3.4841474890708923e-01" purity="1.4195649325847626e-01" nType="-99"/>
          <Node pos="r" depth="2" NCoef="0" IVar="-1" Cut="0.0000000000000000e+00" cType="1" res="-1.5408198814839125e-03" rms="4.8504129052162170e-01" purity="3.8274073600769043e-01" nType="-99"/>
        </Node>
      </Node>
    </BinaryTree>
    <BinaryTree type="DecisionTree" boostWeight="1.0000000000000000e+00" itree="11">
      <Node pos="s" depth="0" NCoef="0" IVar="5" Cut="1.3147516250610352e+00" cType="1" res="-9.4755934551358223e-03" rms="4.9431690573692322e-01" purity="4.9389600753784180e-01" nType="0">
        <Node pos="l" depth="1" NCoef="0" IVar="2" Cut="9.7398668527603149e-01" cType="1" res="5.7234670966863632e-02" rms="4.9157807230949402e-01" purity="5.6524598598480225e-01" nType="0">
          <Node pos="l" depth="2" NCoef="0" IVar="-1" Cut="0.0000000000000000e+00" cType="1" res="-3.3983672619797289e-04" rms="4.9797749519348145e-01" purity="4.7960546612739563e-01" nType="-99"/>
          <Node pos="r" depth="2" NCoef="0" IVar="-1" Cut="0.0000000000000000e+00" cType="1" res="4.4426424428820610e-03" rms="4.3168273568153381e-01" purity="7.4837100505828857e-01" nType="-99"/>
        </Node>
        <Node pos="r" depth="1" NCoef="0" IVar="1" Cut="9.6673980712890625e+01" cType="1" res="-2.3517385125160217e-01" rms="4.3299955129623413e-01" purity="2.5250026583671570e-01" nType="0">
          <Node pos="l" depth="2" NCoef="0" IVar="-1" Cut="0.0000000000000000e+00" cType="1" res="-4.0598316118121147e-03" rms="3.7165465950965881e-01" purity="1.6719058156013489e-01" nType="-99"/>
          <Node pos="r" depth="2" NCoef="0" IVar="-1" Cut="0.0000000000000000e+00" cType="1" res="-1.4686109498143196e-03" rms="4.8650583624839783e-01" purity="3.8892722129821777e-01" nType="-99"/>
        </Node>
      </Node>
    </BinaryTree>
    <BinaryTree type="DecisionTree" boostWeight="1.0000000000000000e+00" itree="12">
      <Node pos="s" depth="0" NCoef="0" IVar="2" Cut="9.7033214569091797e-01" cType="1" res="3.3596152206882834e-04" rms="4.9261361360549927e-01" purity="5.0375801324844360e-01" nType="0">
        <Node pos="l" depth="1" NCoef="0" IVar="5" Cut="1.3224180936813354e+00" cType="1" res="-1.1554476618766785e-01" rms="4.8243507742881775e-01" purity="3.7840238213539124e-01" nType="0">
          <Node pos="l" depth="2" NCoef="0" IVar="-1" Cut="0.0000000000000000e+00" cType="1" res="-8.5370853776112199e-04" rms="4.9555692076683044e-01" purity="4.4180884957313538e-01" nType="-99"/>
          <Node pos="r" depth="2" NCoef="0" IVar="-1" Cut="0.0000000000000000e+00" cType="1" res="-3.9031570777297020e-03" rms="3.8026273250579834e-01" purity="1.7663326859474182e-01" nType="-99"/>
        </Node>
        <Node pos="r" depth="1" NCoef="0" IVar="5" Cut="1.0543980598449707e+00" cType="1" res="1.7519304156303406e-01" rms="4.5475950837135315e-01" purity="6.9291204214096069e-01" nType="0">
          <Node pos="l" depth="2" NCoef="0" IVar="-1" Cut="0.0000000000000000e+00" cType="1" res="6.8640098907053471e-03" rms="3.6139887571334839e-01" purity="8.4475010633468628e-01" nType="-99"/>
          <Node pos="r" depth="2" NCoef="0" IVar="-1" Cut="0.0000000000000000e+00" cType="1" res="-6.1497342539951205e-04" rms="4.9529677629470825e-01" purity="4.6324041485786438e-01" nType="-99"/>
        </Node>
      </Node>
    </BinaryTree>
    <BinaryTree type="DecisionTree" boostWeight="1.0000000000000000e+00" itree="13">
      <Node pos="s" depth="0" NCoef="0" IVar="5" Cut="1.3512698411941528e+00" cType="1" res="-1.8357235938310623e-02" rms="4.9292021989822388e-01" purity="4.8531797528266907e-01" nType="0">
        <Node pos="l" depth="1" NCoef="0" IVar="2" Cut="9.7506546974182129e-01" cType="1" res="4.5432697981595993e-02" rms="4.9199348688125610e-01" purity="5.5435961484909058e-01" nType="0">
          <Node pos="l" depth="2" NCoef="0" IVar="-1" Cut="0.0000000000000000e+00" cType="1" res="-5.3363898769021034e-04" rms="4.9680247902870178e-01" purity="4.6661722660064697e-01" nType="-99"/>
          <Node pos="r" depth="2" NCoef="0" IVar="-1" Cut="0.0000000000000000e+00" cType="1" res="4.7737052664160728e-03" rms="4.2173525691032410e-01" purity="7.6674127578735352e-01" nType="-99"/>
        </Node>
        <Node pos="r" depth="1" NCoef="0" IVar="2" Cut="9.6637779474258423e-01" cType="1" res="-2.6058381795883179e-01" rms="4.1510364413261414e-01" purity="2.2314925491809845e-01" nType="0">
          <Node pos="l" depth="2" NCoef="0" IVar="-1" Cut="0.0000000000000000e+00" cType="1" res="-4.2849448509514332e-03" rms="3.4165820479393005e-01" purity="1.3518209755420685e-01" nType="-99"/>
          <Node pos="r" depth="2" NCoef="0" IVar="-1" Cut="0.0000000000000000e+00" cType="1" res="-2.4073959793895483e-03" rms="4.6508041024208069e-01" purity="3.1666761636734009e-01" nType="-99"/>
        </Node>
      </Node>
    </BinaryTree>
    <BinaryTree type="DecisionTree" boostWeight="1.0000000000000000e+00" itree="14">
      <Node pos="s" depth="0" NCoef="0" IVar="5" Cut="1.3693375587463379e+00" cType="1" res="-4.1304659098386765e-03" rms="4.9225640296936035e-01" purity="4.9981072545051575e-01" nType="0">
        <Node pos="l" depth="1" NCoef="0" IVar="2" Cut="9.6669423580169678e-01" cType="1" res="6.2002342194318771e-02" rms="4.8917913436889648e-01" purity="5.7131433486938477e-01" nType="0">
          <Node pos="l" depth="2" NCoef="0" IVar="-1" Cut="0.0000000000000000e+00" cType="1" res="-9.3060970539227128e-04" rms="4.9483793973922729e-01" purity="4.3372637033462524e-01" nType="-99"/>
          <Node pos="r" depth="2" NCoef="0" IVar="-1" Cut="0.0000000000000000e+00" cType="1" res="3.7419011350721121e-03" rms="4.4619148969650269e-01" purity="7.1998465061187744e-01" nType="-99"/>
        </Node>
        <Node pos="r" depth="1" NCoef="0" IVar="2" Cut="9.6248632669448853e-01" cType="1" res="-2.7328285574913025e-01" rms="4.0541970729827881e-01" purity="2.0879976451396942e-01" nType="0">
          <Node pos="l" depth="2" NCoef="0" IVar="-1" Cut="0.0000000000000000e+00" cType="1" res="-4.6596885658800602e-03" rms="2.8977218270301819e-01" purity="9.2901833355426788e-02" nType="-99"/>
          <Node pos="r" depth="2" NCoef="0" IVar="-1" Cut="0.0000000000000000e+00" cType="1" res="-2.6459363289177418e-03" rms="4.5641022920608521e-01" purity="2.9444020986557007e-01" nType="-99"/>
        </Node>
      </Node>
    </BinaryTree>
    <BinaryTree type="DecisionTree" boostWeight="1.0000000000000000e+00" itree="15">
      <Node pos="s" depth="0" NCoef="0" IVar="5" Cut="1.2425210475921631e+00" cType="1" res="-2.7562826871871948e-02" rms="4.9073225259780884e-01" purity="4.7658884525299072e-01" nType="0">
        <Node pos="l" depth="1" NCoef="0" IVar="2" Cut="9.6150535345077515e-01" cType="1" res="6.1869289726018906e-02" rms="4.8839339613914490e-01" purity="5.7365155220031738e-01" nType="0">
          <Node pos="l" depth="2" NCoef="0" IVar="-1" Cut="0.0000000000000000e+00" cType="1" res="-1.7065942520275712e-03" rms="4.8434248566627502e-01" purity="3.7756964564323425e-01" nType="-99"/>
          <Node pos="r" depth="2" NCoef="0" IVar="-1" Cut="0.0000000000000000e+00" cType="1" res="3.3322831150144339e-03" rms="4.5518130064010620e-01" purity="6.9976204633712769e-01" nType="-99"/>
        </Node>
        <Node pos="r" depth="1" NCoef="0" IVar="8" Cut="2.6870578002929688e+02" cType="1" res="-2.5520762801170349e-01" rms="4.1769173741340637e-01" purity="2.2952096164226532e-01" nType="0">
          <Node pos="l" depth="2" NCoef="0" IVar="-1" Cut="0.0000000000000000e+00" cType="1" res="-4.1176942177116871e-03" rms="3.6385783553123474e-01" purity="1.5853196382522583e-01" nType="-99"/>
          <Node pos="r" depth="2" NCoef="0" IVar="-1" Cut="0.0000000000000000e+00" cType="1" res="-2.4264317471534014e-03" rms="4.5913046598434448e-01" purity="3.1151974201202393e-01" nType="-99"/>
        </Node>
      </Node>
    </BinaryTree>
    <BinaryTree type="DecisionTree" boostWeight="1.0000000000000000e+00" itree="16">
      <Node pos="s" depth="0" NCoef="0" IVar="2" Cut="9.6355330944061279e-01" cType="1" res="-2.7255712077021599e-02" rms="4.9169048666954041e-01" purity="4.7625079751014709e-01" nType="0">
        <Node pos="l" depth="1" NCoef="0" IVar="0" Cut="2.3824884891510010e+00" cType="1" res="-1.5130870044231415e-01" rms="4.7046604752540588e-01" purity="3.3767428994178772e-01" nType="0">
          <Node pos="l" depth="2" NCoef="0" IVar="-1" Cut="0.0000000000000000e+00" cType="1" res="-1.4419805957004428e-03" rms="4.8802232742309570e-01" purity="3.9500239491462708e-01" nType="-99"/>
          <Node pos="r" depth="2" NCoef="0" IVar="-1" Cut="0.0000000000000000e+00" cType="1" res="-4.1419067420065403e-03" rms="3.5217529535293579e-01" purity="1.4689664542675018e-01" nType="-99"/>
        </Node>
        <Node pos="r" depth="1" NCoef="0" IVar="5" Cut="1.0824605226516724e+00" cType="1" res="9.7769446671009064e-02" rms="4.8083236813545227e-01" purity="6.1591327190399170e-01" nType="0">
          <Node pos="l" depth="2" NCoef="0" IVar="-1" Cut="0.0000000000000000e+00" cType="1" res="3.6109304055571556e-03" rms="4.4893220067024231e-01" purity="7.1760129928588867e-01" nType="-99"/>
          <Node pos="r" depth="2" NCoef="0" IVar="-1" Cut="0.0000000000000000e+00" cType="1" res="-9.4404059927910566e-04" rms="4.9328035116195679e-01" purity="4.3682405352592468e-01" nType="-99"/>
        </Node>
      </Node>
    </BinaryTree>
    <BinaryTree type="DecisionTree" boostWeight="1.0000000000000000e+00" itree="17">
      <Node pos="s" depth="0" NCoef="0" IVar="5" Cut="1.3196806907653809e+00" cType="1" res="-8.5442308336496353e-03" rms="4.9023967981338501e-01" purity="4.9662905931472778e-01" nType="0">
        <Node pos="l" depth="1" NCoef="0" IVar="2" Cut="9.6025347709655762e-01" cType="1" res="6.9059722125530243e-02" rms="4.8658451437950134e-01" purity="5.8202880620956421e-01" nType="0">
          <Node pos="l" depth="2" NCoef="0" IVar="-1" Cut="0.0000000000000000e+00" cType="1" res="-1.5647108666598797e-03" rms="4.8603582382202148e-01" purity="3.8578268885612488e-01" nType="-99"/>
          <Node pos="r" depth="2" NCoef="0" IVar="-1" Cut="0.0000000000000000e+00" cType="1" res="3.0968855135142803e-03" rms="4.5895704627037048e-01" purity="6.9017148017883301e-01" nType="-99"/>
        </Node>
        <Node pos="r" depth="1" NCoef="0" IVar="1" Cut="9.4546264648437500e+01" cType="1" res="-2.6965725421905518e-01" rms="4.0485182404518127e-01" purity="2.0928554236888885e-01" nType="0">
          <Node pos="l" depth="2" NCoef="0" IVar="-1" Cut="0.0000000000000000e+00" cType="1" res="-4.5050848275423050e-03" rms="3.1188619136810303e-01" purity="1.1008679866790771e-01" nType="-99"/>
          <Node pos="r" depth="2" NCoef="0" IVar="-1" Cut="0.0000000000000000e+00" cType="1" res="-2.0457184873521328e-03" rms="4.7178280353546143e-01" purity="3.3805182576179504e-01" nType="-99"/>
        </Node>
      </Node>
    </BinaryTree>
    <BinaryTree type="DecisionTree" boostWeight="1.0000000000000000e+00" itree="18">
      <Node pos="s" depth="0" NCoef="0" IVar="5" Cut="1.3716838359832764e+00" cType="1" res="3.5661432892084122e-02" rms="4.8897486925125122e-01" purity="5.4190677404403687e-01" nType="0">
        <Node pos="l" depth="1" NCoef="0" IVar="2" Cut="9.6628862619400024e-01" cType="1" res="9.6083872020244598e-02" rms="4.8182171583175659e-01" purity="6.0926765203475952e-01" nType="0">
          <Node pos="l" depth="2" NCoef="0" IVar="-1" Cut="0.0000000000000000e+00" cType="1" res="-3.0908206827007234e-04" rms="4.9861443042755127e-01" purity="4.7328072786331177e-01" nType="-99"/>
          <Node pos="r" depth="2" NCoef="0" IVar="-1" Cut="0.0000000000000000e+00" cType="1" res="3.8782674819231033e-03" rms="4.4104737043380737e-01" purity="7.3129713535308838e-01" nType="-99"/>
        </Node>
        <Node pos="r" depth="1" NCoef="0" IVar="2" Cut="9.6653723716735840e-01" cType="1" res="-2.3237931728363037e-01" rms="4.2645084857940674e-01" purity="2.4308617413043976e-01" nType="0">
          <Node pos="l" depth="2" NCoef="0" IVar="-1" Cut="0.0000000000000000e+00" cType="1" res="-4.2606224305927753e-03" rms="3.3191737532615662e-01" purity="1.2669853866100311e-01" nType="-99"/>
          <Node pos="r" depth="2" NCoef="0" IVar="-1" Cut="0.0000000000000000e+00" cType="1" res="-1.3253072975203395e-03" rms="4.8818233609199524e-01" purity="3.9325898885726929e-01" nType="-99"/>
        </Node>
      </Node>
    </BinaryTree>
    <BinaryTree type="DecisionTree" boostWeight="1.0000000000000000e+00" itree="19">
      <Node pos="s" depth="0" NCoef="0" IVar="5" Cut="1.2090108394622803e+00" cType="1" res="-1.2479739263653755e-02" rms="4.9051535129547119e-01" purity="4.9220702052116394e-01" nType="0">
        <Node pos="l" depth="1" NCoef="0" IVar="2" Cut="9.6927493810653687e-01" cType="1" res="7.2869017720222473e-02" rms="4.8644423484802246e-01" purity="5.8732616901397705e-01" nType="0">
          <Node pos="l" depth="2" NCoef="0" IVar="-1" Cut="0.0000000000000000e+00" cType="1" res="-3.6206239019520581e-04" rms="4.9844282865524292e-01" purity="4.7321480512619019e-01" nType="-99"/>
          <Node pos="r" depth="2" NCoef="0" IVar="-1" Cut="0.0000000000000000e+00" cType="1" res="3.8848803378641605e-03" rms="4.3944969773292542e-01" purity="7.3706614971160889e-01" nType="-99"/>
        </Node>
        <Node pos="r" depth="1" NCoef="0" IVar="2" Cut="9.6645450592041016e-01" cType="1" res="-2.1249692142009735e-01" rms="4.3914481997489929e-01" purity="2.6929274201393127e-01" nType="0">
          <Node pos="l" depth="2" NCoef="0" IVar="-1" Cut="0.0000000000000000e+00" cType="1" res="-3.7508609239012003e-03" rms="3.8212963938713074e-01" purity="1.8041253089904785e-01" nType="-99"/>
          <Node pos="r" depth="2" NCoef="0" IVar="-1" Cut="0.0000000000000000e+00" cType="1" res="-1.7514413921162486e-03" rms="4.8057812452316284e-01" purity="3.7152525782585144e-01" nType="-99"/>
        </Node>
      </Node>
    </BinaryTree>
    <BinaryTree type="DecisionTree" boostWeight="1.0000000000000000e+00" itree="20">
      <Node pos="s" depth="0" NCoef="0" IVar="5" Cut="1.3122099637985229e+00" cType="1" res="-5.6457851314917207e-04" rms="4.8976826667785645e-01" purity="5.0426852703094482e-01" nType="0">
        <Node pos="l" depth="1" NCoef="0" IVar="2" Cut="9.6265316009521484e-01" cType="1" res="6.9759033620357513e-02" rms="4.8626178503036499e-01" purity="5.8423876762390137e-01" nType="0">
          <Node pos="l" depth="2" NCoef="0" IVar="-1" Cut="0.0000000000000000e+00" cType="1" res="-9.3509722501039505e-04" rms="4.9412867426872253e-01" purity="4.2969402670860291e-01" nType="-99"/>
          <Node pos="r" depth="2" NCoef="0" IVar="-1" Cut="0.0000000000000000e+00" cType="1" res="3.0812306795269251e-03" rms="4.5779147744178772e-01" purity="6.9518315792083740e-01" nType="-99"/>
        </Node>
        <Node pos="r" depth="1" NCoef="0" IVar="1" Cut="9.9227127075195312e+01" cType="1" res="-2.2821848094463348e-01" rms="4.2792105674743652e-01" purity="2.4538606405258179e-01" nType="0">
          <Node pos="l" depth="2" NCoef="0" IVar="-1" Cut="0.0000000000000000e+00" cType="1" res="-4.0285461582243443e-03" rms="3.5796982049942017e-01" purity="1.5253587067127228e-01" nType="-99"/>
          <Node pos="r" depth="2" NCoef="0" IVar="-1" Cut="0.0000000000000000e+00" cType="1" res="-1.2057487620040774e-03" rms="4.8709711432456970e-01" purity="3.9559301733970642e-01" nType="-99"/>
        </Node>
      </Node>
    </BinaryTree>
    <BinaryTree type="DecisionTree" boostWeight="1.0000000000000000e+00" itree="21">
      <Node pos="s" depth="0" NCoef="0" IVar="2" Cut="9.6444255113601685e-01" cType="1" res="7.8564416617155075e-03" rms="4.9012020230293274e-01" purity="5.1349920034408569e-01" nType="0">
        <Node pos="l" depth="1" NCoef="0" IVar="7" Cut="6.1850598144531250e+02" cType="1" res="-1.2125763297080994e-01" rms="4.7800076007843018e-01" purity="3.6441162228584290e-01" nType="0">
          <Node pos="l" depth="2" NCoef="0" IVar="-1" Cut="0.0000000000000000e+00" cType="1" res="-2.3669565562158823e-03" rms="4.6177449822425842e-01" purity="3.1531405448913574e-01" nType="-99"/>
          <Node pos="r" depth="2" NCoef="0" IVar="-1" Cut="0.0000000000000000e+00" cType="1" res="2.5800827424973249e-03" rms="4.7885692119598389e-01" purity="6.3592559099197388e-01" nType="-99"/>
        </Node>
        <Node pos="r" depth="1" NCoef="0" IVar="8" Cut="2.3356016540527344e+02" cType="1" res="1.2492167949676514e-01" rms="4.7120794653892517e-01" purity="6.4867401123046875e-01" nType="0">
          <Node pos="l" depth="2" NCoef="0" IVar="-1" Cut="0.0000000000000000e+00" cType="1" res="-1.4078776584938169e-03" rms="4.8316994309425354e-01" purity="4.1554883122444153e-01" nType="-99"/>
          <Node pos="r" depth="2" NCoef="0" IVar="-1" Cut="0.0000000000000000e+00" cType="1" res="3.0910556670278311e-03" rms="4.5767596364021301e-01" purity="6.9166082143783569e-01" nType="-99"/>
        </Node>
      </Node>
    </BinaryTree>
    <BinaryTree type="DecisionTree" boostWeight="1.0000000000000000e+00" itree="22">
      <Node pos="s" depth="0" NCoef="0" IVar="5" Cut="1.2425210475921631e+00" cType="1" res="-2.0378340035676956e-02" rms="4.8857960104942322e-01" purity="4.8512101173400879e-01" nType="0">
        <Node pos="l" depth="1" NCoef="0" IVar="2" Cut="9.7506546974182129e-01" cType="1" res="5.6037098169326782e-02" rms="4.8710110783576965e-01" purity="5.7191294431686401e-01" nType="0">
          <Node pos="l" depth="2" NCoef="0" IVar="-1" Cut="0.0000000000000000e+00" cType="1" res="-3.6713576992042363e-04" rms="4.9608993530273438e-01" purity="4.7849148511886597e-01" nType="-99"/>
          <Node pos="r" depth="2" NCoef="0" IVar="-1" Cut="0.0000000000000000e+00" cType="1" res="4.4930004514753819e-03" rms="4.2134895920753479e-01" purity="7.6830393075942993e-01" nType="-99"/>
        </Node>
        <Node pos="r" depth="1" NCoef="0" IVar="5" Cut="1.6480495929718018e+00" cType="1" res="-2.2935096919536591e-01" rms="4.2780441045761108e-01" purity="2.4777194857597351e-01" nType="0">
          <Node pos="l" depth="2" NCoef="0" IVar="-1" Cut="0.0000000000000000e+00" cType="1" res="-2.2241130936890841e-03" rms="4.6361532807350159e-01" purity="3.2166486978530884e-01" nType="-99"/>
          <Node pos="r" depth="2" NCoef="0" IVar="-1" Cut="0.0000000000000000e+00" cType="1" res="-4.3105338700115681e-03" rms="3.2821550965309143e-01" purity="1.2501886487007141e-01" nType="-99"/>
        </Node>
      </Node>
    </BinaryTree>
    <BinaryTree type="DecisionTree" boostWeight="1.0000000000000000e+00" itree="23">
      <Node pos="s" depth="0" NCoef="0" IVar="2" Cut="9.6740734577178955e-01" cType="1" res="-3.7358545232564211e-03" rms="4.8831337690353394e-01" purity="5.0139969587326050e-01" nType="0">
        <Node pos="l" depth="1" NCoef="0" IVar="1" Cut="9.7127777099609375e+01" cType="1" res="-1.1568653583526611e-01" rms="4.7917911410331726e-01" purity="3.6968269944190979e-01" nType="0">
          <Node pos="l" depth="2" NCoef="0" IVar="-1" Cut="0.0000000000000000e+00" cType="1" res="-2.5415539275854826e-03" rms="4.5583036541938782e-01" purity="3.0251485109329224e-01" nType="-99"/>
          <Node pos="r" depth="2" NCoef="0" IVar="-1" Cut="0.0000000000000000e+00" cType="1" res="8.6738204117864370e-04" rms="4.9419295787811279e-01" purity="5.3691458702087402e-01" nType="-99"/>
        </Node>
        <Node pos="r" depth="1" NCoef="0" IVar="5" Cut="1.3386653661727905e+00" cType="1" res="1.3516731560230255e-01" rms="4.6321755647659302e-01" purity="6.6482794284820557e-01" nType="0">
          <Node pos="l" depth="2" NCoef="0" IVar="-1" Cut="0.0000000000000000e+00" cType="1" res="3.7366331089287996e-03" rms="4.4042429327964783e-01" purity="7.3236727714538574e-01" nType="-99"/>
          <Node pos="r" depth="2" NCoef="0" IVar="-1" Cut="0.0000000000000000e+00" cType="1" res="-1.8736682832241058e-03" rms="4.7432032227516174e-01" purity="3.4879535436630249e-01" nType="-99"/>
        </Node>
      </Node>
    </BinaryTree>
    <BinaryTree type="DecisionTree" boostWeight="1.0000000000000000e+00" itree="24">
      <Node pos="s" depth="0" NCoef="0" IVar="2" Cut="9.7485119104385376e-01" cType="1" res="7.6138600707054138e-03" rms="4.8933392763137817e-01" purity="5.1432472467422485e-01" nType="0">
        <Node pos="l" depth="1" NCoef="0" IVar="0" Cut="2.3678162097930908e+00" cType="1" res="-6.4931251108646393e-02" rms="4.8906493186950684e-01" purity="4.2902547121047974e-01" nType="0">
          <Node pos="l" depth="2" NCoef="0" IVar="-1" Cut="0.0000000000000000e+00" cType="1" res="-1.1332985195622314e-05" rms="4.9689182639122009e-01" purity="5.0019079446792603e-01" nType="-99"/>
          <Node pos="r" depth="2" NCoef="0" IVar="-1" Cut="0.0000000000000000e+00" cType="1" res="-3.4010659437626600e-03" rms="4.0688547492027283e-01" purity="2.1361850202083588e-01" nType="-99"/>
        </Node>
        <Node pos="r" depth="1" NCoef="0" IVar="5" Cut="9.7071695327758789e-01" cType="1" res="1.6306793689727783e-01" rms="4.5229226350784302e-01" purity="6.9710928201675415e-01" nType="0">
          <Node pos="l" depth="2" NCoef="0" IVar="-1" Cut="0.0000000000000000e+00" cType="1" res="5.9098121710121632e-03" rms="3.7679904699325562e-01" purity="8.2839578390121460e-01" nType="-99"/>
          <Node pos="r" depth="2" NCoef="0" IVar="-1" Cut="0.0000000000000000e+00" cType="1" res="3.4382278681732714e-04" rms="4.9717414379119873e-01" purity="5.3177982568740845e-01" nType="-99"/>
        </Node>
      </Node>
    </BinaryTree>
    <BinaryTree type="DecisionTree" boostWeight="1.0000000000000000e+00" itree="25">
      <Node pos="s" depth="0" NCoef="0" IVar="5" Cut="1.1144520044326782e+00" cType="1" res="-1.6754895448684692e-02" rms="4.8759007453918457e-01" purity="4.8903018236160278e-01" nType="0">
        <Node pos="l" depth="1" NCoef="0" IVar="4" Cut="1.5320806884765625e+02" cType="1" res="7.8313186764717102e-02" rms="4.8253929615020752e-01" purity="5.9807360172271729e-01" nType="0">
          <Node pos="l" depth="2" NCoef="0" IVar="-1" Cut="0.0000000000000000e+00" cType="1" res="-1.9019310129806399e-03" rms="4.7814366221427917e-01" purity="3.8255789875984192e-01" nType="-99"/>
          <Node pos="r" depth="2" NCoef="0" IVar="-1" Cut="0.0000000000000000e+00" cType="1" res="2.7831185143440962e-03" rms="4.6254122257232666e-01" purity="6.7317432165145874e-01" nType="-99"/>
        </Node>
        <Node pos="r" depth="1" NCoef="0" IVar="2" Cut="9.7738385200500488e-01" cType="1" res="-1.9489736855030060e-01" rms="4.4525870680809021e-01" purity="2.8470027446746826e-01" nType="0">
          <Node pos="l" depth="2" NCoef="0" IVar="-1" Cut="0.0000000000000000e+00" cType="1" res="-3.3474399242550135e-03" rms="4.1121223568916321e-01" purity="2.2066788375377655e-01" nType="-99"/>
          <Node pos="r" depth="2" NCoef="0" IVar="-1" Cut="0.0000000000000000e+00" cType="1" res="2.8028670931234956e-04" rms="4.9509614706039429e-01" purity="5.1420736312866211e-01" nType="-99"/>
        </Node>
      </Node>
    </BinaryTree>
    <BinaryTree type="DecisionTree" boostWeight="1.0000000000000000e+00" itree="26">
      <Node pos="s" depth="0" NCoef="0" IVar="5" Cut="9.5034587383270264e-01" cType="1" res="-1.9230067729949951e-02" rms="4.8863726854324341e-01" purity="4.8740577697753906e-01" nType="0">
        <Node pos="l" depth="1" NCoef="0" IVar="4" Cut="1.3302920532226562e+02" cType="1" res="1.1604830622673035e-01" rms="4.7419962286949158e-01" purity="6.3806694746017456e-01" nType="0">
          <Node pos="l" depth="2" NCoef="0" IVar="-1" Cut="0.0000000000000000e+00" cType="1" res="-2.8090279083698988e-03" rms="4.5478779077529907e-01" purity="3.0701774358749390e-01" nType="-99"/>
          <Node pos="r" depth="2" NCoef="0" IVar="-1" Cut="0.0000000000000000e+00" cType="1" res="3.0935979448258877e-03" rms="4.5779341459274292e-01" purity="6.8942475318908691e-01" nType="-99"/>
        </Node>
        <Node pos="r" depth="1" NCoef="0" IVar="7" Cut="4.0807095336914062e+02" cType="1" res="-1.5986716747283936e-01" rms="4.6304875612258911e-01" purity="3.3077657222747803e-01" nType="0">
          <Node pos="l" depth="2" NCoef="0" IVar="-1" Cut="0.0000000000000000e+00" cType="1" res="-3.5222037695348263e-03" rms="4.0576276183128357e-01" purity="2.1868860721588135e-01" nType="-99"/>
          <Node pos="r" depth="2" NCoef="0" IVar="-1" Cut="0.0000000000000000e+00" cType="1" res="-1.0599235538393259e-03" rms="4.8796480894088745e-01" purity="4.2400377988815308e-01" nType="-99"/>
        </Node>
      </Node>
    </BinaryTree>
    <BinaryTree type="DecisionTree" boostWeight="1.0000000000000000e+00" itree="27">
      <Node pos="s" depth="0" NCoef="0" IVar="5" Cut="1.1058117151260376e+00" cType="1" res="-3.3876609057188034e-02" rms="4.8568853735923767e-01" purity="4.7184526920318604e-01" nType="0">
        <Node pos="l" depth="1" NCoef="0" IVar="4" Cut="1.9532575988769531e+02" cType="1" res="6.4370788633823395e-02" rms="4.8444709181785583e-01" purity="5.8479541540145874e-01" nType="0">
          <Node pos="l" depth="2" NCoef="0" IVar="-1" Cut="0.0000000000000000e+00" cType="1" res="-8.2334363833069801e-04" rms="4.9035498499870300e-01" purity="4.6331894397735596e-01" nType="-99"/>
          <Node pos="r" depth="2" NCoef="0" IVar="-1" Cut="0.0000000000000000e+00" cType="1" res="3.6651417613029480e-03" rms="4.4440382719039917e-01" purity="7.1610653400421143e-01" nType="-99"/>
        </Node>
        <Node pos="r" depth="1" NCoef="0" IVar="5" Cut="1.6011763811111450e+00" cType="1" res="-2.1886333823204041e-01" rms="4.3100634217262268e-01" purity="2.5917530059814453e-01" nType="0">
          <Node pos="l" depth="2" NCoef="0" IVar="-1" Cut="0.0000000000000000e+00" cType="1" res="-2.1179711911827326e-03" rms="4.6592405438423157e-01" purity="3.3469480276107788e-01" nType="-99"/>
          <Node pos="r" depth="2" NCoef="0" IVar="-1" Cut="0.0000000000000000e+00" cType="1" res="-4.6221716329455376e-03" rms="2.7462950348854065e-01" purity="8.3430781960487366e-02" nType="-99"/>
        </Node>
      </Node>
    </BinaryTree>
    <BinaryTree type="DecisionTree" boostWeight="1.0000000000000000e+00" itree="28">
      <Node pos="s" depth="0" NCoef="0" IVar="5" Cut="1.3196982145309448e+00" cType="1" res="1.2500757351517677e-02" rms="4.8605614900588989e-01" purity="5.2081835269927979e-01" nType="0">
        <Node pos="l" depth="1" NCoef="0" IVar="4" Cut="1.6866952514648438e+02" cType="1" res="7.1681275963783264e-02" rms="4.8290809988975525e-01" purity="5.9039008617401123e-01" nType="0">
          <Node pos="l" depth="2" NCoef="0" IVar="-1" Cut="0.0000000000000000e+00" cType="1" res="-1.5415456146001816e-03" rms="4.8211371898651123e-01" purity="4.0710133314132690e-01" nType="-99"/>
          <Node pos="r" depth="2" NCoef="0" IVar="-1" Cut="0.0000000000000000e+00" cType="1" res="2.8579311911016703e-03" rms="4.6062150597572327e-01" purity="6.7722409963607788e-01" nType="-99"/>
        </Node>
        <Node pos="r" depth="1" NCoef="0" IVar="5" Cut="1.6423218250274658e+00" cType="1" res="-2.3195250332355499e-01" rms="4.1788291931152344e-01" purity="2.3344303667545319e-01" nType="0">
          <Node pos="l" depth="2" NCoef="0" IVar="-1" Cut="0.0000000000000000e+00" cType="1" res="-1.8611248815432191e-03" rms="4.6916690468788147e-01" purity="3.3911591768264771e-01" nType="-99"/>
          <Node pos="r" depth="2" NCoef="0" IVar="-1" Cut="0.0000000000000000e+00" cType="1" res="-4.2989253997802734e-03" rms="3.1242290139198303e-01" purity="1.1287182569503784e-01" nType="-99"/>
        </Node>
      </Node>
    </BinaryTree>
    <BinaryTree type="DecisionTree" boostWeight="1.0000000000000000e+00" itree="29">
      <Node pos="s" depth="0" NCoef="0" IVar="2" Cut="9.6669423580169678e-01" cType="1" res="3.5995855927467346e-02" rms="4.8353120684623718e-01" purity="5.4252213239669800e-01" nType="0">
        <Node pos="l" depth="1" NCoef="0" IVar="5" Cut="1.3455229997634888e+00" cType="1" res="-9.0272463858127594e-02" rms="4.8270410299301147e-01" purity="3.9369988441467285e-01" nType="0">
          <Node pos="l" depth="2" NCoef="0" IVar="-1" Cut="0.0000000000000000e+00" cType="1" res="-4.2295304592698812e-04" rms="4.9684950709342957e-01" purity="4.6589145064353943e-01" nType="-99"/>
          <Node pos="r" depth="2" NCoef="0" IVar="-1" Cut="0.0000000000000000e+00" cType="1" res="-3.7436333950608969e-03" rms="3.6615586280822754e-01" purity="1.6079056262969971e-01" nType="-99"/>
        </Node>
        <Node pos="r" depth="1" NCoef="0" IVar="5" Cut="1.3298641443252563e+00" cType="1" res="1.6493526101112366e-01" rms="4.4912376999855042e-01" purity="6.9449245929718018e-01" nType="0">
          <Node pos="l" depth="2" NCoef="0" IVar="-1" Cut="0.0000000000000000e+00" cType="1" res="4.7204182483255863e-03" rms="4.1247126460075378e-01" purity="7.7715653181076050e-01" nType="-99"/>
          <Node pos="r" depth="2" NCoef="0" IVar="-1" Cut="0.0000000000000000e+00" cType="1" res="-1.0201454861089587e-03" rms="4.9113991856575012e-01" purity="4.0734851360321045e-01" nType="-99"/>
        </Node>
      </Node>
    </BinaryTree>
    <BinaryTree type="DecisionTree" boostWeight="1.0000000000000000e+00" itree="30">
      <Node pos="s" depth="0" NCoef="0" IVar="2" Cut="9.7044378519058228e-01" cType="1" res="-8.0419443547725677e-03" rms="4.8519948124885559e-01" purity="5.0003588199615479e-01" nType="0">
        <Node pos="l" depth="1" NCoef="0" IVar="0" Cut="2.3315165042877197e+00" cType="1" res="-1.1021555215120316e-01" rms="4.7717291116714478e-01" purity="3.7574154138565063e-01" nType="0">
          <Node pos="l" depth="2" NCoef="0" IVar="-1" Cut="0.0000000000000000e+00" cType="1" res="-5.9549178695306182e-04" rms="4.9524310231208801e-01" purity="4.5762246847152710e-01" nType="-99"/>
          <Node pos="r" depth="2" NCoef="0" IVar="-1" Cut="0.0000000000000000e+00" cType="1" res="-3.5773862618952990e-03" rms="3.8364160060882568e-01" purity="1.8549720942974091e-01" nType="-99"/>
        </Node>
        <Node pos="r" depth="1" NCoef="0" IVar="5" Cut="1.1932339668273926e+00" cType="1" res="1.2939447164535522e-01" rms="4.6138688921928406e-01" purity="6.6722744703292847e-01" nType="0">
          <Node pos="l" depth="2" NCoef="0" IVar="-1" Cut="0.0000000000000000e+00" cType="1" res="4.0532508864998817e-03" rms="4.2793202400207520e-01" purity="7.5672429800033569e-01" nType="-99"/>
          <Node pos="r" depth="2" NCoef="0" IVar="-1" Cut="0.0000000000000000e+00" cType="1" res="-1.2054906692355871e-03" rms="4.8848986625671387e-01" purity="4.1054996848106384e-01" nType="-99"/>
        </Node>
      </Node>
    </BinaryTree>
    <BinaryTree type="DecisionTree" boostWeight="1.0000000000000000e+00" itree="31">
      <Node pos="s" depth="0" NCoef="0" IVar="2" Cut="9.6740734577178955e-01" cType="1" res="5.7508186437189579e-03" rms="4.8700585961341858e-01" purity="5.1426607370376587e-01" nType="0">
        <Node pos="l" depth="1" NCoef="0" IVar="8" Cut="2.6057278442382812e+02" cType="1" res="-1.0324669629335403e-01" rms="4.8110738396644592e-01" purity="3.8043615221977234e-01" nType="0">
          <Node pos="l" depth="2" NCoef="0" IVar="-1" Cut="0.0000000000000000e+00" cType="1" res="-3.2839083578437567e-03" rms="4.1640594601631165e-01" purity="2.2567866742610931e-01" nType="-99"/>
          <Node pos="r" depth="2" NCoef="0" IVar="-1" Cut="0.0000000000000000e+00" cType="1" res="-4.6017151908017695e-04" rms="4.9486133456230164e-01" purity="4.5900177955627441e-01" nType="-99"/>
        </Node>
        <Node pos="r" depth="1" NCoef="0" IVar="1" Cut="4.4407165527343750e+01" cType="1" res="1.2372486293315887e-01" rms="4.6538010239601135e-01" purity="6.5911763906478882e-01" nType="0">
          <Node pos="l" depth="2" NCoef="0" IVar="-1" Cut="0.0000000000000000e+00" cType="1" res="-1.6906907549127936e-03" rms="4.8695504665374756e-01" purity="4.2294773459434509e-01" nType="-99"/>
          <Node pos="r" depth="2" NCoef="0" IVar="-1" Cut="0.0000000000000000e+00" cType="1" res="3.3123793546110392e-03" rms="4.4506043195724487e-01" purity="7.0897644758224487e-01" nType="-99"/>
        </Node>
      </Node>
    </BinaryTree>
    <BinaryTree type="DecisionTree" boostWeight="1.0000000000000000e+00" itree="32">
      <Node pos="s" depth="0" NCoef="0" IVar="2" Cut="9.6669423580169678e-01" cType="1" res="-1.6400586813688278e-02" rms="4.8568582534790039e-01" purity="4.9093595147132874e-01" nType="0">
        <Node pos="l" depth="1" NCoef="0" IVar="5" Cut="1.0591710805892944e+00" cType="1" res="-1.2612046301364899e-01" rms="4.7396826744079590e-01" purity="3.5679951310157776e-01" nType="0">
          <Node pos="l" depth="2" NCoef="0" IVar="-1" Cut="0.0000000000000000e+00" cType="1" res="-6.5579044166952372e-04" rms="4.9637660384178162e-01" purity="4.5127093791961670e-01" nType="-99"/>
          <Node pos="r" depth="2" NCoef="0" IVar="-1" Cut="0.0000000000000000e+00" cType="1" res="-3.3964365720748901e-03" rms="4.0111243724822998e-01" purity="2.0571595430374146e-01" nType="-99"/>
        </Node>
        <Node pos="r" depth="1" NCoef="0" IVar="5" Cut="9.7071695327758789e-01" cType="1" res="1.0991474241018295e-01" rms="4.6799731254577637e-01" purity="6.4536088705062866e-01" nType="0">
          <Node pos="l" depth="2" NCoef="0" IVar="-1" Cut="0.0000000000000000e+00" cType="1" res="4.6315598301589489e-03" rms="4.1057020425796509e-01" purity="7.8226977586746216e-01" nType="-99"/>
          <Node pos="r" depth="2" NCoef="0" IVar="-1" Cut="0.0000000000000000e+00" cType="1" res="-3.5875695175491273e-04" rms="4.9396321177482605e-01" purity="4.8831826448440552e-01" nType="-99"/>
        </Node>
      </Node>
    </BinaryTree>
    <BinaryTree type="DecisionTree" boostWeight="1.0000000000000000e+00" itree="33">
      <Node pos="s" depth="0" NCoef="0" IVar="2" Cut="9.6628862619400024e-01" cType="1" res="-2.2015953436493874e-02" rms="4.8442199826240540e-01" purity="4.8413228988647461e-01" nType="0">
        <Node pos="l" depth="1" NCoef="0" IVar="5" Cut="9.7394740581512451e-01" cType="1" res="-1.3390573859214783e-01" rms="4.6921268105506897e-01" purity="3.4718832373619080e-01" nType="0">
          <Node pos="l" depth="2" NCoef="0" IVar="-1" Cut="0.0000000000000000e+00" cType="1" res="-2.8320206911303103e-04" rms="4.9728196859359741e-01" purity="4.7623595595359802e-01" nType="-99"/>
          <Node pos="r" depth="2" NCoef="0" IVar="-1" Cut="0.0000000000000000e+00" cType="1" res="-3.4112960565835238e-03" rms="3.9971855282783508e-01" purity="2.0604592561721802e-01" nType="-99"/>
        </Node>
        <Node pos="r" depth="1" NCoef="0" IVar="5" Cut="1.3502089977264404e+00" cType="1" res="1.1615391075611115e-01" rms="4.6693122386932373e-01" purity="6.5324097871780396e-01" nType="0">
          <Node pos="l" depth="2" NCoef="0" IVar="-1" Cut="0.0000000000000000e+00" cType="1" res="3.1706178560853004e-03" rms="4.4924208521842957e-01" purity="7.1618485450744629e-01" nType="-99"/>
          <Node pos="r" depth="2" NCoef="0" IVar="-1" Cut="0.0000000000000000e+00" cType="1" res="-1.3981529045850039e-03" rms="4.8381277918815613e-01" purity="3.7683105468750000e-01" nType="-99"/>
        </Node>
      </Node>
    </BinaryTree>
    <BinaryTree type="DecisionTree" boostWeight="1.0000000000000000e+00" itree="34">
      <Node pos="s" depth="0" NCoef="0" IVar="5" Cut="1.3525133132934570e+00" cType="1" res="-1.8279258161783218e-02" rms="4.8286327719688416e-01" purity="4.8954004049301147e-01" nType="0">
        <Node pos="l" depth="1" NCoef="0" IVar="2" Cut="9.6620386838912964e-01" cType="1" res="5.3222876042127609e-02" rms="4.8321336507797241e-01" purity="5.7512837648391724e-01" nType="0">
          <Node pos="l" depth="2" NCoef="0" IVar="-1" Cut="0.0000000000000000e+00" cType="1" res="-1.0507523547858000e-03" rms="4.9147641658782959e-01" purity="4.1893786191940308e-01" nType="-99"/>
          <Node pos="r" depth="2" NCoef="0" IVar="-1" Cut="0.0000000000000000e+00" cType="1" res="3.2042409293353558e-03" rms="4.4667574763298035e-01" purity="7.1801304817199707e-01" nType="-99"/>
        </Node>
        <Node pos="r" depth="1" NCoef="0" IVar="1" Cut="9.5304565429687500e+01" cType="1" res="-2.6773622632026672e-01" rms="3.8975831866264343e-01" purity="1.9093903899192810e-01" nType="0">
          <Node pos="l" depth="2" NCoef="0" IVar="-1" Cut="0.0000000000000000e+00" cType="1" res="-4.2012599296867847e-03" rms="3.1853821873664856e-01" purity="1.1644268035888672e-01" nType="-99"/>
          <Node pos="r" depth="2" NCoef="0" IVar="-1" Cut="0.0000000000000000e+00" cType="1" res="-2.1695049945265055e-03" rms="4.6033599972724915e-01" purity="3.0989602208137512e-01" nType="-99"/>
        </Node>
      </Node>
    </BinaryTree>
    <BinaryTree type="DecisionTree" boostWeight="1.0000000000000000e+00" itree="35">
      <Node pos="s" depth="0" NCoef="0" IVar="2" Cut="9.7423064708709717e-01" cType="1" res="-1.8814250826835632e-02" rms="4.8438766598701477e-01" purity="4.8859354853630066e-01" nType="0">
        <Node pos="l" depth="1" NCoef="0" IVar="7" Cut="6.1850598144531250e+02" cType="1" res="-9.7908504307270050e-02" rms="4.8034039139747620e-01" purity="3.9243373274803162e-01" nType="0">
          <Node pos="l" depth="2" NCoef="0" IVar="-1" Cut="0.0000000000000000e+00" cType="1" res="-1.9612198229879141e-03" rms="4.7038504481315613e-01" purity="3.5241669416427612e-01" nType="-99"/>
          <Node pos="r" depth="2" NCoef="0" IVar="-1" Cut="0.0000000000000000e+00" cType="1" res="1.7216203268617392e-03" rms="4.8242959380149841e-01" purity="5.9804308414459229e-01" nType="-99"/>
        </Node>
        <Node pos="r" depth="1" NCoef="0" IVar="5" Cut="1.3112013339996338e+00" cType="1" res="1.4729948341846466e-01" rms="4.4955459237098694e-01" purity="6.9054836034774780e-01" nType="0">
          <Node pos="l" depth="2" NCoef="0" IVar="-1" Cut="0.0000000000000000e+00" cType="1" res="4.3236399069428444e-03" rms="4.1603717207908630e-01" purity="7.7384728193283081e-01" nType="-99"/>
          <Node pos="r" depth="2" NCoef="0" IVar="-1" Cut="0.0000000000000000e+00" cType="1" res="-1.1486234143376350e-03" rms="4.8802864551544189e-01" purity="4.0018132328987122e-01" nType="-99"/>
        </Node>
      </Node>
    </BinaryTree>
    <BinaryTree type="DecisionTree" boostWeight="1.0000000000000000e+00" itree="36">
      <Node pos="s" depth="0" NCoef="0" IVar="2" Cut="9.6287935972213745e-01" cType="1" res="-1.2121125124394894e-02" rms="4.8136284947395325e-01" purity="4.9423074722290039e-01" nType="0">
        <Node pos="l" depth="1" NCoef="0" IVar="5" Cut="9.6290969848632812e-01" cType="1" res="-1.5544407069683075e-01" rms="4.6056041121482849e-01" purity="3.2067951560020447e-01" nType="0">
          <Node pos="l" depth="2" NCoef="0" IVar="-1" Cut="0.0000000000000000e+00" cType="1" res="-8.0570270074531436e-04" rms="4.9491885304450989e-01" purity="4.3794503808021545e-01" nType="-99"/>
          <Node pos="r" depth="2" NCoef="0" IVar="-1" Cut="0.0000000000000000e+00" cType="1" res="-3.2886313274502754e-03" rms="4.0407642722129822e-01" purity="2.1270513534545898e-01" nType="-99"/>
        </Node>
        <Node pos="r" depth="1" NCoef="0" IVar="5" Cut="1.4353015422821045e+00" cType="1" res="1.0856514424085617e-01" rms="4.6513164043426514e-01" purity="6.4037096500396729e-01" nType="0">
          <Node pos="l" depth="2" NCoef="0" IVar="-1" Cut="0.0000000000000000e+00" cType="1" res="3.3058947883546352e-03" rms="4.4356292486190796e-01" purity="7.1796768903732300e-01" nType="-99"/>
          <Node pos="r" depth="2" NCoef="0" IVar="-1" Cut="0.0000000000000000e+00" cType="1" res="-2.2912772838026285e-03" rms="4.5796197652816772e-01" purity="3.0300110578536987e-01" nType="-99"/>
        </Node>
      </Node>
    </BinaryTree>
    <BinaryTree type="DecisionTree" boostWeight="1.0000000000000000e+00" itree="37">
      <Node pos="s" depth="0" NCoef="0" IVar="2" Cut="9.6025347709655762e-01" cType="1" res="-1.8273157998919487e-02" rms="4.8348280787467957e-01" purity="4.8794645071029663e-01" nType="0">
        <Node pos="l" depth="1" NCoef="0" IVar="5" Cut="7.5753915309906006e-01" cType="1" res="-1.5555457770824432e-01" rms="4.6023926138877869e-01" purity="3.1770604848861694e-01" nType="0">
          <Node pos="l" depth="2" NCoef="0" IVar="-1" Cut="0.0000000000000000e+00" cType="1" res="-6.3571037026122212e-04" rms="4.9581277370452881e-01" purity="4.4773322343826294e-01" nType="-99"/>
          <Node pos="r" depth="2" NCoef="0" IVar="-1" Cut="0.0000000000000000e+00" cType="1" res="-2.9025196563452482e-03" rms="4.2823383212089539e-01" purity="2.4908025562763214e-01" nType="-99"/>
        </Node>
        <Node pos="r" depth="1" NCoef="0" IVar="7" Cut="4.0301599121093750e+02" cType="1" res="7.8928790986537933e-02" rms="4.7591465711593628e-01" purity="6.0848498344421387e-01" nType="0">
          <Node pos="l" depth="2" NCoef="0" IVar="-1" Cut="0.0000000000000000e+00" cType="1" res="-1.3828279916197062e-03" rms="4.8563870787620544e-01" purity="4.2649716138839722e-01" nType="-99"/>
          <Node pos="r" depth="2" NCoef="0" IVar="-1" Cut="0.0000000000000000e+00" cType="1" res="2.9012127779424191e-03" rms="4.5147198438644409e-01" purity="6.8925851583480835e-01" nType="-99"/>
        </Node>
      </Node>
    </BinaryTree>
    <BinaryTree type="DecisionTree" boostWeight="1.0000000000000000e+00" itree="38">
      <Node pos="s" depth="0" NCoef="0" IVar="2" Cut="9.6373188495635986e-01" cType="1" res="-1.1779690161347389e-02" rms="4.8279431462287903e-01" purity="4.9716868996620178e-01" nType="0">
        <Node pos="l" depth="1" NCoef="0" IVar="7" Cut="5.2809094238281250e+02" cType="1" res="-1.3259448111057281e-01" rms="4.6877580881118774e-01" purity="3.4188997745513916e-01" nType="0">
          <Node pos="l" depth="2" NCoef="0" IVar="-1" Cut="0.0000000000000000e+00" cType="1" res="-2.5756577961146832e-03" rms="4.4532987475395203e-01" purity="2.8281834721565247e-01" nType="-99"/>
          <Node pos="r" depth="2" NCoef="0" IVar="-1" Cut="0.0000000000000000e+00" cType="1" res="3.4445573692210019e-04" rms="4.9776449799537659e-01" purity="5.0775390863418579e-01" nType="-99"/>
        </Node>
        <Node pos="r" depth="1" NCoef="0" IVar="5" Cut="1.1700272560119629e+00" cType="1" res="8.7700754404067993e-02" rms="4.7133773565292358e-01" purity="6.2502717971801758e-01" nType="0">
          <Node pos="l" depth="2" NCoef="0" IVar="-1" Cut="0.0000000000000000e+00" cType="1" res="3.1107724644243717e-03" rms="4.4630855321884155e-01" purity="7.1852767467498779e-01" nType="-99"/>
          <Node pos="r" depth="2" NCoef="0" IVar="-1" Cut="0.0000000000000000e+00" cType="1" res="-1.3786348281428218e-03" rms="4.8304057121276855e-01" purity="3.9232948422431946e-01" nType="-99"/>
        </Node>
      </Node>
    </BinaryTree>
    <BinaryTree type="DecisionTree" boostWeight="1.0000000000000000e+00" itree="39">
      <Node pos="s" depth="0" NCoef="0" IVar="2" Cut="9.6315485239028931e-01" cType="1" res="-3.9109203964471817e-02" rms="4.8099857568740845e-01" purity="4.6852898597717285e-01" nType="0">
        <Node pos="l" depth="1" NCoef="0" IVar="0" Cut="2.3824884891510010e+00" cType="1" res="-1.7663338780403137e-01" rms="4.5095264911651611e-01" purity="2.9693335294723511e-01" nType="0">
          <Node pos="l" depth="2" NCoef="0" IVar="-1" Cut="0.0000000000000000e+00" cType="1" res="-1.7774049192667007e-03" rms="4.7644916176795959e-01" purity="3.5958355665206909e-01" nType="-99"/>
          <Node pos="r" depth="2" NCoef="0" IVar="-1" Cut="0.0000000000000000e+00" cType="1" res="-4.0060356259346008e-03" rms="3.3519205451011658e-01" purity="1.2960736453533173e-01" nType="-99"/>
        </Node>
        <Node pos="r" depth="1" NCoef="0" IVar="5" Cut="1.3716838359832764e+00" cType="1" res="7.6030962169170380e-02" rms="4.7509106993675232e-01" purity="6.1219507455825806e-01" nType="0">
          <Node pos="l" depth="2" NCoef="0" IVar="-1" Cut="0.0000000000000000e+00" cType="1" res="2.3650682996958494e-03" rms="4.6283817291259766e-01" purity="6.7783945798873901e-01" nType="-99"/>
          <Node pos="r" depth="2" NCoef="0" IVar="-1" Cut="0.0000000000000000e+00" cType="1" res="-2.2513475269079208e-03" rms="4.5923408865928650e-01" purity="3.0485084652900696e-01" nType="-99"/>
        </Node>
      </Node>
    </BinaryTree>
    <BinaryTree type="DecisionTree" boostWeight="1.0000000000000000e+00" itree="40">
      <Node pos="s" depth="0" NCoef="0" IVar="2" Cut="9.7013157606124878e-01" cType="1" res="-1.2870821170508862e-02" rms="4.8218426108360291e-01" purity="4.9204131960868835e-01" nType="0">
        <Node pos="l" depth="1" NCoef="0" IVar="4" Cut="1.8939497375488281e+02" cType="1" res="-9.9793508648872375e-02" rms="4.7910243272781372e-01" purity="3.8156080245971680e-01" nType="0">
          <Node pos="l" depth="2" NCoef="0" IVar="-1" Cut="0.0000000000000000e+00" cType="1" res="-2.8451108373701572e-03" rms="4.4292271137237549e-01" purity="2.7387553453445435e-01" nType="-99"/>
          <Node pos="r" depth="2" NCoef="0" IVar="-1" Cut="0.0000000000000000e+00" cType="1" res="-1.8710517906583846e-04" rms="4.8905637860298157e-01" purity="4.6844655275344849e-01" nType="-99"/>
        </Node>
        <Node pos="r" depth="1" NCoef="0" IVar="5" Cut="1.1847279071807861e+00" cType="1" res="1.2563827633857727e-01" rms="4.5387005805969238e-01" purity="6.6808915138244629e-01" nType="0">
          <Node pos="l" depth="2" NCoef="0" IVar="-1" Cut="0.0000000000000000e+00" cType="1" res="4.4754329137504101e-03" rms="4.0847438573837280e-01" purity="7.8382551670074463e-01" nType="-99"/>
          <Node pos="r" depth="2" NCoef="0" IVar="-1" Cut="0.0000000000000000e+00" cType="1" res="-1.2329093879088759e-03" rms="4.8307743668556213e-01" purity="4.0253341197967529e-01" nType="-99"/>
        </Node>
      </Node>
    </BinaryTree>
    <BinaryTree type="DecisionTree" boostWeight="1.0000000000000000e+00" itree="41">
      <Node pos="s" depth="0" NCoef="0" IVar="2" Cut="9.6679931879043579e-01" cType="1" res="7.5558214448392391e-03" rms="4.8299685120582581e-01" purity="5.1638627052307129e-01" nType="0">
        <Node pos="l" depth="1" NCoef="0" IVar="5" Cut="1.4210193157196045e+00" cType="1" res="-9.0389989316463470e-02" rms="4.8057067394256592e-01" purity="3.8646784424781799e-01" nType="0">
          <Node pos="l" depth="2" NCoef="0" IVar="-1" Cut="0.0000000000000000e+00" cType="1" res="-6.4990285318344831e-04" rms="4.9437072873115540e-01" purity="4.4301187992095947e-01" nType="-99"/>
          <Node pos="r" depth="2" NCoef="0" IVar="-1" Cut="0.0000000000000000e+00" cType="1" res="-3.9007777813822031e-03" rms="3.3332571387290955e-01" purity="1.2805238366127014e-01" nType="-99"/>
        </Node>
        <Node pos="r" depth="1" NCoef="0" IVar="1" Cut="1.0888295745849609e+02" cType="1" res="1.1697654426097870e-01" rms="4.6174395084381104e-01" purity="6.6152542829513550e-01" nType="0">
          <Node pos="l" depth="2" NCoef="0" IVar="-1" Cut="0.0000000000000000e+00" cType="1" res="1.1903366539627314e-03" rms="4.7647112607955933e-01" purity="6.1257791519165039e-01" nType="-99"/>
          <Node pos="r" depth="2" NCoef="0" IVar="-1" Cut="0.0000000000000000e+00" cType="1" res="6.5024555660784245e-03" rms="3.4682214260101318e-01" purity="8.4161782264709473e-01" nType="-99"/>
        </Node>
      </Node>
    </BinaryTree>
    <BinaryTree type="DecisionTree" boostWeight="1.0000000000000000e+00" itree="42">
      <Node pos="s" depth="0" NCoef="0" IVar="5" Cut="1.0521582365036011e+00" cType="1" res="4.4421101920306683e-03" rms="4.7807112336158752e-01" purity="5.1284152269363403e-01" nType="0">
        <Node pos="l" depth="1" NCoef="0" IVar="2" Cut="9.7098428010940552e-01" cType="1" res="1.0641785711050034e-01" rms="4.6543714404106140e-01" purity="6.3626354932785034e-01" nType="0">
          <Node pos="l" depth="2" NCoef="0" IVar="-1" Cut="0.0000000000000000e+00" cType="1" res="5.8531011745799333e-05" rms="4.9470055103302002e-01" purity="5.0154078006744385e-01" nType="-99"/>
          <Node pos="r" depth="2" NCoef="0" IVar="-1" Cut="0.0000000000000000e+00" cType="1" res="5.5297962389886379e-03" rms="3.7316417694091797e-01" purity="8.2990610599517822e-01" nType="-99"/>
        </Node>
        <Node pos="r" depth="1" NCoef="0" IVar="2" Cut="9.6650546789169312e-01" cType="1" res="-1.5575844049453735e-01" rms="4.5307561755180359e-01" purity="3.1894952058792114e-01" nType="0">
          <Node pos="l" depth="2" NCoef="0" IVar="-1" Cut="0.0000000000000000e+00" cType="1" res="-3.3092391677200794e-03" rms="3.9772382378578186e-01" purity="2.0118592679500580e-01" nType="-99"/>
          <Node pos="r" depth="2" NCoef="0" IVar="-1" Cut="0.0000000000000000e+00" cType="1" res="-4.6737617230974138e-04" rms="4.8842516541481018e-01" purity="4.7228825092315674e-01" nType="-99"/>
        </Node>
      </Node>
    </BinaryTree>
    <BinaryTree type="DecisionTree" boostWeight="1.0000000000000000e+00" itree="43">
      <Node pos="s" depth="0" NCoef="0" IVar="5" Cut="1.3789740800857544e+00" cType="1" res="-2.4212220683693886e-02" rms="4.8116096854209900e-01" purity="4.8661926388740540e-01" nType="0">
        <Node pos="l" depth="1" NCoef="0" IVar="2" Cut="9.6462112665176392e-01" cType="1" res="2.3060042411088943e-02" rms="4.8440536856651306e-01" purity="5.4639369249343872e-01" nType="0">
          <Node pos="l" depth="2" NCoef="0" IVar="-1" Cut="0.0000000000000000e+00" cType="1" res="-1.2302281102165580e-03" rms="4.8746398091316223e-01" purity="4.0076872706413269e-01" nType="-99"/>
          <Node pos="r" depth="2" NCoef="0" IVar="-1" Cut="0.0000000000000000e+00" cType="1" res="2.1408200263977051e-03" rms="4.6245095133781433e-01" purity="6.7277646064758301e-01" nType="-99"/>
        </Node>
        <Node pos="r" depth="1" NCoef="0" IVar="5" Cut="1.6594560146331787e+00" cType="1" res="-2.6006340980529785e-01" rms="3.8614934682846069e-01" purity="1.8839243054389954e-01" nType="0">
          <Node pos="l" depth="2" NCoef="0" IVar="-1" Cut="0.0000000000000000e+00" cType="1" res="-2.5983660016208887e-03" rms="4.3331232666969299e-01" purity="2.6046529412269592e-01" nType="-99"/>
          <Node pos="r" depth="2" NCoef="0" IVar="-1" Cut="0.0000000000000000e+00" cType="1" res="-4.2220568284392357e-03" rms="3.0337145924568176e-01" purity="1.0440390557050705e-01" nType="-99"/>
        </Node>
      </Node>
    </BinaryTree>
    <BinaryTree type="DecisionTree" boostWeight="1.0000000000000000e+00" itree="44">
      <Node pos="s" depth="0" NCoef="0" IVar="2" Cut="9.6650546789169312e-01" cType="1" res="-8.2184094935655594e-03" rms="4.8000380396842957e-01" purity="5.0197726488113403e-01" nType="0">
        <Node pos="l" depth="1" NCoef="0" IVar="8" Cut="2.8041577148437500e+02" cType="1" res="-1.2672008574008942e-01" rms="4.6847593784332275e-01" purity="3.4724619984626770e-01" nType="0">
          <Node pos="l" depth="2" NCoef="0" IVar="-1" Cut="0.0000000000000000e+00" cType="1" res="-3.4570251591503620e-03" rms="3.9300557971000671e-01" purity="1.9847661256790161e-01" nType="-99"/>
          <Node pos="r" depth="2" NCoef="0" IVar="-1" Cut="0.0000000000000000e+00" cType="1" res="-6.6793162841349840e-04" rms="4.9004390835762024e-01" purity="4.3655866384506226e-01" nType="-99"/>
        </Node>
        <Node pos="r" depth="1" NCoef="0" IVar="5" Cut="1.3762499094009399e+00" cType="1" res="1.1577419191598892e-01" rms="4.6019205451011658e-01" purity="6.6387796401977539e-01" nType="0">
          <Node pos="l" depth="2" NCoef="0" IVar="-1" Cut="0.0000000000000000e+00" cType="1" res="2.9911641031503677e-03" rms="4.4504559040069580e-01" purity="7.1762841939926147e-01" nType="-99"/>
          <Node pos="r" depth="2" NCoef="0" IVar="-1" Cut="0.0000000000000000e+00" cType="1" res="-1.2099442537873983e-03" rms="4.8568782210350037e-01" purity="3.8581699132919312e-01" nType="-99"/>
        </Node>
      </Node>
    </BinaryTree>
    <BinaryTree type="DecisionTree" boostWeight="1.0000000000000000e+00" itree="45">
      <Node pos="s" depth="0" NCoef="0" IVar="2" Cut="9.6471965312957764e-01" cType="1" res="-1.8512539565563202e-02" rms="4.7914394736289978e-01" purity="4.8891103267669678e-01" nType="0">
        <Node pos="l" depth="1" NCoef="0" IVar="5" Cut="1.4535305500030518e+00" cType="1" res="-1.3478185236454010e-01" rms="4.6551308035850525e-01" purity="3.3603763580322266e-01" nType="0">
          <Node pos="l" depth="2" NCoef="0" IVar="-1" Cut="0.0000000000000000e+00" cType="1" res="-1.3665427686646581e-03" rms="4.8348248004913330e-01" purity="3.8602590560913086e-01" nType="-99"/>
          <Node pos="r" depth="2" NCoef="0" IVar="-1" Cut="0.0000000000000000e+00" cType="1" res="-4.1625113226473331e-03" rms="2.9361775517463684e-01" purity="9.6270032227039337e-02" nType="-99"/>
        </Node>
        <Node pos="r" depth="1" NCoef="0" IVar="5" Cut="1.1184977293014526e+00" cType="1" res="8.9391104876995087e-02" rms="4.6619722247123718e-01" purity="6.3078510761260986e-01" nType="0">
          <Node pos="l" depth="2" NCoef="0" IVar="-1" Cut="0.0000000000000000e+00" cType="1" res="3.3707339316606522e-03" rms="4.3370860815048218e-01" purity="7.3743462562561035e-01" nType="-99"/>
          <Node pos="r" depth="2" NCoef="0" IVar="-1" Cut="0.0000000000000000e+00" cType="1" res="-9.7678275778889656e-04" rms="4.8671472072601318e-01" purity="4.2778030037879944e-01" nType="-99"/>
        </Node>
      </Node>
    </BinaryTree>
    <BinaryTree type="DecisionTree" boostWeight="1.0000000000000000e+00" itree="46">
      <Node pos="s" depth="0" NCoef="0" IVar="5" Cut="1.1058117151260376e+00" cType="1" res="-6.7995274439454079e-03" rms="4.8317849636077881e-01" purity="5.0416058301925659e-01" nType="0">
        <Node pos="l" depth="1" NCoef="0" IVar="4" Cut="2.4313070678710938e+02" cType="1" res="6.1204344034194946e-02" rms="4.7876963019371033e-01" purity="5.9376186132431030e-01" nType="0">
          <Node pos="l" depth="2" NCoef="0" IVar="-1" Cut="0.0000000000000000e+00" cType="1" res="-5.2154635341139510e-05" rms="4.8674800992012024e-01" purity="5.2365750074386597e-01" nType="-99"/>
          <Node pos="r" depth="2" NCoef="0" IVar="-1" Cut="0.0000000000000000e+00" cType="1" res="4.8526688478887081e-03" rms="4.0898290276527405e-01" purity="7.8250551223754883e-01" nType="-99"/>
        </Node>
        <Node pos="r" depth="1" NCoef="0" IVar="1" Cut="9.7171005249023438e+01" cType="1" res="-1.2137548625469208e-01" rms="4.6870866417884827e-01" purity="3.5319650173187256e-01" nType="0">
          <Node pos="l" depth="2" NCoef="0" IVar="-1" Cut="0.0000000000000000e+00" cType="1" res="-2.5107304099947214e-03" rms="4.4832327961921692e-01" purity="2.9347926378250122e-01" nType="-99"/>
          <Node pos="r" depth="2" NCoef="0" IVar="-1" Cut="0.0000000000000000e+00" cType="1" res="-4.3708240264095366e-04" rms="4.8453655838966370e-01" purity="4.4672530889511108e-01" nType="-99"/>
        </Node>
      </Node>
    </BinaryTree>
    <BinaryTree type="DecisionTree" boostWeight="1.0000000000000000e+00" itree="47">
      <Node pos="s" depth="0" NCoef="0" IVar="2" Cut="9.6383041143417358e-01" cType="1" res="-1.6032215207815170e-02" rms="4.7936367988586426e-01" purity="4.9366074800491333e-01" nType="0">
        <Node pos="l" depth="1" NCoef="0" IVar="5" Cut="8.2276606559753418e-01" cType="1" res="-1.4454035460948944e-01" rms="4.6286213397979736e-01" purity="3.2507246732711792e-01" nType="0">
          <Node pos="l" depth="2" NCoef="0" IVar="-1" Cut="0.0000000000000000e+00" cType="1" res="-8.7444944074377418e-04" rms="4.9290230870246887e-01" purity="4.2890274524688721e-01" nType="-99"/>
          <Node pos="r" depth="2" NCoef="0" IVar="-1" Cut="0.0000000000000000e+00" cType="1" res="-2.7633712161332369e-03" rms="4.3113622069358826e-01" purity="2.5394463539123535e-01" nType="-99"/>
        </Node>
        <Node pos="r" depth="1" NCoef="0" IVar="5" Cut="1.3716838359832764e+00" cType="1" res="9.7417898476123810e-02" rms="4.6482861042022705e-01" purity="6.4249455928802490e-01" nType="0">
          <Node pos="l" depth="2" NCoef="0" IVar="-1" Cut="0.0000000000000000e+00" cType="1" res="2.8027228545397520e-03" rms="4.4872704148292542e-01" purity="7.0852249860763550e-01" nType="-99"/>
          <Node pos="r" depth="2" NCoef="0" IVar="-1" Cut="0.0000000000000000e+00" cType="1" res="-1.6887075034901500e-03" rms="4.7464960813522339e-01" purity="3.4635707736015320e-01" nType="-99"/>
        </Node>
      </Node>
    </BinaryTree>
    <BinaryTree type="DecisionTree" boostWeight="1.0000000000000000e+00" itree="48">
      <Node pos="s" depth="0" NCoef="0" IVar="2" Cut="9.6355491876602173e-01" cType="1" res="-2.2523155435919762e-02" rms="4.7967934608459473e-01" purity="4.8735088109970093e-01" nType="0">
        <Node pos="l" depth="1" NCoef="0" IVar="1" Cut="9.3455383300781250e+01" cType="1" res="-1.3161781430244446e-01" rms="4.6637535095214844e-01" purity="3.3807060122489929e-01" nType="0">
          <Node pos="l" depth="2" NCoef="0" IVar="-1" Cut="0.0000000000000000e+00" cType="1" res="-2.7587013319134712e-03" rms="4.3531197309494019e-01" purity="2.6433637738227844e-01" nType="-99"/>
          <Node pos="r" depth="2" NCoef="0" IVar="-1" Cut="0.0000000000000000e+00" cType="1" res="5.0858606118708849e-04" rms="4.9333667755126953e-01" purity="5.0686508417129517e-01" nType="-99"/>
        </Node>
        <Node pos="r" depth="1" NCoef="0" IVar="5" Cut="1.3502089977264404e+00" cType="1" res="7.5951382517814636e-02" rms="4.7012022137641907e-01" purity="6.2209904193878174e-01" nType="0">
          <Node pos="l" depth="2" NCoef="0" IVar="-1" Cut="0.0000000000000000e+00" cType="1" res="2.3579006083309650e-03" rms="4.5794737339019775e-01" purity="6.8875712156295776e-01" nType="-99"/>
          <Node pos="r" depth="2" NCoef="0" IVar="-1" Cut="0.0000000000000000e+00" cType="1" res="-2.0514139905571938e-03" rms="4.6108877658843994e-01" purity="3.1764402985572815e-01" nType="-99"/>
        </Node>
      </Node>
    </BinaryTree>
    <BinaryTree type="DecisionTree" boostWeight="1.0000000000000000e+00" itree="49">
      <Node pos="s" depth="0" NCoef="0" IVar="5" Cut="1.3196982145309448e+00" cType="1" res="-1.1031218804419041e-02" rms="4.8027887940406799e-01" purity="5.0024342536926270e-01" nType="0">
        <Node pos="l" depth="1" NCoef="0" IVar="4" Cut="1.4617866516113281e+02" cType="1" res="4.9594644457101822e-02" rms="4.8190182447433472e-01" purity="5.7980698347091675e-01" nType="0">
          <Node pos="l" depth="2" NCoef="0" IVar="-1" Cut="0.0000000000000000e+00" cType="1" res="-1.9814756233245134e-03" rms="4.7727325558662415e-01" purity="3.7814387679100037e-01" nType="-99"/>
          <Node pos="r" depth="2" NCoef="0" IVar="-1" Cut="0.0000000000000000e+00" cType="1" res="1.5413374640047550e-03" rms="4.7420397400856018e-01" purity="6.2060296535491943e-01" nType="-99"/>
        </Node>
        <Node pos="r" depth="1" NCoef="0" IVar="8" Cut="2.5173002624511719e+02" cType="1" res="-2.2541259229183197e-01" rms="4.0766334533691406e-01" purity="2.1889561414718628e-01" nType="0">
          <Node pos="l" depth="2" NCoef="0" IVar="-1" Cut="0.0000000000000000e+00" cType="1" res="-4.4426140375435352e-03" rms="2.5764861702919006e-01" purity="7.0728145539760590e-02" nType="-99"/>
          <Node pos="r" depth="2" NCoef="0" IVar="-1" Cut="0.0000000000000000e+00" cType="1" res="-2.0120786502957344e-03" rms="4.5547375082969666e-01" purity="3.0699387192726135e-01" nType="-99"/>
        </Node>
      </Node>
    </BinaryTree>
    <BinaryTree type="DecisionTree" boostWeight="1.0000000000000000e+00" itree="50">
      <Node pos="s" depth="0" NCoef="0" IVar="5" Cut="9.7819721698760986e-01" cType="1" res="1.7300887033343315e-02" rms="4.7829669713973999e-01" purity="5.2832621335983276e-01" nType="0">
        <Node pos="l" depth="1" NCoef="0" IVar="4" Cut="1.8957048034667969e+02" cType="1" res="1.1456022411584854e-01" rms="4.6094498038291931e-01" purity="6.5126508474349976e-01" nType="0">
          <Node pos="l" depth="2" NCoef="0" IVar="-1" Cut="0.0000000000000000e+00" cType="1" res="1.8486032786313444e-04" rms="4.8294746875762939e-01" purity="5.3569847345352173e-01" nType="-99"/>
          <Node pos="r" depth="2" NCoef="0" IVar="-1" Cut="0.0000000000000000e+00" cType="1" res="4.6785594895482063e-03" rms="4.0665692090988159e-01" purity="7.7748900651931763e-01" nType="-99"/>
        </Node>
        <Node pos="r" depth="1" NCoef="0" IVar="4" Cut="1.9077200317382812e+02" cType="1" res="-9.4236738979816437e-02" rms="4.7346493601799011e-01" purity="3.8733914494514465e-01" nType="0">
          <Node pos="l" depth="2" NCoef="0" IVar="-1" Cut="0.0000000000000000e+00" cType="1" res="-2.9681241139769554e-03" rms="4.3058925867080688e-01" purity="2.6050823926925659e-01" nType="-99"/>
          <Node pos="r" depth="2" NCoef="0" IVar="-1" Cut="0.0000000000000000e+00" cType="1" res="-4.8445182619616389e-04" rms="4.8180437088012695e-01" purity="4.5196056365966797e-01" nType="-99"/>
        </Node>
      </Node>
    </BinaryTree>
    <BinaryTree type="DecisionTree" boostWeight="1.0000000000000000e+00" itree="51">
      <Node pos="s" depth="0" NCoef="0" IVar="5" Cut="1.2113951444625854e+00" cType="1" res="2.6865964173339307e-04" rms="4.7992885112762451e-01" purity="5.1185154914855957e-01" nType="0">
        <Node pos="l" depth="1" NCoef="0" IVar="2" Cut="9.6117419004440308e-01" cType="1" res="6.4979903399944305e-02" rms="4.7771343588829041e-01" purity="5.9802770614624023e-01" nType="0">
          <Node pos="l" depth="2" NCoef="0" IVar="-1" Cut="0.0000000000000000e+00" cType="1" res="-7.0570001844316721e-04" rms="4.9480929970741272e-01" purity="4.3641817569732666e-01" nType="-99"/>
          <Node pos="r" depth="2" NCoef="0" IVar="-1" Cut="0.0000000000000000e+00" cType="1" res="2.6961434632539749e-03" rms="4.5066308975219727e-01" purity="7.0667326450347900e-01" nType="-99"/>
        </Node>
        <Node pos="r" depth="1" NCoef="0" IVar="7" Cut="5.0916705322265625e+02" cType="1" res="-1.6950024664402008e-01" rms="4.4282066822052002e-01" purity="2.8576993942260742e-01" nType="0">
          <Node pos="l" depth="2" NCoef="0" IVar="-1" Cut="0.0000000000000000e+00" cType="1" res="-3.2372926361858845e-03" rms="3.9748093485832214e-01" purity="2.0585241913795471e-01" nType="-99"/>
          <Node pos="r" depth="2" NCoef="0" IVar="-1" Cut="0.0000000000000000e+00" cType="1" res="8.1653782399371266e-04" rms="4.9078261852264404e-01" purity="5.1612782478332520e-01" nType="-99"/>
        </Node>
      </Node>
    </BinaryTree>
    <BinaryTree type="DecisionTree" boostWeight="1.0000000000000000e+00" itree="52">
      <Node pos="s" depth="0" NCoef="0" IVar="5" Cut="1.2696824073791504e+00" cType="1" res="-1.8674648599699140e-03" rms="4.7837314009666443e-01" purity="5.0761991739273071e-01" nType="0">
        <Node pos="l" depth="1" NCoef="0" IVar="4" Cut="1.7172523498535156e+02" cType="1" res="5.8443140238523483e-02" rms="4.7666126489639282e-01" purity="5.8833467960357666e-01" nType="0">
          <Node pos="l" depth="2" NCoef="0" IVar="-1" Cut="0.0000000000000000e+00" cType="1" res="-1.5016534598544240e-03" rms="4.7867500782012939e-01" purity="4.1381344199180603e-01" nType="-99"/>
          <Node pos="r" depth="2" NCoef="0" IVar="-1" Cut="0.0000000000000000e+00" cType="1" res="2.6147738099098206e-03" rms="4.5458784699440002e-01" purity="6.7843925952911377e-01" nType="-99"/>
        </Node>
        <Node pos="r" depth="1" NCoef="0" IVar="1" Cut="7.7405563354492188e+01" cType="1" res="-1.7968919873237610e-01" rms="4.3739700317382812e-01" purity="2.6963788270950317e-01" nType="0">
          <Node pos="l" depth="2" NCoef="0" IVar="-1" Cut="0.0000000000000000e+00" cType="1" res="-3.6017776001244783e-03" rms="3.6227768659591675e-01" purity="1.6040189564228058e-01" nType="-99"/>
          <Node pos="r" depth="2" NCoef="0" IVar="-1" Cut="0.0000000000000000e+00" cType="1" res="-1.2642606161534786e-03" rms="4.7861531376838684e-01" purity="3.7123507261276245e-01" nType="-99"/>
        </Node>
      </Node>
    </BinaryTree>
    <BinaryTree type="DecisionTree" boostWeight="1.0000000000000000e+00" itree="53">
      <Node pos="s" depth="0" NCoef="0" IVar="5" Cut="1.3196982145309448e+00" cType="1" res="4.6241199597716331e-03" rms="4.7566211223602295e-01" purity="5.1575863361358643e-01" nType="0">
        <Node pos="l" depth="1" NCoef="0" IVar="2" Cut="9.6592378616333008e-01" cType="1" res="7.0812076330184937e-02" rms="4.7260352969169617e-01" purity="6.0273855924606323e-01" nType="0">
          <Node pos="l" depth="2" NCoef="0" IVar="-1" Cut="0.0000000000000000e+00" cType="1" res="-6.2658981187269092e-04" rms="4.9222972989082336e-01" purity="4.4295826554298401e-01" nType="-99"/>
          <Node pos="r" depth="2" NCoef="0" IVar="-1" Cut="0.0000000000000000e+00" cType="1" res="3.4605942200869322e-03" rms="4.2967292666435242e-01" purity="7.4755805730819702e-01" nType="-99"/>
        </Node>
        <Node pos="r" depth="1" NCoef="0" IVar="5" Cut="1.6405627727508545e+00" cType="1" res="-2.0960384607315063e-01" rms="4.1900950670242310e-01" purity="2.3423424363136292e-01" nType="0">
          <Node pos="l" depth="2" NCoef="0" IVar="-1" Cut="0.0000000000000000e+00" cType="1" res="-2.0646008197218180e-03" rms="4.5802816748619080e-01" purity="3.0244266986846924e-01" nType="-99"/>
          <Node pos="r" depth="2" NCoef="0" IVar="-1" Cut="0.0000000000000000e+00" cType="1" res="-3.7982163485139608e-03" rms="3.3585414290428162e-01" purity="1.3614034652709961e-01" nType="-99"/>
        </Node>
      </Node>
    </BinaryTree>
    <BinaryTree type="DecisionTree" boostWeight="1.0000000000000000e+00" itree="54">
      <Node pos="s" depth="0" NCoef="0" IVar="2" Cut="9.6730220317840576e-01" cType="1" res="-5.5433702655136585e-03" rms="4.7985935211181641e-01" purity="5.0444346666336060e-01" nType="0">
        <Node pos="l" depth="1" NCoef="0" IVar="7" Cut="5.0102560424804688e+02" cType="1" res="-1.0209516435861588e-01" rms="4.7416189312934875e-01" purity="3.6847794055938721e-01" nType="0">
          <Node pos="l" depth="2" NCoef="0" IVar="-1" Cut="0.0000000000000000e+00" cType="1" res="-2.2797505371272564e-03" rms="4.5019376277923584e-01" purity="2.9721495509147644e-01" nType="-99"/>
          <Node pos="r" depth="2" NCoef="0" IVar="-1" Cut="0.0000000000000000e+00" cType="1" res="-8.2699334598146379e-06" rms="4.9479529261589050e-01" purity="4.8608148097991943e-01" nType="-99"/>
        </Node>
        <Node pos="r" depth="1" NCoef="0" IVar="5" Cut="1.4187846183776855e+00" cType="1" res="9.7682029008865356e-02" rms="4.6417036652565002e-01" purity="6.4980679750442505e-01" nType="0">
          <Node pos="l" depth="2" NCoef="0" IVar="-1" Cut="0.0000000000000000e+00" cType="1" res="2.6136543601751328e-03" rms="4.5230785012245178e-01" purity="7.0504868030548096e-01" nType="-99"/>
          <Node pos="r" depth="2" NCoef="0" IVar="-1" Cut="0.0000000000000000e+00" cType="1" res="-1.5733555192127824e-03" rms="4.7341626882553101e-01" purity="3.4783929586410522e-01" nType="-99"/>
        </Node>
      </Node>
    </BinaryTree>
    <BinaryTree type="DecisionTree" boostWeight="1.0000000000000000e+00" itree="55">
      <Node pos="s" depth="0" NCoef="0" IVar="5" Cut="1.0477375984191895e+00" cType="1" res="-3.5421068314462900e-03" rms="4.7628194093704224e-01" purity="5.0661993026733398e-01" nType="0">
        <Node pos="l" depth="1" NCoef="0" IVar="2" Cut="9.6113967895507812e-01" cType="1" res="8.9725628495216370e-02" rms="4.6732702851295471e-01" purity="6.2880182266235352e-01" nType="0">
          <Node pos="l" depth="2" NCoef="0" IVar="-1" Cut="0.0000000000000000e+00" cType="1" res="-4.7082782839424908e-04" rms="4.9390283226966858e-01" purity="4.5217806100845337e-01" nType="-99"/>
          <Node pos="r" depth="2" NCoef="0" IVar="-1" Cut="0.0000000000000000e+00" cType="1" res="3.2575505319982767e-03" rms="4.3408024311065674e-01" purity="7.3710608482360840e-01" nType="-99"/>
        </Node>
        <Node pos="r" depth="1" NCoef="0" IVar="5" Cut="1.6325694322586060e+00" cType="1" res="-1.3906295597553253e-01" rms="4.5619830489158630e-01" purity="3.2908597588539124e-01" nType="0">
          <Node pos="l" depth="2" NCoef="0" IVar="-1" Cut="0.0000000000000000e+00" cType="1" res="-1.2278867652639747e-03" rms="4.8043584823608398e-01" purity="4.0072521567344666e-01" nType="-99"/>
          <Node pos="r" depth="2" NCoef="0" IVar="-1" Cut="0.0000000000000000e+00" cType="1" res="-3.6482000723481178e-03" rms="3.4706723690032959e-01" purity="1.4585179090499878e-01" nType="-99"/>
        </Node>
      </Node>
    </BinaryTree>
    <BinaryTree type="DecisionTree" boostWeight="1.0000000000000000e+00" itree="56">
      <Node pos="s" depth="0" NCoef="0" IVar="5" Cut="1.1087445020675659e+00" cType="1" res="-4.6051545068621635e-03" rms="4.7817116975784302e-01" purity="5.0386464595794678e-01" nType="0">
        <Node pos="l" depth="1" NCoef="0" IVar="4" Cut="1.6559309387207031e+02" cType="1" res="6.8305514752864838e-02" rms="4.7509628534317017e-01" purity="6.0286015272140503e-01" nType="0">
          <Node pos="l" depth="2" NCoef="0" IVar="-1" Cut="0.0000000000000000e+00" cType="1" res="-1.0226607555523515e-03" rms="4.8258835077285767e-01" purity="4.5069837570190430e-01" nType="-99"/>
          <Node pos="r" depth="2" NCoef="0" IVar="-1" Cut="0.0000000000000000e+00" cType="1" res="2.3457773495465517e-03" rms="4.5984306931495667e-01" purity="6.6856044530868530e-01" nType="-99"/>
        </Node>
        <Node pos="r" depth="1" NCoef="0" IVar="2" Cut="9.6327865123748779e-01" cType="1" res="-1.3727454841136932e-01" rms="4.5465052127838135e-01" purity="3.2373085618019104e-01" nType="0">
          <Node pos="l" depth="2" NCoef="0" IVar="-1" Cut="0.0000000000000000e+00" cType="1" res="-3.0740511137992144e-03" rms="3.9464461803436279e-01" purity="2.0192788541316986e-01" nType="-99"/>
          <Node pos="r" depth="2" NCoef="0" IVar="-1" Cut="0.0000000000000000e+00" cType="1" res="-6.6100462572649121e-04" rms="4.8945996165275574e-01" purity="4.4492280483245850e-01" nType="-99"/>
        </Node>
      </Node>
    </BinaryTree>
    <BinaryTree type="DecisionTree" boostWeight="1.0000000000000000e+00" itree="57">
      <Node pos="s" depth="0" NCoef="0" IVar="2" Cut="9.7044378519058228e-01" cType="1" res="1.1219230480492115e-02" rms="4.7859093546867371e-01" purity="5.2458214759826660e-01" nType="0">
        <Node pos="l" depth="1" NCoef="0" IVar="1" Cut="9.3455383300781250e+01" cType="1" res="-6.2370218336582184e-02" rms="4.8355957865715027e-01" purity="4.1664260625839233e-01" nType="0">
          <Node pos="l" depth="2" NCoef="0" IVar="-1" Cut="0.0000000000000000e+00" cType="1" res="-1.7049829475581646e-03" rms="4.7299972176551819e-01" purity="3.6001792550086975e-01" nType="-99"/>
          <Node pos="r" depth="2" NCoef="0" IVar="-1" Cut="0.0000000000000000e+00" cType="1" res="1.4127878239378333e-03" rms="4.8088839650154114e-01" purity="5.6660372018814087e-01" nType="-99"/>
        </Node>
        <Node pos="r" depth="1" NCoef="0" IVar="5" Cut="1.3762499094009399e+00" cType="1" res="1.1701987683773041e-01" rms="4.5077329874038696e-01" purity="6.7976844310760498e-01" nType="0">
          <Node pos="l" depth="2" NCoef="0" IVar="-1" Cut="0.0000000000000000e+00" cType="1" res="3.1328792683780193e-03" rms="4.3403163552284241e-01" purity="7.3903900384902954e-01" nType="-99"/>
          <Node pos="r" depth="2" NCoef="0" IVar="-1" Cut="0.0000000000000000e+00" cType="1" res="-1.3298642588779330e-03" rms="4.7986713051795959e-01" purity="3.6519467830657959e-01" nType="-99"/>
        </Node>
      </Node>
    </BinaryTree>
    <BinaryTree type="DecisionTree" boostWeight="1.0000000000000000e+00" itree="58">
      <Node pos="s" depth="0" NCoef="0" IVar="5" Cut="1.6237624883651733e+00" cType="1" res="-1.1298918398097157e-03" rms="4.7910866141319275e-01" purity="5.1334041357040405e-01" nType="0">
        <Node pos="l" depth="1" NCoef="0" IVar="2" Cut="9.6679931879043579e-01" cType="1" res="2.8259761631488800e-02" rms="4.8106497526168823e-01" purity="5.5125242471694946e-01" nType="0">
          <Node pos="l" depth="2" NCoef="0" IVar="-1" Cut="0.0000000000000000e+00" cType="1" res="-9.1630883980542421e-04" rms="4.8648351430892944e-01" purity="4.1348850727081299e-01" nType="-99"/>
          <Node pos="r" depth="2" NCoef="0" IVar="-1" Cut="0.0000000000000000e+00" cType="1" res="2.2319662384688854e-03" rms="4.5869427919387817e-01" purity="6.8845909833908081e-01" nType="-99"/>
        </Node>
        <Node pos="r" depth="1" NCoef="0" IVar="-1" Cut="0.0000000000000000e+00" cType="1" res="-3.6323221866041422e-03" rms="3.5129553079605103e-01" purity="1.4897683262825012e-01" nType="-99"/>
      </Node>
    </BinaryTree>
    <BinaryTree type="DecisionTree" boostWeight="1.0000000000000000e+00" itree="59">
      <Node pos="s" depth="0" NCoef="0" IVar="2" Cut="9.5309954881668091e-01" cType="1" res="4.2481967248022556e-03" rms="4.7661417722702026e-01" purity="5.1676899194717407e-01" nType="0">
        <Node pos="l" depth="1" NCoef="0" IVar="1" Cut="9.3455383300781250e+01" cType="1" res="-1.8205027282238007e-01" rms="4.4099894165992737e-01" purity="2.8073355555534363e-01" nType="0">
          <Node pos="l" depth="2" NCoef="0" IVar="-1" Cut="0.0000000000000000e+00" cType="1" res="-3.1741587445139885e-03" rms="4.0926325321197510e-01" purity="2.2218541800975800e-01" nType="-99"/>
          <Node pos="r" depth="2" NCoef="0" IVar="-1" Cut="0.0000000000000000e+00" cType="1" res="-1.9253083155490458e-04" rms="4.8570275306701660e-01" purity="4.5419880747795105e-01" nType="-99"/>
        </Node>
        <Node pos="r" depth="1" NCoef="0" IVar="5" Cut="1.0733048915863037e+00" cType="1" res="6.4219884574413300e-02" rms="4.7213581204414368e-01" purity="5.9275162220001221e-01" nType="0">
          <Node pos="l" depth="2" NCoef="0" IVar="-1" Cut="0.0000000000000000e+00" cType="1" res="2.5607333518564701e-03" rms="4.5148342847824097e-01" purity="6.9143503904342651e-01" nType="-99"/>
          <Node pos="r" depth="2" NCoef="0" IVar="-1" Cut="0.0000000000000000e+00" cType="1" res="-9.5408078050240874e-04" rms="4.8189932107925415e-01" purity="4.1427987813949585e-01" nType="-99"/>
        </Node>
      </Node>
    </BinaryTree>
    <BinaryTree type="DecisionTree" boostWeight="1.0000000000000000e+00" itree="60">
      <Node pos="s" depth="0" NCoef="0" IVar="2" Cut="9.6637779474258423e-01" cType="1" res="-1.9572060555219650e-02" rms="4.7620710730552673e-01" purity="4.9236753582954407e-01" nType="0">
        <Node pos="l" depth="1" NCoef="0" IVar="5" Cut="9.2449009418487549e-01" cType="1" res="-1.2697607278823853e-01" rms="4.6376153826713562e-01" purity="3.4047535061836243e-01" nType="0">
          <Node pos="l" depth="2" NCoef="0" IVar="-1" Cut="0.0000000000000000e+00" cType="1" res="-2.2834932678961195e-05" rms="4.9494349956512451e-01" purity="4.8657542467117310e-01" nType="-99"/>
          <Node pos="r" depth="2" NCoef="0" IVar="-1" Cut="0.0000000000000000e+00" cType="1" res="-3.1091552227735519e-03" rms="4.0559038519859314e-01" purity="2.1552214026451111e-01" nType="-99"/>
        </Node>
        <Node pos="r" depth="1" NCoef="0" IVar="5" Cut="9.7728109359741211e-01" cType="1" res="8.9995041489601135e-02" rms="4.6361014246940613e-01" purity="6.4731872081756592e-01" nType="0">
          <Node pos="l" depth="2" NCoef="0" IVar="-1" Cut="0.0000000000000000e+00" cType="1" res="3.6648316308856010e-03" rms="4.1870316863059998e-01" purity="7.6908224821090698e-01" nType="-99"/>
          <Node pos="r" depth="2" NCoef="0" IVar="-1" Cut="0.0000000000000000e+00" cType="1" res="-2.6622784207575023e-04" rms="4.9317350983619690e-01" purity="4.9718031287193298e-01" nType="-99"/>
        </Node>
      </Node>
    </BinaryTree>
    <BinaryTree type="DecisionTree" boostWeight="1.0000000000000000e+00" itree="61">
      <Node pos="s" depth="0" NCoef="0" IVar="5" Cut="1.4154090881347656e+00" cType="1" res="-2.5559213012456894e-02" rms="4.7306579351425171e-01" purity="4.8458585143089294e-01" nType="0">
        <Node pos="l" depth="1" NCoef="0" IVar="2" Cut="9.7456121444702148e-01" cType="1" res="2.7989169582724571e-02" rms="4.7739309072494507e-01" purity="5.5628579854965210e-01" nType="0">
          <Node pos="l" depth="2" NCoef="0" IVar="-1" Cut="0.0000000000000000e+00" cType="1" res="-6.6556135425344110e-04" rms="4.8784708976745605e-01" purity="4.5735815167427063e-01" nType="-99"/>
          <Node pos="r" depth="2" NCoef="0" IVar="-1" Cut="0.0000000000000000e+00" cType="1" res="3.6952879745513201e-03" rms="4.1597199440002441e-01" purity="7.6690918207168579e-01" nType="-99"/>
        </Node>
        <Node pos="r" depth="1" NCoef="0" IVar="5" Cut="1.6222370862960815e+00" cType="1" res="-2.5673350691795349e-01" rms="3.7445259094238281e-01" purity="1.7504933476448059e-01" nType="0">
          <Node pos="l" depth="2" NCoef="0" IVar="-1" Cut="0.0000000000000000e+00" cType="1" res="-1.9916221499443054e-03" rms="4.4861099123954773e-01" purity="2.9298746585845947e-01" nType="-99"/>
          <Node pos="r" depth="2" NCoef="0" IVar="-1" Cut="0.0000000000000000e+00" cType="1" res="-4.1936691850423813e-03" rms="2.8438243269920349e-01" purity="9.1278336942195892e-02" nType="-99"/>
        </Node>
      </Node>
    </BinaryTree>
    <BinaryTree type="DecisionTree" boostWeight="1.0000000000000000e+00" itree="62">
      <Node pos="s" depth="0" NCoef="0" IVar="5" Cut="1.3173344135284424e+00" cType="1" res="-1.3203580165281892e-03" rms="4.7513985633850098e-01" purity="5.1070135831832886e-01" nType="0">
        <Node pos="l" depth="1" NCoef="0" IVar="2" Cut="9.6045297384262085e-01" cType="1" res="5.3555797785520554e-02" rms="4.7445324063301086e-01" purity="5.8701115846633911e-01" nType="0">
          <Node pos="l" depth="2" NCoef="0" IVar="-1" Cut="0.0000000000000000e+00" cType="1" res="-1.1457332875579596e-03" rms="4.8600584268569946e-01" purity="3.9914199709892273e-01" nType="-99"/>
