<?xml version="1.0"?>
<MethodSetup Method="BDT::BDTG">
  <GeneralInfo>
    <Info name="TMVA Release" value="4.2.0 [262656]"/>
    <Info name="ROOT Release" value="5.34/18 [336402]"/>
    <Info name="Creator" value="shwillia"/>
    <Info name="Date" value="Fri Aug 21 09:23:33 2015"/>
    <Info name="Host" value="Linux cmsdev02.cern.ch 2.6.32-431.23.3.el6.x86_64 #1 SMP Wed Jul 30 09:43:11 CEST 2014 x86_64 x86_64 x86_64 GNU/Linux"/>
    <Info name="Dir" value="/nfs/dust/cms/user/shwillia/BoostedTTHScripts/TMVA"/>
    <Info name="Training events" value="20000"/>
    <Info name="TrainingTime" value="2.64530399e+01"/>
    <Info name="AnalysisType" value="Classification"/>
  </GeneralInfo>
  <Options>
    <Option name="V" modified="Yes">False</Option>
    <Option name="VerbosityLevel" modified="No">Default</Option>
    <Option name="VarTransform" modified="No">None</Option>
    <Option name="H" modified="Yes">False</Option>
    <Option name="CreateMVAPdfs" modified="No">False</Option>
    <Option name="IgnoreNegWeightsInTraining" modified="No">False</Option>
    <Option name="NTrees" modified="Yes">1448</Option>
    <Option name="MaxDepth" modified="Yes">2</Option>
    <Option name="MinNodeSize" modified="No">5%</Option>
    <Option name="nCuts" modified="Yes">44</Option>
    <Option name="BoostType" modified="Yes">Grad</Option>
    <Option name="AdaBoostR2Loss" modified="No">quadratic</Option>
    <Option name="UseBaggedBoost" modified="Yes">True</Option>
    <Option name="Shrinkage" modified="Yes">3.475135e-02</Option>
    <Option name="AdaBoostBeta" modified="No">5.000000e-01</Option>
    <Option name="UseRandomisedTrees" modified="No">False</Option>
    <Option name="UseNvars" modified="No">3</Option>
    <Option name="UsePoissonNvars" modified="No">True</Option>
    <Option name="BaggedSampleFraction" modified="No">5.281594e-01</Option>
    <Option name="UseYesNoLeaf" modified="No">True</Option>
    <Option name="NegWeightTreatment" modified="Yes">ignorenegweightsintraining</Option>
    <Option name="Css" modified="No">1.000000e+00</Option>
    <Option name="Cts_sb" modified="No">1.000000e+00</Option>
    <Option name="Ctb_ss" modified="No">1.000000e+00</Option>
    <Option name="Cbb" modified="No">1.000000e+00</Option>
    <Option name="NodePurityLimit" modified="No">5.000000e-01</Option>
    <Option name="SeparationType" modified="No">giniindex</Option>
    <Option name="DoBoostMonitor" modified="No">False</Option>
    <Option name="UseFisherCuts" modified="No">False</Option>
    <Option name="MinLinCorrForFisher" modified="No">8.000000e-01</Option>
    <Option name="UseExclusiveVars" modified="No">False</Option>
    <Option name="DoPreselection" modified="No">False</Option>
    <Option name="SigToBkgFraction" modified="No">1.000000e+00</Option>
    <Option name="PruneMethod" modified="No">nopruning</Option>
    <Option name="PruneStrength" modified="No">0.000000e+00</Option>
    <Option name="PruningValFraction" modified="No">5.000000e-01</Option>
    <Option name="nEventsMin" modified="No">0</Option>
    <Option name="UseBaggedGrad" modified="No">False</Option>
    <Option name="GradBaggingFraction" modified="Yes">5.281594e-01</Option>
    <Option name="UseNTrainEvents" modified="No">0</Option>
    <Option name="NNodesMax" modified="No">0</Option>
  </Options>
  <Variables NVar="10">
    <Variable VarIndex="0" Expression="TopJet_Top_M" Label="TopJet_Top_M" Title="TopJet_Top_M" Unit="" Internal="TopJet_Top_M" Type="F" Min="2.47728024e+01" Max="7.57274780e+02"/>
    <Variable VarIndex="1" Expression="TopJet_Wbtag_M" Label="TopJet_Wbtag_M" Title="TopJet_Wbtag_M" Unit="" Internal="TopJet_Wbtag_M" Type="F" Min="6.64563179e+00" Max="6.15909546e+02"/>
    <Variable VarIndex="2" Expression="TopJet_BW1btag_M" Label="TopJet_BW1btag_M" Title="TopJet_BW1btag_M" Unit="" Internal="TopJet_BW1btag_M" Type="F" Min="9.30537033e+00" Max="5.45509277e+02"/>
    <Variable VarIndex="3" Expression="TopJet_BW2btag_M" Label="TopJet_BW2btag_M" Title="TopJet_BW2btag_M" Unit="" Internal="TopJet_BW2btag_M" Type="F" Min="3.65249825e+00" Max="4.64936310e+02"/>
    <Variable VarIndex="4" Expression="TopJet_PrunedMass" Label="TopJet_PrunedMass" Title="TopJet_PrunedMass" Unit="" Internal="TopJet_PrunedMass" Type="F" Min="8.33300686e+00" Max="7.57274780e+02"/>
    <Variable VarIndex="5" Expression="TopJet_UnfilteredMass" Label="TopJet_UnfilteredMass" Title="TopJet_UnfilteredMass" Unit="" Internal="TopJet_UnfilteredMass" Type="F" Min="3.78489647e+01" Max="7.57274780e+02"/>
    <Variable VarIndex="6" Expression="TopJet_fRec" Label="TopJet_fRec" Title="TopJet_fRec" Unit="" Internal="TopJet_fRec" Type="F" Min="3.06133870e-07" Max="7.35482752e-01"/>
    <Variable VarIndex="7" Expression="TopJet_DRoptRoptCalc" Label="TopJet_DRoptRoptCalc" Title="TopJet_DRoptRoptCalc" Unit="" Internal="TopJet_DRoptRoptCalc" Type="F" Min="-4.50328369e+01" Max="9.96960044e-01"/>
    <Variable VarIndex="8" Expression="TopJet_Tau21Filtered" Label="TopJet_Tau21Filtered" Title="TopJet_Tau21Filtered" Unit="" Internal="TopJet_Tau21Filtered" Type="F" Min="9.06425193e-02" Max="1.15207183e+00"/>
    <Variable VarIndex="9" Expression="TopJet_Tau32Filtered" Label="TopJet_Tau32Filtered" Title="TopJet_Tau32Filtered" Unit="" Internal="TopJet_Tau32Filtered" Type="F" Min="9.33115482e-02" Max="1.12868929e+00"/>
  </Variables>
  <Spectators NSpec="0"/>
  <Classes NClass="2">
    <Class Name="Signal" Index="0"/>
    <Class Name="Background" Index="1"/>
  </Classes>
  <Transformations NTransformations="0"/>
  <MVAPdfs/>
  <Weights NTrees="1448" AnalysisType="1">
    <BinaryTree type="DecisionTree" boostWeight="1.0000000000000000e+00" itree="0">
      <Node pos="s" depth="0" NCoef="0" IVar="0" Cut="1.2243973541259766e+02" cType="1" res="-4.6948357485234737e-03" rms="4.9997794628143311e-01" purity="4.9530515074729919e-01" nType="0">
        <Node pos="l" depth="1" NCoef="0" IVar="0" Cut="1.0290618896484375e+02" cType="1" res="-3.0561622977256775e-01" rms="3.9572557806968689e-01" purity="1.9438377022743225e-01" nType="0">
          <Node pos="l" depth="2" NCoef="0" IVar="-1" Cut="0.0000000000000000e+00" cType="1" res="-2.5962809100747108e-02" rms="3.3235457539558411e-01" purity="1.2644889950752258e-01" nType="-99"/>
          <Node pos="r" depth="2" NCoef="0" IVar="-1" Cut="0.0000000000000000e+00" cType="1" res="-1.4384452253580093e-02" rms="4.5515549182891846e-01" purity="2.9303750395774841e-01" nType="-99"/>
        </Node>
        <Node pos="r" depth="1" NCoef="0" IVar="8" Cut="3.6275956034660339e-01" cType="1" res="1.2484889477491379e-01" rms="4.8416191339492798e-01" purity="6.2484890222549438e-01" nType="0">
          <Node pos="l" depth="2" NCoef="0" IVar="-1" Cut="0.0000000000000000e+00" cType="1" res="-7.7668228186666965e-03" rms="4.8735231161117554e-01" purity="3.8825148344039917e-01" nType="-99"/>
          <Node pos="r" depth="2" NCoef="0" IVar="-1" Cut="0.0000000000000000e+00" cType="1" res="1.5481705777347088e-02" rms="4.4764110445976257e-01" purity="7.2274971008300781e-01" nType="-99"/>
        </Node>
      </Node>
    </BinaryTree>
    <BinaryTree type="DecisionTree" boostWeight="1.0000000000000000e+00" itree="1">
      <Node pos="s" depth="0" NCoef="0" IVar="0" Cut="1.3300285339355469e+02" cType="1" res="-1.4066578587517142e-03" rms="4.9621179699897766e-01" purity="4.9845865368843079e-01" nType="0">
        <Node pos="l" depth="1" NCoef="0" IVar="0" Cut="1.0655691528320312e+02" cType="1" res="-2.3993617296218872e-01" rms="4.3257758021354675e-01" purity="2.5245654582977295e-01" nType="0">
          <Node pos="l" depth="2" NCoef="0" IVar="-1" Cut="0.0000000000000000e+00" cType="1" res="-2.4058874696493149e-02" rms="3.4861645102500916e-01" purity="1.4169847965240479e-01" nType="-99"/>
          <Node pos="r" depth="2" NCoef="0" IVar="-1" Cut="0.0000000000000000e+00" cType="1" res="-8.4329852834343910e-03" rms="4.8360651731491089e-01" purity="3.7640148401260376e-01" nType="-99"/>
        </Node>
        <Node pos="r" depth="1" NCoef="0" IVar="8" Cut="3.7280046939849854e-01" cType="1" res="1.3914020359516144e-01" rms="4.7725549340248108e-01" purity="6.4340853691101074e-01" nType="0">
          <Node pos="l" depth="2" NCoef="0" IVar="-1" Cut="0.0000000000000000e+00" cType="1" res="-6.4874691888689995e-03" rms="4.9053815007209778e-01" purity="4.0353325009346008e-01" nType="-99"/>
          <Node pos="r" depth="2" NCoef="0" IVar="-1" Cut="0.0000000000000000e+00" cType="1" res="1.7254916951060295e-02" rms="4.2952653765678406e-01" purity="7.5594329833984375e-01" nType="-99"/>
        </Node>
      </Node>
    </BinaryTree>
    <BinaryTree type="DecisionTree" boostWeight="1.0000000000000000e+00" itree="2">
      <Node pos="s" depth="0" NCoef="0" IVar="0" Cut="1.2016164398193359e+02" cType="1" res="9.9373301491141319e-03" rms="4.9241924285888672e-01" purity="5.1010245084762573e-01" nType="0">
        <Node pos="l" depth="1" NCoef="0" IVar="7" Cut="-5.9063589572906494e-01" cType="1" res="-2.7722111344337463e-01" rms="4.0058663487434387e-01" purity="2.0228610932826996e-01" nType="0">
          <Node pos="l" depth="2" NCoef="0" IVar="-1" Cut="0.0000000000000000e+00" cType="1" res="-2.4266334250569344e-02" rms="3.3612990379333496e-01" purity="1.3059936463832855e-01" nType="-99"/>
          <Node pos="r" depth="2" NCoef="0" IVar="-1" Cut="0.0000000000000000e+00" cType="1" res="-1.3261652551591396e-02" rms="4.5229497551918030e-01" purity="2.8955453634262085e-01" nType="-99"/>
        </Node>
        <Node pos="r" depth="1" NCoef="0" IVar="8" Cut="4.1100701689720154e-01" cType="1" res="1.1685329675674438e-01" rms="4.8049667477607727e-01" purity="6.2470984458923340e-01" nType="0">
          <Node pos="l" depth="2" NCoef="0" IVar="-1" Cut="0.0000000000000000e+00" cType="1" res="-4.4085686095058918e-03" rms="4.9421384930610657e-01" purity="4.3434670567512512e-01" nType="-99"/>
          <Node pos="r" depth="2" NCoef="0" IVar="-1" Cut="0.0000000000000000e+00" cType="1" res="1.6446797177195549e-02" rms="4.3146833777427673e-01" purity="7.5096523761749268e-01" nType="-99"/>
        </Node>
      </Node>
    </BinaryTree>
    <BinaryTree type="DecisionTree" boostWeight="1.0000000000000000e+00" itree="3">
      <Node pos="s" depth="0" NCoef="0" IVar="0" Cut="1.2722167968750000e+02" cType="1" res="-6.0614394024014473e-03" rms="4.8893952369689941e-01" purity="4.9369353055953979e-01" nType="0">
        <Node pos="l" depth="1" NCoef="0" IVar="0" Cut="9.3407348632812500e+01" cType="1" res="-2.6419514417648315e-01" rms="4.0436065196990967e-01" purity="2.1012657880783081e-01" nType="0">
          <Node pos="l" depth="2" NCoef="0" IVar="-1" Cut="0.0000000000000000e+00" cType="1" res="-2.5701865553855896e-02" rms="2.9596891999244690e-01" purity="9.7251586616039276e-02" nType="-99"/>
          <Node pos="r" depth="2" NCoef="0" IVar="-1" Cut="0.0000000000000000e+00" cType="1" res="-1.3600853271782398e-02" rms="4.4946923851966858e-01" purity="2.8511235117912292e-01" nType="-99"/>
        </Node>
        <Node pos="r" depth="1" NCoef="0" IVar="6" Cut="1.7070138454437256e-01" cType="1" res="1.2375400215387344e-01" rms="4.7612640261650085e-01" purity="6.3629931211471558e-01" nType="0">
          <Node pos="l" depth="2" NCoef="0" IVar="-1" Cut="0.0000000000000000e+00" cType="1" res="1.4427138492465019e-02" rms="4.4395655393600464e-01" purity="7.2349703311920166e-01" nType="-99"/>
          <Node pos="r" depth="2" NCoef="0" IVar="-1" Cut="0.0000000000000000e+00" cType="1" res="-8.4352008998394012e-03" rms="4.8282158374786377e-01" purity="3.8028952479362488e-01" nType="-99"/>
        </Node>
      </Node>
    </BinaryTree>
    <BinaryTree type="DecisionTree" boostWeight="1.0000000000000000e+00" itree="4">
      <Node pos="s" depth="0" NCoef="0" IVar="0" Cut="1.2754724121093750e+02" cType="1" res="-5.2133826538920403e-03" rms="4.8553115129470825e-01" purity="4.9483153223991394e-01" nType="0">
        <Node pos="l" depth="1" NCoef="0" IVar="0" Cut="1.1173809814453125e+02" cType="1" res="-2.5191280245780945e-01" rms="4.0567931532859802e-01" purity="2.1364295482635498e-01" nType="0">
          <Node pos="l" depth="2" NCoef="0" IVar="-1" Cut="0.0000000000000000e+00" cType="1" res="-2.2030523046851158e-02" rms="3.4822964668273926e-01" purity="1.4254577457904816e-01" nType="-99"/>
          <Node pos="r" depth="2" NCoef="0" IVar="-1" Cut="0.0000000000000000e+00" cType="1" res="-8.8458172976970673e-03" rms="4.7694489359855652e-01" purity="3.5534319281578064e-01" nType="-99"/>
        </Node>
        <Node pos="r" depth="1" NCoef="0" IVar="8" Cut="4.0049961209297180e-01" cType="1" res="1.1614596098661423e-01" rms="4.7548013925552368e-01" purity="6.3315719366073608e-01" nType="0">
          <Node pos="l" depth="2" NCoef="0" IVar="-1" Cut="0.0000000000000000e+00" cType="1" res="-5.0519499927759171e-03" rms="4.9199318885803223e-01" purity="4.2395070195198059e-01" nType="-99"/>
          <Node pos="r" depth="2" NCoef="0" IVar="-1" Cut="0.0000000000000000e+00" cType="1" res="1.5862334519624710e-02" rms="4.2810291051864624e-01" purity="7.5646847486495972e-01" nType="-99"/>
        </Node>
      </Node>
    </BinaryTree>
    <BinaryTree type="DecisionTree" boostWeight="1.0000000000000000e+00" itree="5">
      <Node pos="s" depth="0" NCoef="0" IVar="0" Cut="1.2332102966308594e+02" cType="1" res="5.6643290445208549e-03" rms="4.8246935009956360e-01" purity="5.0589019060134888e-01" nType="0">
        <Node pos="l" depth="1" NCoef="0" IVar="0" Cut="1.0593542480468750e+02" cType="1" res="-2.5197738409042358e-01" rms="3.9779332280158997e-01" purity="2.0129032433032990e-01" nType="0">
          <Node pos="l" depth="2" NCoef="0" IVar="-1" Cut="0.0000000000000000e+00" cType="1" res="-2.1443197503685951e-02" rms="3.4593525528907776e-01" purity="1.3961693644523621e-01" nType="-99"/>
          <Node pos="r" depth="2" NCoef="0" IVar="-1" Cut="0.0000000000000000e+00" cType="1" res="-1.1048937216401100e-02" rms="4.6162566542625427e-01" purity="3.1093189120292664e-01" nType="-99"/>
        </Node>
        <Node pos="r" depth="1" NCoef="0" IVar="6" Cut="1.7707179486751556e-01" cType="1" res="1.1321742832660675e-01" rms="4.7393518686294556e-01" purity="6.3304603099822998e-01" nType="0">
          <Node pos="l" depth="2" NCoef="0" IVar="-1" Cut="0.0000000000000000e+00" cType="1" res="1.3228027150034904e-02" rms="4.4594472646713257e-01" purity="7.1661293506622314e-01" nType="-99"/>
          <Node pos="r" depth="2" NCoef="0" IVar="-1" Cut="0.0000000000000000e+00" cType="1" res="-8.2379141822457314e-03" rms="4.8113119602203369e-01" purity="3.7934783101081848e-01" nType="-99"/>
        </Node>
      </Node>
    </BinaryTree>
    <BinaryTree type="DecisionTree" boostWeight="1.0000000000000000e+00" itree="6">
      <Node pos="s" depth="0" NCoef="0" IVar="0" Cut="1.1871704864501953e+02" cType="1" res="3.1818712595850229e-03" rms="4.7945541143417358e-01" purity="5.0272285938262939e-01" nType="0">
        <Node pos="l" depth="1" NCoef="0" IVar="7" Cut="-4.2200526595115662e-01" cType="1" res="-2.4982309341430664e-01" rms="3.9025181531906128e-01" purity="1.9126452505588531e-01" nType="0">
          <Node pos="l" depth="2" NCoef="0" IVar="-1" Cut="0.0000000000000000e+00" cType="1" res="-2.1475313231348991e-02" rms="3.3964428305625916e-01" purity="1.3461539149284363e-01" nType="-99"/>
          <Node pos="r" depth="2" NCoef="0" IVar="-1" Cut="0.0000000000000000e+00" cType="1" res="-9.5384037122130394e-03" rms="4.5901706814765930e-01" purity="3.1038251519203186e-01" nType="-99"/>
        </Node>
        <Node pos="r" depth="1" NCoef="0" IVar="8" Cut="4.0966078639030457e-01" cType="1" res="9.7345620393753052e-02" rms="4.7545871138572693e-01" purity="6.1864185333251953e-01" nType="0">
          <Node pos="l" depth="2" NCoef="0" IVar="-1" Cut="0.0000000000000000e+00" cType="1" res="-4.4612102210521698e-03" rms="4.9137988686561584e-01" purity="4.3086501955986023e-01" nType="-99"/>
          <Node pos="r" depth="2" NCoef="0" IVar="-1" Cut="0.0000000000000000e+00" cType="1" res="1.4351935125887394e-02" rms="4.3221950531005859e-01" purity="7.4388110637664795e-01" nType="-99"/>
        </Node>
      </Node>
    </BinaryTree>
    <BinaryTree type="DecisionTree" boostWeight="1.0000000000000000e+00" itree="7">
      <Node pos="s" depth="0" NCoef="0" IVar="0" Cut="1.2793636322021484e+02" cType="1" res="5.5462270975112915e-03" rms="4.7587299346923828e-01" purity="5.0606435537338257e-01" nType="0">
        <Node pos="l" depth="1" NCoef="0" IVar="7" Cut="-2.8769549727439880e-01" cType="1" res="-2.2938431799411774e-01" rms="4.0302145481109619e-01" purity="2.1329879760742188e-01" nType="0">
          <Node pos="l" depth="2" NCoef="0" IVar="-1" Cut="0.0000000000000000e+00" cType="1" res="-1.9921887665987015e-02" rms="3.5742118954658508e-01" purity="1.5580286085605621e-01" nType="-99"/>
          <Node pos="r" depth="2" NCoef="0" IVar="-1" Cut="0.0000000000000000e+00" cType="1" res="-6.5083364024758339e-03" rms="4.7716850042343140e-01" purity="3.6430063843727112e-01" nType="-99"/>
        </Node>
        <Node pos="r" depth="1" NCoef="0" IVar="1" Cut="1.1163619232177734e+02" cType="1" res="1.2218888849020004e-01" rms="4.6608680486679077e-01" purity="6.5142202377319336e-01" nType="0">
          <Node pos="l" depth="2" NCoef="0" IVar="-1" Cut="0.0000000000000000e+00" cType="1" res="1.2853560037910938e-02" rms="4.4161355495452881e-01" purity="7.1537131071090698e-01" nType="-99"/>
          <Node pos="r" depth="2" NCoef="0" IVar="-1" Cut="0.0000000000000000e+00" cType="1" res="-1.2047857046127319e-02" rms="4.6785038709640503e-01" purity="3.4465616941452026e-01" nType="-99"/>
        </Node>
      </Node>
    </BinaryTree>
    <BinaryTree type="DecisionTree" boostWeight="1.0000000000000000e+00" itree="8">
      <Node pos="s" depth="0" NCoef="0" IVar="0" Cut="1.2243973541259766e+02" cType="1" res="-4.6407701447606087e-03" rms="4.7405356168746948e-01" purity="4.9492746591567993e-01" nType="0">
        <Node pos="l" depth="1" NCoef="0" IVar="0" Cut="9.6364982604980469e+01" cType="1" res="-2.3629650473594666e-01" rms="3.8915115594863892e-01" purity="1.9137986004352570e-01" nType="0">
          <Node pos="l" depth="2" NCoef="0" IVar="-1" Cut="0.0000000000000000e+00" cType="1" res="-2.1942714229226112e-02" rms="3.1000059843063354e-01" purity="1.0794297605752945e-01" nType="-99"/>
          <Node pos="r" depth="2" NCoef="0" IVar="-1" Cut="0.0000000000000000e+00" cType="1" res="-1.2231023050844669e-02" rms="4.3915963172912598e-01" purity="2.6650366187095642e-01" nType="-99"/>
        </Node>
        <Node pos="r" depth="1" NCoef="0" IVar="9" Cut="4.2863178253173828e-01" cType="1" res="9.2188708484172821e-02" rms="4.7281429171562195e-01" purity="6.2180691957473755e-01" nType="0">
          <Node pos="l" depth="2" NCoef="0" IVar="-1" Cut="0.0000000000000000e+00" cType="1" res="1.3868054375052452e-02" rms="4.3226853013038635e-01" purity="7.3787480592727661e-01" nType="-99"/>
          <Node pos="r" depth="2" NCoef="0" IVar="-1" Cut="0.0000000000000000e+00" cType="1" res="-5.0743608735501766e-03" rms="4.8615232110023499e-01" purity="4.4038593769073486e-01" nType="-99"/>
        </Node>
      </Node>
    </BinaryTree>
    <BinaryTree type="DecisionTree" boostWeight="1.0000000000000000e+00" itree="9">
      <Node pos="s" depth="0" NCoef="0" IVar="0" Cut="1.3300285339355469e+02" cType="1" res="1.8539703160058707e-04" rms="4.7162559628486633e-01" purity="4.9938824772834778e-01" nType="0">
        <Node pos="l" depth="1" NCoef="0" IVar="9" Cut="3.4426411986351013e-01" cType="1" res="-1.8103541433811188e-01" rms="4.2521041631698608e-01" purity="2.5811281800270081e-01" nType="0">
          <Node pos="l" depth="2" NCoef="0" IVar="-1" Cut="0.0000000000000000e+00" cType="1" res="9.2727533774450421e-04" rms="4.8767867684364319e-01" purity="4.8746082186698914e-01" nType="-99"/>
          <Node pos="r" depth="2" NCoef="0" IVar="-1" Cut="0.0000000000000000e+00" cType="1" res="-1.5510477125644684e-02" rms="4.0187588334083557e-01" purity="2.1466745436191559e-01" nType="-99"/>
        </Node>
        <Node pos="r" depth="1" NCoef="0" IVar="1" Cut="1.1983845520019531e+02" cType="1" res="1.0986519604921341e-01" rms="4.6445500850677490e-01" purity="6.4541471004486084e-01" nType="0">
          <Node pos="l" depth="2" NCoef="0" IVar="-1" Cut="0.0000000000000000e+00" cType="1" res="1.1996046639978886e-02" rms="4.4221195578575134e-01" purity="7.1123754978179932e-01" nType="-99"/>
          <Node pos="r" depth="2" NCoef="0" IVar="-1" Cut="0.0000000000000000e+00" cType="1" res="-1.6383513808250427e-02" rms="4.3591135740280151e-01" purity="2.7336683869361877e-01" nType="-99"/>
        </Node>
      </Node>
    </BinaryTree>
    <BinaryTree type="DecisionTree" boostWeight="1.0000000000000000e+00" itree="10">
      <Node pos="s" depth="0" NCoef="0" IVar="0" Cut="1.3437442016601562e+02" cType="1" res="1.2115965364500880e-03" rms="4.6816632151603699e-01" purity="5.0169175863265991e-01" nType="0">
        <Node pos="l" depth="1" NCoef="0" IVar="9" Cut="4.1578131914138794e-01" cType="1" res="-1.8233183026313782e-01" rms="4.1998574137687683e-01" purity="2.5384804606437683e-01" nType="0">
          <Node pos="l" depth="2" NCoef="0" IVar="-1" Cut="0.0000000000000000e+00" cType="1" res="-3.0734783504158258e-03" rms="4.7734484076499939e-01" purity="4.2195123434066772e-01" nType="-99"/>
          <Node pos="r" depth="2" NCoef="0" IVar="-1" Cut="0.0000000000000000e+00" cType="1" res="-1.7315873876214027e-02" rms="3.7739408016204834e-01" purity="1.8162766098976135e-01" nType="-99"/>
        </Node>
        <Node pos="r" depth="1" NCoef="0" IVar="1" Cut="1.1456324768066406e+02" cType="1" res="1.1595778167247772e-01" rms="4.6011331677436829e-01" purity="6.5663665533065796e-01" nType="0">
          <Node pos="l" depth="2" NCoef="0" IVar="-1" Cut="0.0000000000000000e+00" cType="1" res="1.2499715201556683e-02" rms="4.3581178784370422e-01" purity="7.2556942701339722e-01" nType="-99"/>
          <Node pos="r" depth="2" NCoef="0" IVar="-1" Cut="0.0000000000000000e+00" cType="1" res="-1.3126810081303120e-02" rms="4.5615717768669128e-01" purity="3.1640979647636414e-01" nType="-99"/>
        </Node>
      </Node>
    </BinaryTree>
    <BinaryTree type="DecisionTree" boostWeight="1.0000000000000000e+00" itree="11">
      <Node pos="s" depth="0" NCoef="0" IVar="0" Cut="1.2332102966308594e+02" cType="1" res="2.4367987643927336e-03" rms="4.6662223339080811e-01" purity="5.0266462564468384e-01" nType="0">
        <Node pos="l" depth="1" NCoef="0" IVar="0" Cut="1.1029213714599609e+02" cType="1" res="-2.1198081970214844e-01" rms="3.9095401763916016e-01" purity="1.9594594836235046e-01" nType="0">
          <Node pos="l" depth="2" NCoef="0" IVar="-1" Cut="0.0000000000000000e+00" cType="1" res="-1.8609894439578056e-02" rms="3.4494954347610474e-01" purity="1.4017017185688019e-01" nType="-99"/>
          <Node pos="r" depth="2" NCoef="0" IVar="-1" Cut="0.0000000000000000e+00" cType="1" res="-7.0365644060075283e-03" rms="4.7079086303710938e-01" purity="3.3828571438789368e-01" nType="-99"/>
        </Node>
        <Node pos="r" depth="1" NCoef="0" IVar="6" Cut="1.4122508466243744e-01" cType="1" res="9.2492192983627319e-02" rms="4.6644526720046997e-01" purity="6.3148647546768188e-01" nType="0">
          <Node pos="l" depth="2" NCoef="0" IVar="-1" Cut="0.0000000000000000e+00" cType="1" res="1.2742871418595314e-02" rms="4.3128418922424316e-01" purity="7.3475235700607300e-01" nType="-99"/>
          <Node pos="r" depth="2" NCoef="0" IVar="-1" Cut="0.0000000000000000e+00" cType="1" res="-5.4887533187866211e-03" rms="4.8438739776611328e-01" purity="4.3078759312629700e-01" nType="-99"/>
        </Node>
      </Node>
    </BinaryTree>
    <BinaryTree type="DecisionTree" boostWeight="1.0000000000000000e+00" itree="12">
      <Node pos="s" depth="0" NCoef="0" IVar="0" Cut="1.2722167968750000e+02" cType="1" res="3.7828127387911081e-03" rms="4.6433708071708679e-01" purity="5.0516057014465332e-01" nType="0">
        <Node pos="l" depth="1" NCoef="0" IVar="7" Cut="-1.1390975713729858e+00" cType="1" res="-1.9097535312175751e-01" rms="4.0305316448211670e-01" purity="2.1659259498119354e-01" nType="0">
          <Node pos="l" depth="2" NCoef="0" IVar="-1" Cut="0.0000000000000000e+00" cType="1" res="-2.0450994372367859e-02" rms="3.1707194447517395e-01" purity="1.1836734414100647e-01" nType="-99"/>
          <Node pos="r" depth="2" NCoef="0" IVar="-1" Cut="0.0000000000000000e+00" cType="1" res="-1.0065026581287384e-02" rms="4.3641692399978638e-01" purity="2.7255815267562866e-01" nType="-99"/>
        </Node>
        <Node pos="r" depth="1" NCoef="0" IVar="8" Cut="3.7231144309043884e-01" cType="1" res="9.6505172550678253e-02" rms="4.6288287639617920e-01" purity="6.4254480600357056e-01" nType="0">
          <Node pos="l" depth="2" NCoef="0" IVar="-1" Cut="0.0000000000000000e+00" cType="1" res="-5.9170746244490147e-03" rms="4.8502141237258911e-01" purity="4.1219291090965271e-01" nType="-99"/>
          <Node pos="r" depth="2" NCoef="0" IVar="-1" Cut="0.0000000000000000e+00" cType="1" res="1.2633465230464935e-02" rms="4.2824491858482361e-01" purity="7.4606418609619141e-01" nType="-99"/>
        </Node>
      </Node>
    </BinaryTree>
    <BinaryTree type="DecisionTree" boostWeight="1.0000000000000000e+00" itree="13">
      <Node pos="s" depth="0" NCoef="0" IVar="0" Cut="1.2347417449951172e+02" cType="1" res="3.2094033667817712e-04" rms="4.6152761578559875e-01" purity="5.0056326389312744e-01" nType="0">
        <Node pos="l" depth="1" NCoef="0" IVar="0" Cut="9.9637626647949219e+01" cType="1" res="-2.0593962073326111e-01" rms="3.8441613316535950e-01" purity="1.8751950562000275e-01" nType="0">
          <Node pos="l" depth="2" NCoef="0" IVar="-1" Cut="0.0000000000000000e+00" cType="1" res="-1.9499659538269043e-02" rms="3.1349125504493713e-01" purity="1.1164179444313049e-01" nType="-99"/>
          <Node pos="r" depth="2" NCoef="0" IVar="-1" Cut="0.0000000000000000e+00" cType="1" res="-1.0315442457795143e-02" rms="4.4109180569648743e-01" purity="2.7058824896812439e-01" nType="-99"/>
        </Node>
        <Node pos="r" depth="1" NCoef="0" IVar="1" Cut="1.0165209197998047e+02" cType="1" res="8.9090250432491302e-02" rms="4.6356481313705444e-01" purity="6.3528937101364136e-01" nType="0">
          <Node pos="l" depth="2" NCoef="0" IVar="-1" Cut="0.0000000000000000e+00" cType="1" res="1.0472522117197514e-02" rms="4.4307765364646912e-01" purity="7.0197087526321411e-01" nType="-99"/>
          <Node pos="r" depth="2" NCoef="0" IVar="-1" Cut="0.0000000000000000e+00" cType="1" res="-8.6906915530562401e-03" rms="4.7360837459564209e-01" purity="3.9392060041427612e-01" nType="-99"/>
        </Node>
      </Node>
    </BinaryTree>
    <BinaryTree type="DecisionTree" boostWeight="1.0000000000000000e+00" itree="14">
      <Node pos="s" depth="0" NCoef="0" IVar="9" Cut="4.1583099961280823e-01" cType="1" res="-1.2260884046554565e-02" rms="4.5976355671882629e-01" purity="4.8649924993515015e-01" nType="0">
        <Node pos="l" depth="1" NCoef="0" IVar="7" Cut="-1.4974794387817383e+00" cType="1" res="1.2480270862579346e-01" rms="4.4332590699195862e-01" purity="6.6719400882720947e-01" nType="0">
          <Node pos="l" depth="2" NCoef="0" IVar="-1" Cut="0.0000000000000000e+00" cType="1" res="-1.3013799674808979e-02" rms="4.2776909470558167e-01" purity="2.8754580020904541e-01" nType="-99"/>
          <Node pos="r" depth="2" NCoef="0" IVar="-1" Cut="0.0000000000000000e+00" cType="1" res="1.1533283628523350e-02" rms="4.3074136972427368e-01" purity="7.1314567327499390e-01" nType="-99"/>
        </Node>
        <Node pos="r" depth="1" NCoef="0" IVar="2" Cut="8.7557090759277344e+01" cType="1" res="-1.3748773932456970e-01" rms="4.3829146027565002e-01" purity="3.2140922546386719e-01" nType="0">
          <Node pos="l" depth="2" NCoef="0" IVar="-1" Cut="0.0000000000000000e+00" cType="1" res="-1.5852835029363632e-02" rms="3.7863180041313171e-01" purity="1.9564478099346161e-01" nType="-99"/>
          <Node pos="r" depth="2" NCoef="0" IVar="-1" Cut="0.0000000000000000e+00" cType="1" res="-3.3406841102987528e-03" rms="4.8167741298675537e-01" purity="4.6379044651985168e-01" nType="-99"/>
        </Node>
      </Node>
    </BinaryTree>
    <BinaryTree type="DecisionTree" boostWeight="1.0000000000000000e+00" itree="15">
      <Node pos="s" depth="0" NCoef="0" IVar="9" Cut="4.0627709031105042e-01" cType="1" res="4.8706293455325067e-04" rms="4.5817700028419495e-01" purity="5.0173407793045044e-01" nType="0">
        <Node pos="l" depth="1" NCoef="0" IVar="7" Cut="-9.9859154224395752e-01" cType="1" res="1.3701424002647400e-01" rms="4.3578252196311951e-01" purity="6.8747425079345703e-01" nType="0">
          <Node pos="l" depth="2" NCoef="0" IVar="-1" Cut="0.0000000000000000e+00" cType="1" res="-7.5654066167771816e-03" rms="4.5506575703620911e-01" purity="3.8022813200950623e-01" nType="-99"/>
          <Node pos="r" depth="2" NCoef="0" IVar="-1" Cut="0.0000000000000000e+00" cType="1" res="1.3160977512598038e-02" rms="4.1590383648872375e-01" purity="7.4710947275161743e-01" nType="-99"/>
        </Node>
        <Node pos="r" depth="1" NCoef="0" IVar="0" Cut="1.3032048034667969e+02" cType="1" res="-1.1943746358156204e-01" rms="4.4357243180274963e-01" purity="3.3858126401901245e-01" nType="0">
          <Node pos="l" depth="2" NCoef="0" IVar="-1" Cut="0.0000000000000000e+00" cType="1" res="-1.4917256310582161e-02" rms="3.7922784686088562e-01" purity="1.8339622020721436e-01" nType="-99"/>
          <Node pos="r" depth="2" NCoef="0" IVar="-1" Cut="0.0000000000000000e+00" cType="1" res="-3.0469514895230532e-03" rms="4.8318564891815186e-01" purity="4.8157161474227905e-01" nType="-99"/>
        </Node>
      </Node>
    </BinaryTree>
    <BinaryTree type="DecisionTree" boostWeight="1.0000000000000000e+00" itree="16">
      <Node pos="s" depth="0" NCoef="0" IVar="0" Cut="1.3357266235351562e+02" cType="1" res="6.8394228583201766e-04" rms="4.5530855655670166e-01" purity="4.9981269240379333e-01" nType="0">
        <Node pos="l" depth="1" NCoef="0" IVar="7" Cut="-4.0999200940132141e-01" cType="1" res="-1.6188392043113708e-01" rms="4.0945145487785339e-01" purity="2.4126906692981720e-01" nType="0">
          <Node pos="l" depth="2" NCoef="0" IVar="-1" Cut="0.0000000000000000e+00" cType="1" res="-1.6255211085081100e-02" rms="3.6147588491439819e-01" purity="1.6980376839637756e-01" nType="-99"/>
          <Node pos="r" depth="2" NCoef="0" IVar="-1" Cut="0.0000000000000000e+00" cType="1" res="-5.1179081201553345e-03" rms="4.6150225400924683e-01" purity="3.5500317811965942e-01" nType="-99"/>
        </Node>
        <Node pos="r" depth="1" NCoef="0" IVar="5" Cut="2.1580860900878906e+02" cType="1" res="1.0065384209156036e-01" rms="4.5326128602027893e-01" purity="6.5880215167999268e-01" nType="0">
          <Node pos="l" depth="2" NCoef="0" IVar="-1" Cut="0.0000000000000000e+00" cType="1" res="1.1961624026298523e-02" rms="4.2495977878570557e-01" purity="7.3328238725662231e-01" nType="-99"/>
          <Node pos="r" depth="2" NCoef="0" IVar="-1" Cut="0.0000000000000000e+00" cType="1" res="-1.0876285843551159e-02" rms="4.6674430370330811e-01" purity="3.7590712308883667e-01" nType="-99"/>
        </Node>
      </Node>
    </BinaryTree>
    <BinaryTree type="DecisionTree" boostWeight="1.0000000000000000e+00" itree="17">
      <Node pos="s" depth="0" NCoef="0" IVar="9" Cut="4.1542905569076538e-01" cType="1" res="9.7852246835827827e-03" rms="4.5423567295074463e-01" purity="5.1107150316238403e-01" nType="0">
        <Node pos="l" depth="1" NCoef="0" IVar="0" Cut="1.2269300079345703e+02" cType="1" res="1.2928296625614166e-01" rms="4.3336179852485657e-01" purity="6.8357813358306885e-01" nType="0">
          <Node pos="l" depth="2" NCoef="0" IVar="-1" Cut="0.0000000000000000e+00" cType="1" res="-8.2338424399495125e-03" rms="4.4311133027076721e-01" purity="2.8533333539962769e-01" nType="-99"/>
          <Node pos="r" depth="2" NCoef="0" IVar="-1" Cut="0.0000000000000000e+00" cType="1" res="1.2192847207188606e-02" rms="4.1826504468917847e-01" purity="7.5005567073822021e-01" nType="-99"/>
        </Node>
        <Node pos="r" depth="1" NCoef="0" IVar="2" Cut="7.7281234741210938e+01" cType="1" res="-1.0591683536767960e-01" rms="4.4390991330146790e-01" purity="3.4404432773590088e-01" nType="0">
          <Node pos="l" depth="2" NCoef="0" IVar="-1" Cut="0.0000000000000000e+00" cType="1" res="-1.4963831752538681e-02" rms="3.7491068243980408e-01" purity="1.8419940769672394e-01" nType="-99"/>
          <Node pos="r" depth="2" NCoef="0" IVar="-1" Cut="0.0000000000000000e+00" cType="1" res="-2.3046471178531647e-03" rms="4.7813466191291809e-01" purity="4.6817585825920105e-01" nType="-99"/>
        </Node>
      </Node>
    </BinaryTree>
    <BinaryTree type="DecisionTree" boostWeight="1.0000000000000000e+00" itree="18">
      <Node pos="s" depth="0" NCoef="0" IVar="9" Cut="4.2590570449829102e-01" cType="1" res="7.3401664849370718e-04" rms="4.5132821798324585e-01" purity="4.9914252758026123e-01" nType="0">
        <Node pos="l" depth="1" NCoef="0" IVar="0" Cut="1.2387061309814453e+02" cType="1" res="1.1622481048107147e-01" rms="4.3733561038970947e-01" purity="6.6878741979598999e-01" nType="0">
          <Node pos="l" depth="2" NCoef="0" IVar="-1" Cut="0.0000000000000000e+00" cType="1" res="-6.6529763862490654e-03" rms="4.5167222619056702e-01" purity="3.0376940965652466e-01" nType="-99"/>
          <Node pos="r" depth="2" NCoef="0" IVar="-1" Cut="0.0000000000000000e+00" cType="1" res="1.1403842829167843e-02" rms="4.2213577032089233e-01" purity="7.4290859699249268e-01" nType="-99"/>
        </Node>
        <Node pos="r" depth="1" NCoef="0" IVar="0" Cut="1.2102391052246094e+02" cType="1" res="-1.1906078457832336e-01" rms="4.3406140804290771e-01" purity="3.2317546010017395e-01" nType="0">
          <Node pos="l" depth="2" NCoef="0" IVar="-1" Cut="0.0000000000000000e+00" cType="1" res="-1.5959028154611588e-02" rms="3.4549412131309509e-01" purity="1.4330357313156128e-01" nType="-99"/>
          <Node pos="r" depth="2" NCoef="0" IVar="-1" Cut="0.0000000000000000e+00" cType="1" res="-3.5049468278884888e-03" rms="4.8010262846946716e-01" purity="4.6153846383094788e-01" nType="-99"/>
        </Node>
      </Node>
    </BinaryTree>
    <BinaryTree type="DecisionTree" boostWeight="1.0000000000000000e+00" itree="19">
      <Node pos="s" depth="0" NCoef="0" IVar="9" Cut="4.2863178253173828e-01" cType="1" res="6.6314125433564186e-03" rms="4.5238268375396729e-01" purity="5.0642597675323486e-01" nType="0">
        <Node pos="l" depth="1" NCoef="0" IVar="7" Cut="-1.0488086938858032e+00" cType="1" res="1.0704044252634048e-01" rms="4.3850567936897278e-01" purity="6.6385632753372192e-01" nType="0">
          <Node pos="l" depth="2" NCoef="0" IVar="-1" Cut="0.0000000000000000e+00" cType="1" res="-8.8976267725229263e-03" rms="4.4220426678657532e-01" purity="3.4739178419113159e-01" nType="-99"/>
          <Node pos="r" depth="2" NCoef="0" IVar="-1" Cut="0.0000000000000000e+00" cType="1" res="1.1033252812922001e-02" rms="4.2336136102676392e-01" purity="7.2645443677902222e-01" nType="-99"/>
        </Node>
        <Node pos="r" depth="1" NCoef="0" IVar="2" Cut="7.2555412292480469e+01" cType="1" res="-1.0024171322584152e-01" rms="4.4233015179634094e-01" purity="3.3886072039604187e-01" nType="0">
          <Node pos="l" depth="2" NCoef="0" IVar="-1" Cut="0.0000000000000000e+00" cType="1" res="-1.4478997327387333e-02" rms="3.6966472864151001e-01" purity="1.7666827142238617e-01" nType="-99"/>
          <Node pos="r" depth="2" NCoef="0" IVar="-1" Cut="0.0000000000000000e+00" cType="1" res="-2.7438516262918711e-03" rms="4.7611898183822632e-01" purity="4.4988498091697693e-01" nType="-99"/>
        </Node>
      </Node>
    </BinaryTree>
    <BinaryTree type="DecisionTree" boostWeight="1.0000000000000000e+00" itree="20">
      <Node pos="s" depth="0" NCoef="0" IVar="9" Cut="4.0659174323081970e-01" cType="1" res="1.5636780299246311e-03" rms="4.4931998848915100e-01" purity="5.0336450338363647e-01" nType="0">
        <Node pos="l" depth="1" NCoef="0" IVar="0" Cut="1.2680242156982422e+02" cType="1" res="1.1398209631443024e-01" rms="4.3383917212486267e-01" purity="6.8137252330780029e-01" nType="0">
          <Node pos="l" depth="2" NCoef="0" IVar="-1" Cut="0.0000000000000000e+00" cType="1" res="-6.0716629959642887e-03" rms="4.5626097917556763e-01" purity="3.2896304130554199e-01" nType="-99"/>
          <Node pos="r" depth="2" NCoef="0" IVar="-1" Cut="0.0000000000000000e+00" cType="1" res="1.1118241585791111e-02" rms="4.1843134164810181e-01" purity="7.5076276063919067e-01" nType="-99"/>
        </Node>
        <Node pos="r" depth="1" NCoef="0" IVar="7" Cut="-3.2895159721374512e-01" cType="1" res="-1.0081738233566284e-01" rms="4.3857538700103760e-01" purity="3.4125000238418579e-01" nType="0">
          <Node pos="l" depth="2" NCoef="0" IVar="-1" Cut="0.0000000000000000e+00" cType="1" res="-1.5552449971437454e-02" rms="3.6316072940826416e-01" purity="1.7641958594322205e-01" nType="-99"/>
          <Node pos="r" depth="2" NCoef="0" IVar="-1" Cut="0.0000000000000000e+00" cType="1" res="-1.9644035492092371e-03" rms="4.7080394625663757e-01" purity="4.5672640204429626e-01" nType="-99"/>
        </Node>
      </Node>
    </BinaryTree>
    <BinaryTree type="DecisionTree" boostWeight="1.0000000000000000e+00" itree="21">
      <Node pos="s" depth="0" NCoef="0" IVar="9" Cut="5.3080815076828003e-01" cType="1" res="-2.9078955412842333e-04" rms="4.4873669743537903e-01" purity="5.0175106525421143e-01" nType="0">
        <Node pos="l" depth="1" NCoef="0" IVar="7" Cut="-1.0488086938858032e+00" cType="1" res="7.0185229182243347e-02" rms="4.4664505124092102e-01" purity="6.0783785581588745e-01" nType="0">
          <Node pos="l" depth="2" NCoef="0" IVar="-1" Cut="0.0000000000000000e+00" cType="1" res="-1.1067115701735020e-02" rms="4.2176952958106995e-01" purity="2.8995984792709351e-01" nType="-99"/>
          <Node pos="r" depth="2" NCoef="0" IVar="-1" Cut="0.0000000000000000e+00" cType="1" res="8.3192437887191772e-03" rms="4.3839043378829956e-01" purity="6.7213648557662964e-01" nType="-99"/>
        </Node>
        <Node pos="r" depth="1" NCoef="0" IVar="6" Cut="9.0863324701786041e-02" cType="1" res="-1.6506883502006531e-01" rms="4.0863031148910522e-01" purity="2.5371247529983521e-01" nType="0">
          <Node pos="l" depth="2" NCoef="0" IVar="-1" Cut="0.0000000000000000e+00" cType="1" res="-6.0799624770879745e-03" rms="4.3968552350997925e-01" purity="3.4701159596443176e-01" nType="-99"/>
          <Node pos="r" depth="2" NCoef="0" IVar="-1" Cut="0.0000000000000000e+00" cType="1" res="-1.5525195747613907e-02" rms="3.8299232721328735e-01" purity="2.0254403352737427e-01" nType="-99"/>
        </Node>
      </Node>
    </BinaryTree>
    <BinaryTree type="DecisionTree" boostWeight="1.0000000000000000e+00" itree="22">
      <Node pos="s" depth="0" NCoef="0" IVar="9" Cut="4.3882644176483154e-01" cType="1" res="7.2426286351401359e-05" rms="4.4899183511734009e-01" purity="5.0132602453231812e-01" nType="0">
        <Node pos="l" depth="1" NCoef="0" IVar="7" Cut="-9.9859154224395752e-01" cType="1" res="9.1846376657485962e-02" rms="4.4022461771965027e-01" purity="6.5521496534347534e-01" nType="0">
          <Node pos="l" depth="2" NCoef="0" IVar="-1" Cut="0.0000000000000000e+00" cType="1" res="-8.3149326965212822e-03" rms="4.4528606534004211e-01" purity="3.5294118523597717e-01" nType="-99"/>
          <Node pos="r" depth="2" NCoef="0" IVar="-1" Cut="0.0000000000000000e+00" cType="1" res="9.9256727844476700e-03" rms="4.2643889784812927e-01" purity="7.2009414434432983e-01" nType="-99"/>
        </Node>
        <Node pos="r" depth="1" NCoef="0" IVar="9" Cut="6.6878479719161987e-01" cType="1" res="-1.0662747919559479e-01" rms="4.3529343605041504e-01" purity="3.2240885496139526e-01" nType="0">
          <Node pos="l" depth="2" NCoef="0" IVar="-1" Cut="0.0000000000000000e+00" cType="1" res="-4.8737088218331337e-03" rms="4.5118877291679382e-01" purity="3.7310606241226196e-01" nType="-99"/>
          <Node pos="r" depth="2" NCoef="0" IVar="-1" Cut="0.0000000000000000e+00" cType="1" res="-1.7318101599812508e-02" rms="3.5340601205825806e-01" purity="1.6441820561885834e-01" nType="-99"/>
        </Node>
      </Node>
    </BinaryTree>
    <BinaryTree type="DecisionTree" boostWeight="1.0000000000000000e+00" itree="23">
      <Node pos="s" depth="0" NCoef="0" IVar="0" Cut="1.3300285339355469e+02" cType="1" res="-3.9890529587864876e-03" rms="4.4469609856605530e-01" purity="4.9460551142692566e-01" nType="0">
        <Node pos="l" depth="1" NCoef="0" IVar="7" Cut="-4.2601048946380615e-01" cType="1" res="-1.3743510842323303e-01" rms="4.0422469377517700e-01" purity="2.3925325274467468e-01" nType="0">
          <Node pos="l" depth="2" NCoef="0" IVar="-1" Cut="0.0000000000000000e+00" cType="1" res="-1.4658004976809025e-02" rms="3.5801547765731812e-01" purity="1.6798418760299683e-01" nType="-99"/>
          <Node pos="r" depth="2" NCoef="0" IVar="-1" Cut="0.0000000000000000e+00" cType="1" res="-3.7942945491522551e-03" rms="4.5750597119331360e-01" purity="3.5626217722892761e-01" nType="-99"/>
        </Node>
        <Node pos="r" depth="1" NCoef="0" IVar="5" Cut="2.1504615783691406e+02" cType="1" res="7.8472830355167389e-02" rms="4.4853213429450989e-01" purity="6.5239828824996948e-01" nType="0">
          <Node pos="l" depth="2" NCoef="0" IVar="-1" Cut="0.0000000000000000e+00" cType="1" res="1.0149107314646244e-02" rms="4.2327147722244263e-01" purity="7.2325712442398071e-01" nType="-99"/>
          <Node pos="r" depth="2" NCoef="0" IVar="-1" Cut="0.0000000000000000e+00" cType="1" res="-1.0859391652047634e-02" rms="4.6547064185142517e-01" purity="3.8522809743881226e-01" nType="-99"/>
        </Node>
      </Node>
    </BinaryTree>
    <BinaryTree type="DecisionTree" boostWeight="1.0000000000000000e+00" itree="24">
      <Node pos="s" depth="0" NCoef="0" IVar="9" Cut="4.1865107417106628e-01" cType="1" res="1.2219380005262792e-04" rms="4.4414663314819336e-01" purity="5.0009506940841675e-01" nType="0">
        <Node pos="l" depth="1" NCoef="0" IVar="5" Cut="2.2258909606933594e+02" cType="1" res="1.0268450528383255e-01" rms="4.3113458156585693e-01" purity="6.7771315574645996e-01" nType="0">
          <Node pos="l" depth="2" NCoef="0" IVar="-1" Cut="0.0000000000000000e+00" cType="1" res="1.0092061944305897e-02" rms="4.1178122162818909e-01" purity="7.1231353282928467e-01" nType="-99"/>
          <Node pos="r" depth="2" NCoef="0" IVar="-1" Cut="0.0000000000000000e+00" cType="1" res="-8.7764365598559380e-03" rms="4.8672768473625183e-01" purity="4.4544094800949097e-01" nType="-99"/>
        </Node>
        <Node pos="r" depth="1" NCoef="0" IVar="2" Cut="6.6322395324707031e+01" cType="1" res="-9.8686903715133667e-02" rms="4.3398311734199524e-01" purity="3.2897683978080750e-01" nType="0">
          <Node pos="l" depth="2" NCoef="0" IVar="-1" Cut="0.0000000000000000e+00" cType="1" res="-1.5088930726051331e-02" rms="3.4630447626113892e-01" purity="1.5094339847564697e-01" nType="-99"/>
          <Node pos="r" depth="2" NCoef="0" IVar="-1" Cut="0.0000000000000000e+00" cType="1" res="-3.5502875689417124e-03" rms="4.6644836664199829e-01" purity="4.2330762743949890e-01" nType="-99"/>
        </Node>
      </Node>
    </BinaryTree>
    <BinaryTree type="DecisionTree" boostWeight="1.0000000000000000e+00" itree="25">
      <Node pos="s" depth="0" NCoef="0" IVar="0" Cut="1.2175007629394531e+02" cType="1" res="1.9329423084855080e-03" rms="4.4173312187194824e-01" purity="5.0157517194747925e-01" nType="0">
        <Node pos="l" depth="1" NCoef="0" IVar="0" Cut="1.0019398498535156e+02" cType="1" res="-1.5652033686637878e-01" rms="3.7280485033988953e-01" purity="1.7829969525337219e-01" nType="0">
          <Node pos="l" depth="2" NCoef="0" IVar="-1" Cut="0.0000000000000000e+00" cType="1" res="-1.6105867922306061e-02" rms="3.1207892298698425e-01" purity="1.1214952915906906e-01" nType="-99"/>
          <Node pos="r" depth="2" NCoef="0" IVar="-1" Cut="0.0000000000000000e+00" cType="1" res="-7.7475663274526596e-03" rms="4.3385738134384155e-01" purity="2.6468345522880554e-01" nType="-99"/>
        </Node>
        <Node pos="r" depth="1" NCoef="0" IVar="6" Cut="2.4030388891696930e-01" cType="1" res="6.6211558878421783e-02" rms="4.5120626688003540e-01" purity="6.3271605968475342e-01" nType="0">
          <Node pos="l" depth="2" NCoef="0" IVar="-1" Cut="0.0000000000000000e+00" cType="1" res="8.1559764221310616e-03" rms="4.3641650676727295e-01" purity="6.9318902492523193e-01" nType="-99"/>
          <Node pos="r" depth="2" NCoef="0" IVar="-1" Cut="0.0000000000000000e+00" cType="1" res="-1.2715388089418411e-02" rms="4.4954940676689148e-01" purity="3.0736300349235535e-01" nType="-99"/>
        </Node>
      </Node>
    </BinaryTree>
    <BinaryTree type="DecisionTree" boostWeight="1.0000000000000000e+00" itree="26">
      <Node pos="s" depth="0" NCoef="0" IVar="3" Cut="6.6269149780273438e+01" cType="1" res="1.9406161736696959e-03" rms="4.4260105490684509e-01" purity="5.0179278850555420e-01" nType="0">
        <Node pos="l" depth="1" NCoef="0" IVar="2" Cut="8.5961456298828125e+01" cType="1" res="-1.0095979273319244e-01" rms="4.2687484622001648e-01" purity="3.1836733222007751e-01" nType="0">
          <Node pos="l" depth="2" NCoef="0" IVar="-1" Cut="0.0000000000000000e+00" cType="1" res="-1.3063048943877220e-02" rms="3.6947688460350037e-01" purity="1.7988033592700958e-01" nType="-99"/>
          <Node pos="r" depth="2" NCoef="0" IVar="-1" Cut="0.0000000000000000e+00" cType="1" res="-1.7001056112349033e-03" rms="4.7559994459152222e-01" purity="4.8472595214843750e-01" nType="-99"/>
        </Node>
        <Node pos="r" depth="1" NCoef="0" IVar="8" Cut="3.4809318184852600e-01" cType="1" res="9.0429909527301788e-02" rms="4.3671309947967529e-01" purity="6.5952968597412109e-01" nType="0">
          <Node pos="l" depth="2" NCoef="0" IVar="-1" Cut="0.0000000000000000e+00" cType="1" res="-9.4032930210232735e-03" rms="4.6398767828941345e-01" purity="3.4006375074386597e-01" nType="-99"/>
          <Node pos="r" depth="2" NCoef="0" IVar="-1" Cut="0.0000000000000000e+00" cType="1" res="9.9623752757906914e-03" rms="4.1722562909126282e-01" purity="7.2272437810897827e-01" nType="-99"/>
        </Node>
      </Node>
    </BinaryTree>
    <BinaryTree type="DecisionTree" boostWeight="1.0000000000000000e+00" itree="27">
      <Node pos="s" depth="0" NCoef="0" IVar="9" Cut="3.7723845243453979e-01" cType="1" res="-1.3186210999265313e-03" rms="4.4056332111358643e-01" purity="4.9909722805023193e-01" nType="0">
        <Node pos="l" depth="1" NCoef="0" IVar="0" Cut="1.9739263916015625e+02" cType="1" res="1.1449968069791794e-01" rms="4.1696128249168396e-01" purity="7.0610415935516357e-01" nType="0">
          <Node pos="l" depth="2" NCoef="0" IVar="-1" Cut="0.0000000000000000e+00" cType="1" res="1.1222227476537228e-02" rms="3.9375326037406921e-01" purity="7.4454325437545776e-01" nType="-99"/>
          <Node pos="r" depth="2" NCoef="0" IVar="-1" Cut="0.0000000000000000e+00" cType="1" res="-9.3702496960759163e-03" rms="4.8592746257781982e-01" purity="4.3796992301940918e-01" nType="-99"/>
        </Node>
        <Node pos="r" depth="1" NCoef="0" IVar="9" Cut="6.1024749279022217e-01" cType="1" res="-7.9569742083549500e-02" rms="4.3884429335594177e-01" purity="3.5923567414283752e-01" nType="0">
          <Node pos="l" depth="2" NCoef="0" IVar="-1" Cut="0.0000000000000000e+00" cType="1" res="-2.5801791343837976e-03" rms="4.5609778165817261e-01" purity="4.2680180072784424e-01" nType="-99"/>
          <Node pos="r" depth="2" NCoef="0" IVar="-1" Cut="0.0000000000000000e+00" cType="1" res="-1.4342820271849632e-02" rms="3.7261763215065002e-01" purity="1.9619564712047577e-01" nType="-99"/>
        </Node>
      </Node>
    </BinaryTree>
    <BinaryTree type="DecisionTree" boostWeight="1.0000000000000000e+00" itree="28">
      <Node pos="s" depth="0" NCoef="0" IVar="2" Cut="6.8883583068847656e+01" cType="1" res="-6.6232844255864620e-03" rms="4.3858474493026733e-01" purity="4.9245265126228333e-01" nType="0">
        <Node pos="l" depth="1" NCoef="0" IVar="3" Cut="7.0509315490722656e+01" cType="1" res="-1.6171479225158691e-01" rms="3.6739006638526917e-01" purity="2.0180723071098328e-01" nType="0">
          <Node pos="l" depth="2" NCoef="0" IVar="-1" Cut="0.0000000000000000e+00" cType="1" res="-1.6236847266554832e-02" rms="3.2276588678359985e-01" purity="1.2366954237222672e-01" nType="-99"/>
          <Node pos="r" depth="2" NCoef="0" IVar="-1" Cut="0.0000000000000000e+00" cType="1" res="-3.6643978673964739e-03" rms="4.5502746105194092e-01" purity="4.2752560973167419e-01" nType="-99"/>
        </Node>
        <Node pos="r" depth="1" NCoef="0" IVar="6" Cut="1.7070138454437256e-01" cType="1" res="4.6562388539314270e-02" rms="4.4828224182128906e-01" purity="5.9212392568588257e-01" nType="0">
          <Node pos="l" depth="2" NCoef="0" IVar="-1" Cut="0.0000000000000000e+00" cType="1" res="7.9465555027127266e-03" rms="4.2719820141792297e-01" purity="6.7951720952987671e-01" nType="-99"/>
          <Node pos="r" depth="2" NCoef="0" IVar="-1" Cut="0.0000000000000000e+00" cType="1" res="-7.7205481939017773e-03" rms="4.6332636475563049e-01" purity="3.7101185321807861e-01" nType="-99"/>
        </Node>
      </Node>
    </BinaryTree>
    <BinaryTree type="DecisionTree" boostWeight="1.0000000000000000e+00" itree="29">
      <Node pos="s" depth="0" NCoef="0" IVar="9" Cut="3.9451438188552856e-01" cType="1" res="4.8142569139599800e-03" rms="4.3877291679382324e-01" purity="5.0519126653671265e-01" nType="0">
        <Node pos="l" depth="1" NCoef="0" IVar="1" Cut="1.0228299713134766e+02" cType="1" res="9.8526276648044586e-02" rms="4.2418766021728516e-01" purity="6.8980795145034790e-01" nType="0">
          <Node pos="l" depth="2" NCoef="0" IVar="-1" Cut="0.0000000000000000e+00" cType="1" res="1.0537000373005867e-02" rms="3.9672696590423584e-01" purity="7.3387712240219116e-01" nType="-99"/>
          <Node pos="r" depth="2" NCoef="0" IVar="-1" Cut="0.0000000000000000e+00" cType="1" res="-7.1079754270613194e-03" rms="4.9125319719314575e-01" purity="4.7794118523597717e-01" nType="-99"/>
        </Node>
        <Node pos="r" depth="1" NCoef="0" IVar="7" Cut="-4.9970364570617676e-01" cType="1" res="-6.9799527525901794e-02" rms="4.3587115406990051e-01" purity="3.5819891095161438e-01" nType="0">
          <Node pos="l" depth="2" NCoef="0" IVar="-1" Cut="0.0000000000000000e+00" cType="1" res="-1.4784053899347782e-02" rms="3.4258061647415161e-01" purity="1.6294758021831512e-01" nType="-99"/>
          <Node pos="r" depth="2" NCoef="0" IVar="-1" Cut="0.0000000000000000e+00" cType="1" res="-1.0753755923360586e-03" rms="4.6408453583717346e-01" purity="4.5167702436447144e-01" nType="-99"/>
        </Node>
      </Node>
    </BinaryTree>
    <BinaryTree type="DecisionTree" boostWeight="1.0000000000000000e+00" itree="30">
      <Node pos="s" depth="0" NCoef="0" IVar="9" Cut="4.7057807445526123e-01" cType="1" res="5.2265622653067112e-03" rms="4.3428701162338257e-01" purity="5.0588238239288330e-01" nType="0">
        <Node pos="l" depth="1" NCoef="0" IVar="0" Cut="1.2609596252441406e+02" cType="1" res="8.0386862158775330e-02" rms="4.3031847476959229e-01" purity="6.4914816617965698e-01" nType="0">
          <Node pos="l" depth="2" NCoef="0" IVar="-1" Cut="0.0000000000000000e+00" cType="1" res="-6.2457118183374405e-03" rms="4.3657848238945007e-01" purity="2.9769736528396606e-01" nType="-99"/>
          <Node pos="r" depth="2" NCoef="0" IVar="-1" Cut="0.0000000000000000e+00" cType="1" res="8.9509133249521255e-03" rms="4.1932138800621033e-01" purity="7.3451858758926392e-01" nType="-99"/>
        </Node>
        <Node pos="r" depth="1" NCoef="0" IVar="6" Cut="1.6945822536945343e-01" cType="1" res="-1.0307528078556061e-01" rms="4.1674944758415222e-01" purity="2.9944419860839844e-01" nType="0">
          <Node pos="l" depth="2" NCoef="0" IVar="-1" Cut="0.0000000000000000e+00" cType="1" res="-3.3080554567277431e-03" rms="4.3271091580390930e-01" purity="3.7557077407836914e-01" nType="-99"/>
          <Node pos="r" depth="2" NCoef="0" IVar="-1" Cut="0.0000000000000000e+00" cType="1" res="-1.4912100508809090e-02" rms="3.7212178111076355e-01" purity="1.8106508255004883e-01" nType="-99"/>
        </Node>
      </Node>
    </BinaryTree>
    <BinaryTree type="DecisionTree" boostWeight="1.0000000000000000e+00" itree="31">
      <Node pos="s" depth="0" NCoef="0" IVar="0" Cut="1.3441290283203125e+02" cType="1" res="2.3536889348179102e-03" rms="4.3690326809883118e-01" purity="5.0277698040008545e-01" nType="0">
        <Node pos="l" depth="1" NCoef="0" IVar="7" Cut="-8.8160407543182373e-01" cType="1" res="-1.0230093449354172e-01" rms="4.1100627183914185e-01" purity="2.6063570380210876e-01" nType="0">
          <Node pos="l" depth="2" NCoef="0" IVar="-1" Cut="0.0000000000000000e+00" cType="1" res="-1.4070326462388039e-02" rms="3.4953808784484863e-01" purity="1.6004742681980133e-01" nType="-99"/>
          <Node pos="r" depth="2" NCoef="0" IVar="-1" Cut="0.0000000000000000e+00" cType="1" res="-4.0157712064683437e-03" rms="4.4228884577751160e-01" purity="3.3125260472297668e-01" nType="-99"/>
        </Node>
        <Node pos="r" depth="1" NCoef="0" IVar="5" Cut="2.1715232849121094e+02" cType="1" res="6.7872963845729828e-02" rms="4.3986570835113525e-01" purity="6.5437012910842896e-01" nType="0">
          <Node pos="l" depth="2" NCoef="0" IVar="-1" Cut="0.0000000000000000e+00" cType="1" res="9.4437133520841599e-03" rms="4.1445764899253845e-01" purity="7.2793412208557129e-01" nType="-99"/>
          <Node pos="r" depth="2" NCoef="0" IVar="-1" Cut="0.0000000000000000e+00" cType="1" res="-1.2029233388602734e-02" rms="4.5871865749359131e-01" purity="3.6106869578361511e-01" nType="-99"/>
        </Node>
      </Node>
    </BinaryTree>
    <BinaryTree type="DecisionTree" boostWeight="1.0000000000000000e+00" itree="32">
      <Node pos="s" depth="0" NCoef="0" IVar="0" Cut="1.3441290283203125e+02" cType="1" res="7.4668205343186855e-03" rms="4.3449828028678894e-01" purity="5.0819200277328491e-01" nType="0">
        <Node pos="l" depth="1" NCoef="0" IVar="7" Cut="-7.5534015893936157e-01" cType="1" res="-1.0045176744461060e-01" rms="4.0941244363784790e-01" purity="2.5841015577316284e-01" nType="0">
          <Node pos="l" depth="2" NCoef="0" IVar="-1" Cut="0.0000000000000000e+00" cType="1" res="-1.4308561570942402e-02" rms="3.4324073791503906e-01" purity="1.5256065130233765e-01" nType="-99"/>
          <Node pos="r" depth="2" NCoef="0" IVar="-1" Cut="0.0000000000000000e+00" cType="1" res="-2.7786383870989084e-03" rms="4.4887205958366394e-01" purity="3.4939759969711304e-01" nType="-99"/>
        </Node>
        <Node pos="r" depth="1" NCoef="0" IVar="1" Cut="1.0180092620849609e+02" cType="1" res="7.4882335960865021e-02" rms="4.3611156940460205e-01" purity="6.6422790288925171e-01" nType="0">
          <Node pos="l" depth="2" NCoef="0" IVar="-1" Cut="0.0000000000000000e+00" cType="1" res="1.0630929842591286e-02" rms="4.0373510122299194e-01" purity="7.5342750549316406e-01" nType="-99"/>
          <Node pos="r" depth="2" NCoef="0" IVar="-1" Cut="0.0000000000000000e+00" cType="1" res="-9.0648904442787170e-03" rms="4.6625816822052002e-01" purity="3.9751553535461426e-01" nType="-99"/>
        </Node>
      </Node>
    </BinaryTree>
    <BinaryTree type="DecisionTree" boostWeight="1.0000000000000000e+00" itree="33">
      <Node pos="s" depth="0" NCoef="0" IVar="9" Cut="5.1838761568069458e-01" cType="1" res="4.5571313239634037e-03" rms="4.3268963694572449e-01" purity="5.0682967901229858e-01" nType="0">
        <Node pos="l" depth="1" NCoef="0" IVar="0" Cut="1.3269271850585938e+02" cType="1" res="6.2248736619949341e-02" rms="4.3270081281661987e-01" purity="6.1853355169296265e-01" nType="0">
          <Node pos="l" depth="2" NCoef="0" IVar="-1" Cut="0.0000000000000000e+00" cType="1" res="-4.8564425669610500e-03" rms="4.4296485185623169e-01" purity="3.2576149702072144e-01" nType="-99"/>
          <Node pos="r" depth="2" NCoef="0" IVar="-1" Cut="0.0000000000000000e+00" cType="1" res="8.2120187580585480e-03" rms="4.1925945878028870e-01" purity="7.2767513990402222e-01" nType="-99"/>
        </Node>
        <Node pos="r" depth="1" NCoef="0" IVar="3" Cut="3.5047599792480469e+01" cType="1" res="-1.1879844963550568e-01" rms="4.0603753924369812e-01" purity="2.6798561215400696e-01" nType="0">
          <Node pos="l" depth="2" NCoef="0" IVar="-1" Cut="0.0000000000000000e+00" cType="1" res="-1.7357805743813515e-02" rms="2.9754543304443359e-01" purity="1.1000990867614746e-01" nType="-99"/>
          <Node pos="r" depth="2" NCoef="0" IVar="-1" Cut="0.0000000000000000e+00" cType="1" res="-5.9493361040949821e-03" rms="4.3898496031761169e-01" purity="3.3648473024368286e-01" nType="-99"/>
        </Node>
      </Node>
    </BinaryTree>
    <BinaryTree type="DecisionTree" boostWeight="1.0000000000000000e+00" itree="34">
      <Node pos="s" depth="0" NCoef="0" IVar="6" Cut="2.1182361245155334e-01" cType="1" res="-4.5288424007594585e-03" rms="4.3382394313812256e-01" purity="4.9700027704238892e-01" nType="0">
        <Node pos="l" depth="1" NCoef="0" IVar="0" Cut="1.2523171234130859e+02" cType="1" res="3.5514272749423981e-02" rms="4.2911973595619202e-01" purity="5.5722463130950928e-01" nType="0">
          <Node pos="l" depth="2" NCoef="0" IVar="-1" Cut="0.0000000000000000e+00" cType="1" res="-7.9063046723604202e-03" rms="3.9699092507362366e-01" purity="2.2270916402339935e-01" nType="-99"/>
          <Node pos="r" depth="2" NCoef="0" IVar="-1" Cut="0.0000000000000000e+00" cType="1" res="6.8881204351782799e-03" rms="4.2989385128021240e-01" purity="7.0006805658340454e-01" nType="-99"/>
        </Node>
        <Node pos="r" depth="1" NCoef="0" IVar="5" Cut="1.7780180358886719e+02" cType="1" res="-1.6348844766616821e-01" rms="4.1555342078208923e-01" purity="2.5792711973190308e-01" nType="0">
          <Node pos="l" depth="2" NCoef="0" IVar="-1" Cut="0.0000000000000000e+00" cType="1" res="-8.4915542975068092e-03" rms="4.1277924180030823e-01" purity="2.7279874682426453e-01" nType="-99"/>
          <Node pos="r" depth="2" NCoef="0" IVar="-1" Cut="0.0000000000000000e+00" cType="1" res="-1.7507126554846764e-02" rms="4.0623655915260315e-01" purity="2.3543401062488556e-01" nType="-99"/>
        </Node>
      </Node>
    </BinaryTree>
    <BinaryTree type="DecisionTree" boostWeight="1.0000000000000000e+00" itree="35">
      <Node pos="s" depth="0" NCoef="0" IVar="9" Cut="4.1322228312492371e-01" cType="1" res="-3.5962429828941822e-03" rms="4.3344622850418091e-01" purity="4.9704530835151672e-01" nType="0">
        <Node pos="l" depth="1" NCoef="0" IVar="0" Cut="1.9940699768066406e+02" cType="1" res="7.3737964034080505e-02" rms="4.2561456561088562e-01" purity="6.6989552974700928e-01" nType="0">
          <Node pos="l" depth="2" NCoef="0" IVar="-1" Cut="0.0000000000000000e+00" cType="1" res="7.7963718213140965e-03" rms="4.0952575206756592e-01" purity="7.0120531320571899e-01" nType="-99"/>
          <Node pos="r" depth="2" NCoef="0" IVar="-1" Cut="0.0000000000000000e+00" cType="1" res="-1.2104008346796036e-02" rms="4.8362588882446289e-01" purity="3.9365673065185547e-01" nType="-99"/>
        </Node>
        <Node pos="r" depth="1" NCoef="0" IVar="7" Cut="-7.9302787780761719e-01" cType="1" res="-7.9052984714508057e-02" rms="4.2768102884292603e-01" purity="3.2839140295982361e-01" nType="0">
          <Node pos="l" depth="2" NCoef="0" IVar="-1" Cut="0.0000000000000000e+00" cType="1" res="-1.5055420808494091e-02" rms="3.2742843031883240e-01" purity="1.3445378839969635e-01" nType="-99"/>
          <Node pos="r" depth="2" NCoef="0" IVar="-1" Cut="0.0000000000000000e+00" cType="1" res="-3.2336162403225899e-03" rms="4.5314049720764160e-01" purity="3.9818549156188965e-01" nType="-99"/>
        </Node>
      </Node>
    </BinaryTree>
    <BinaryTree type="DecisionTree" boostWeight="1.0000000000000000e+00" itree="36">
      <Node pos="s" depth="0" NCoef="0" IVar="9" Cut="3.5198777914047241e-01" cType="1" res="3.2317577279172838e-04" rms="4.3210548162460327e-01" purity="5.0168740749359131e-01" nType="0">
        <Node pos="l" depth="1" NCoef="0" IVar="1" Cut="9.8586257934570312e+01" cType="1" res="1.0765819251537323e-01" rms="4.0728446841239929e-01" purity="7.2637516260147095e-01" nType="0">
          <Node pos="l" depth="2" NCoef="0" IVar="-1" Cut="0.0000000000000000e+00" cType="1" res="1.1609055101871490e-02" rms="3.7549319863319397e-01" purity="7.7476209402084351e-01" nType="-99"/>
          <Node pos="r" depth="2" NCoef="0" IVar="-1" Cut="0.0000000000000000e+00" cType="1" res="-4.1260994039475918e-03" rms="4.8155421018600464e-01" purity="5.3248590230941772e-01" nType="-99"/>
        </Node>
        <Node pos="r" depth="1" NCoef="0" IVar="7" Cut="-5.2622139453887939e-01" cType="1" res="-5.5419959127902985e-02" rms="4.3410229682922363e-01" purity="3.8499853014945984e-01" nType="0">
          <Node pos="l" depth="2" NCoef="0" IVar="-1" Cut="0.0000000000000000e+00" cType="1" res="-1.2159888632595539e-02" rms="3.6218667030334473e-01" purity="1.9526627659797668e-01" nType="-99"/>
          <Node pos="r" depth="2" NCoef="0" IVar="-1" Cut="0.0000000000000000e+00" cType="1" res="-8.9569215197116137e-04" rms="4.5801553130149841e-01" purity="4.7504860162734985e-01" nType="-99"/>
        </Node>
      </Node>
    </BinaryTree>
    <BinaryTree type="DecisionTree" boostWeight="1.0000000000000000e+00" itree="37">
      <Node pos="s" depth="0" NCoef="0" IVar="3" Cut="4.9476036071777344e+01" cType="1" res="3.1752814538776875e-03" rms="4.2725694179534912e-01" purity="5.0258678197860718e-01" nType="0">
        <Node pos="l" depth="1" NCoef="0" IVar="2" Cut="1.1265505218505859e+02" cType="1" res="-1.2871761620044708e-01" rms="3.8261622190475464e-01" purity="2.2594703733921051e-01" nType="0">
          <Node pos="l" depth="2" NCoef="0" IVar="-1" Cut="0.0000000000000000e+00" cType="1" res="-1.2799844145774841e-02" rms="3.5542461276054382e-01" purity="1.6467681527137756e-01" nType="-99"/>
          <Node pos="r" depth="2" NCoef="0" IVar="-1" Cut="0.0000000000000000e+00" cType="1" res="-1.4022202230989933e-03" rms="4.6879291534423828e-01" purity="4.9458482861518860e-01" nType="-99"/>
        </Node>
        <Node pos="r" depth="1" NCoef="0" IVar="5" Cut="2.1857705688476562e+02" cType="1" res="5.4618339985609055e-02" rms="4.3268722295761108e-01" purity="6.1048638820648193e-01" nType="0">
          <Node pos="l" depth="2" NCoef="0" IVar="-1" Cut="0.0000000000000000e+00" cType="1" res="6.8679801188409328e-03" rms="4.1768395900726318e-01" purity="6.4949244260787964e-01" nType="-99"/>
          <Node pos="r" depth="2" NCoef="0" IVar="-1" Cut="0.0000000000000000e+00" cType="1" res="-1.0287720710039139e-02" rms="4.6215033531188965e-01" purity="3.8917976617813110e-01" nType="-99"/>
        </Node>
      </Node>
    </BinaryTree>
    <BinaryTree type="DecisionTree" boostWeight="1.0000000000000000e+00" itree="38">
      <Node pos="s" depth="0" NCoef="0" IVar="3" Cut="6.5157005310058594e+01" cType="1" res="-8.1033827736973763e-03" rms="4.2821788787841797e-01" purity="4.9062886834144592e-01" nType="0">
        <Node pos="l" depth="1" NCoef="0" IVar="2" Cut="1.1375144195556641e+02" cType="1" res="-9.1717489063739777e-02" rms="4.1218313574790955e-01" purity="3.0533719062805176e-01" nType="0">
          <Node pos="l" depth="2" NCoef="0" IVar="-1" Cut="0.0000000000000000e+00" cType="1" res="-1.0500364005565643e-02" rms="3.8818719983100891e-01" purity="2.2173675894737244e-01" nType="-99"/>
          <Node pos="r" depth="2" NCoef="0" IVar="-1" Cut="0.0000000000000000e+00" cType="1" res="1.8109071534126997e-03" rms="4.6034187078475952e-01" purity="5.6655287742614746e-01" nType="-99"/>
        </Node>
        <Node pos="r" depth="1" NCoef="0" IVar="0" Cut="2.0103169250488281e+02" cType="1" res="6.3094533979892731e-02" rms="4.2874568700790405e-01" purity="6.4840584993362427e-01" nType="0">
          <Node pos="l" depth="2" NCoef="0" IVar="-1" Cut="0.0000000000000000e+00" cType="1" res="7.4020614847540855e-03" rms="4.1317132115364075e-01" purity="6.9009584188461304e-01" nType="-99"/>
          <Node pos="r" depth="2" NCoef="0" IVar="-1" Cut="0.0000000000000000e+00" cType="1" res="-1.3202365487813950e-02" rms="4.6040675044059753e-01" purity="3.3632287383079529e-01" nType="-99"/>
        </Node>
      </Node>
    </BinaryTree>
    <BinaryTree type="DecisionTree" boostWeight="1.0000000000000000e+00" itree="39">
      <Node pos="s" depth="0" NCoef="0" IVar="1" Cut="6.0802425384521484e+01" cType="1" res="7.5986357405781746e-03" rms="4.2835965752601624e-01" purity="5.1212179660797119e-01" nType="0">
        <Node pos="l" depth="1" NCoef="0" IVar="7" Cut="-5.9333801269531250e-01" cType="1" res="-9.6349433064460754e-02" rms="4.1453015804290771e-01" purity="2.8946608304977417e-01" nType="0">
          <Node pos="l" depth="2" NCoef="0" IVar="-1" Cut="0.0000000000000000e+00" cType="1" res="-1.4223385602235794e-02" rms="3.4190908074378967e-01" purity="1.6056518256664276e-01" nType="-99"/>
          <Node pos="r" depth="2" NCoef="0" IVar="-1" Cut="0.0000000000000000e+00" cType="1" res="-2.8677401132881641e-03" rms="4.5716693997383118e-01" purity="3.9465409517288208e-01" nType="-99"/>
        </Node>
        <Node pos="r" depth="1" NCoef="0" IVar="1" Cut="9.7810768127441406e+01" cType="1" res="5.7783957570791245e-02" rms="4.2589268088340759e-01" purity="6.1961823701858521e-01" nType="0">
          <Node pos="l" depth="2" NCoef="0" IVar="-1" Cut="0.0000000000000000e+00" cType="1" res="9.3464357778429985e-03" rms="3.9555379748344421e-01" purity="6.9994282722473145e-01" nType="-99"/>
          <Node pos="r" depth="2" NCoef="0" IVar="-1" Cut="0.0000000000000000e+00" cType="1" res="-8.0773485824465752e-03" rms="4.5836406946182251e-01" purity="4.0093362331390381e-01" nType="-99"/>
        </Node>
      </Node>
    </BinaryTree>
    <BinaryTree type="DecisionTree" boostWeight="1.0000000000000000e+00" itree="40">
      <Node pos="s" depth="0" NCoef="0" IVar="9" Cut="5.3657591342926025e-01" cType="1" res="1.8506933702155948e-03" rms="4.2759564518928528e-01" purity="5.0037688016891479e-01" nType="0">
        <Node pos="l" depth="1" NCoef="0" IVar="7" Cut="-1.0488086938858032e+00" cType="1" res="4.9124602228403091e-02" rms="4.3020570278167725e-01" purity="6.0164868831634521e-01" nType="0">
          <Node pos="l" depth="2" NCoef="0" IVar="-1" Cut="0.0000000000000000e+00" cType="1" res="-7.8365076333284378e-03" rms="4.1201969981193542e-01" purity="3.0763584375381470e-01" nType="-99"/>
          <Node pos="r" depth="2" NCoef="0" IVar="-1" Cut="0.0000000000000000e+00" cType="1" res="6.2526850961148739e-03" rms="4.2734265327453613e-01" purity="6.6666668653488159e-01" nType="-99"/>
        </Node>
        <Node pos="r" depth="1" NCoef="0" IVar="9" Cut="6.9650810956954956e-01" cType="1" res="-1.1310148239135742e-01" rms="3.9842891693115234e-01" purity="2.5412219762802124e-01" nType="0">
          <Node pos="l" depth="2" NCoef="0" IVar="-1" Cut="0.0000000000000000e+00" cType="1" res="-6.2224753201007843e-03" rms="4.1792213916778564e-01" purity="2.9923734068870544e-01" nType="-99"/>
          <Node pos="r" depth="2" NCoef="0" IVar="-1" Cut="0.0000000000000000e+00" cType="1" res="-1.6431832686066628e-02" rms="3.2688379287719727e-01" purity="1.3773147761821747e-01" nType="-99"/>
        </Node>
      </Node>
    </BinaryTree>
    <BinaryTree type="DecisionTree" boostWeight="1.0000000000000000e+00" itree="41">
      <Node pos="s" depth="0" NCoef="0" IVar="6" Cut="1.3051250576972961e-01" cType="1" res="2.9073916375637054e-03" rms="4.2813745141029358e-01" purity="5.0727534294128418e-01" nType="0">
        <Node pos="l" depth="1" NCoef="0" IVar="0" Cut="1.3506398010253906e+02" cType="1" res="5.7802665978670120e-02" rms="4.1478332877159119e-01" purity="6.0012322664260864e-01" nType="0">
          <Node pos="l" depth="2" NCoef="0" IVar="-1" Cut="0.0000000000000000e+00" cType="1" res="-5.8246576227247715e-03" rms="4.1534784436225891e-01" purity="2.8934463858604431e-01" nType="-99"/>
          <Node pos="r" depth="2" NCoef="0" IVar="-1" Cut="0.0000000000000000e+00" cType="1" res="9.7468486055731773e-03" rms="3.9785608649253845e-01" purity="7.6417982578277588e-01" nType="-99"/>
        </Node>
        <Node pos="r" depth="1" NCoef="0" IVar="0" Cut="1.8884744262695312e+02" cType="1" res="-8.5678264498710632e-02" rms="4.3446072936058044e-01" purity="3.5744470357894897e-01" nType="0">
          <Node pos="l" depth="2" NCoef="0" IVar="-1" Cut="0.0000000000000000e+00" cType="1" res="-4.6130949631333351e-03" rms="4.3406379222869873e-01" purity="3.7842616438865662e-01" nType="-99"/>
          <Node pos="r" depth="2" NCoef="0" IVar="-1" Cut="0.0000000000000000e+00" cType="1" res="-1.6350958496332169e-02" rms="4.0838047862052917e-01" purity="2.4444444477558136e-01" nType="-99"/>
        </Node>
      </Node>
    </BinaryTree>
    <BinaryTree type="DecisionTree" boostWeight="1.0000000000000000e+00" itree="42">
      <Node pos="s" depth="0" NCoef="0" IVar="9" Cut="5.3080815076828003e-01" cType="1" res="-1.8382836133241653e-03" rms="4.2709460854530334e-01" purity="5.0109636783599854e-01" nType="0">
        <Node pos="l" depth="1" NCoef="0" IVar="7" Cut="-4.9970364570617676e-01" cType="1" res="4.4617604464292526e-02" rms="4.3020117282867432e-01" purity="6.0606062412261963e-01" nType="0">
          <Node pos="l" depth="2" NCoef="0" IVar="-1" Cut="0.0000000000000000e+00" cType="1" res="-5.9672235511243343e-03" rms="4.3075788021087646e-01" purity="3.8602101802825928e-01" nType="-99"/>
          <Node pos="r" depth="2" NCoef="0" IVar="-1" Cut="0.0000000000000000e+00" cType="1" res="7.3324255645275116e-03" rms="4.1971749067306519e-01" purity="6.9922631978988647e-01" nType="-99"/>
        </Node>
        <Node pos="r" depth="1" NCoef="0" IVar="9" Cut="7.0353162288665771e-01" cType="1" res="-1.1106156557798386e-01" rms="3.9892905950546265e-01" purity="2.5431311130523682e-01" nType="0">
          <Node pos="l" depth="2" NCoef="0" IVar="-1" Cut="0.0000000000000000e+00" cType="1" res="-6.4020268619060516e-03" rms="4.1702821850776672e-01" purity="2.9396551847457886e-01" nType="-99"/>
          <Node pos="r" depth="2" NCoef="0" IVar="-1" Cut="0.0000000000000000e+00" cType="1" res="-1.6240006312727928e-02" rms="3.2629224658012390e-01" purity="1.4074073731899261e-01" nType="-99"/>
        </Node>
      </Node>
    </BinaryTree>
    <BinaryTree type="DecisionTree" boostWeight="1.0000000000000000e+00" itree="43">
      <Node pos="s" depth="0" NCoef="0" IVar="6" Cut="9.3117132782936096e-02" cType="1" res="-2.8634143527597189e-03" rms="4.2400953173637390e-01" purity="5.0028562545776367e-01" nType="0">
        <Node pos="l" depth="1" NCoef="0" IVar="0" Cut="1.3453915405273438e+02" cType="1" res="7.2504989802837372e-02" rms="4.0441679954528809e-01" purity="6.2610751390457153e-01" nType="0">
          <Node pos="l" depth="2" NCoef="0" IVar="-1" Cut="0.0000000000000000e+00" cType="1" res="-5.3928908891975880e-03" rms="4.1367685794830322e-01" purity="2.8278434276580811e-01" nType="-99"/>
          <Node pos="r" depth="2" NCoef="0" IVar="-1" Cut="0.0000000000000000e+00" cType="1" res="1.0699169710278511e-02" rms="3.8347956538200378e-01" purity="7.8530257940292358e-01" nType="-99"/>
        </Node>
        <Node pos="r" depth="1" NCoef="0" IVar="9" Cut="2.7750620245933533e-01" cType="1" res="-7.3424912989139557e-02" rms="4.2974755167961121e-01" purity="3.8248848915100098e-01" nType="0">
          <Node pos="l" depth="2" NCoef="0" IVar="-1" Cut="0.0000000000000000e+00" cType="1" res="7.6640229672193527e-03" rms="4.1520130634307861e-01" purity="7.0909088850021362e-01" nType="-99"/>
          <Node pos="r" depth="2" NCoef="0" IVar="-1" Cut="0.0000000000000000e+00" cType="1" res="-7.5683817267417908e-03" rms="4.2621994018554688e-01" purity="3.3725079894065857e-01" nType="-99"/>
        </Node>
      </Node>
    </BinaryTree>
    <BinaryTree type="DecisionTree" boostWeight="1.0000000000000000e+00" itree="44">
      <Node pos="s" depth="0" NCoef="0" IVar="3" Cut="5.2897510528564453e+01" cType="1" res="-3.0585678759962320e-03" rms="4.2248502373695374e-01" purity="4.9460825324058533e-01" nType="0">
        <Node pos="l" depth="1" NCoef="0" IVar="2" Cut="9.3185211181640625e+01" cType="1" res="-1.0725095123052597e-01" rms="3.8623130321502686e-01" purity="2.4121500551700592e-01" nType="0">
          <Node pos="l" depth="2" NCoef="0" IVar="-1" Cut="0.0000000000000000e+00" cType="1" res="-1.3010841794312000e-02" rms="3.3170694112777710e-01" purity="1.3606047630310059e-01" nType="-99"/>
          <Node pos="r" depth="2" NCoef="0" IVar="-1" Cut="0.0000000000000000e+00" cType="1" res="-1.8877871334552765e-03" rms="4.6763122081756592e-01" purity="4.5446348190307617e-01" nType="-99"/>
        </Node>
        <Node pos="r" depth="1" NCoef="0" IVar="0" Cut="1.9594732666015625e+02" cType="1" res="4.6074703335762024e-02" rms="4.2986738681793213e-01" purity="6.1409914493560791e-01" nType="0">
          <Node pos="l" depth="2" NCoef="0" IVar="-1" Cut="0.0000000000000000e+00" cType="1" res="6.0925045982003212e-03" rms="4.1712933778762817e-01" purity="6.5367484092712402e-01" nType="-99"/>
          <Node pos="r" depth="2" NCoef="0" IVar="-1" Cut="0.0000000000000000e+00" cType="1" res="-1.3986306264996529e-02" rms="4.4752115011215210e-01" purity="3.1616765260696411e-01" nType="-99"/>
        </Node>
      </Node>
    </BinaryTree>
    <BinaryTree type="DecisionTree" boostWeight="1.0000000000000000e+00" itree="45">
      <Node pos="s" depth="0" NCoef="0" IVar="1" Cut="5.4724819183349609e+01" cType="1" res="-7.3533477261662483e-03" rms="4.2209288477897644e-01" purity="4.9220219254493713e-01" nType="0">
        <Node pos="l" depth="1" NCoef="0" IVar="1" Cut="4.6174495697021484e+01" cType="1" res="-1.1868667602539062e-01" rms="3.9219093322753906e-01" purity="2.3386242985725403e-01" nType="0">
          <Node pos="l" depth="2" NCoef="0" IVar="-1" Cut="0.0000000000000000e+00" cType="1" res="-1.2209942564368248e-02" rms="3.6878859996795654e-01" purity="1.8044355511665344e-01" nType="-99"/>
          <Node pos="r" depth="2" NCoef="0" IVar="-1" Cut="0.0000000000000000e+00" cType="1" res="-4.5806909911334515e-03" rms="4.3602085113525391e-01" purity="3.5840189456939697e-01" nType="-99"/>
        </Node>
        <Node pos="r" depth="1" NCoef="0" IVar="1" Cut="1.0604827880859375e+02" cType="1" res="3.3065397292375565e-02" rms="4.2528623342514038e-01" purity="5.8599054813385010e-01" nType="0">
          <Node pos="l" depth="2" NCoef="0" IVar="-1" Cut="0.0000000000000000e+00" cType="1" res="6.1422889120876789e-03" rms="4.0715199708938599e-01" purity="6.4405173063278198e-01" nType="-99"/>
          <Node pos="r" depth="2" NCoef="0" IVar="-1" Cut="0.0000000000000000e+00" cType="1" res="-1.1496346443891525e-02" rms="4.4779604673385620e-01" purity="3.3582597970962524e-01" nType="-99"/>
        </Node>
      </Node>
    </BinaryTree>
    <BinaryTree type="DecisionTree" boostWeight="1.0000000000000000e+00" itree="46">
      <Node pos="s" depth="0" NCoef="0" IVar="6" Cut="2.1247395873069763e-01" cType="1" res="4.2033321224153042e-03" rms="4.2174199223518372e-01" purity="5.0775742530822754e-01" nType="0">
        <Node pos="l" depth="1" NCoef="0" IVar="0" Cut="1.4050891113281250e+02" cType="1" res="3.7213224917650223e-02" rms="4.1739055514335632e-01" purity="5.6664329767227173e-01" nType="0">
          <Node pos="l" depth="2" NCoef="0" IVar="-1" Cut="0.0000000000000000e+00" cType="1" res="-4.4211717322468758e-03" rms="4.2003643512725830e-01" purity="3.2489451766014099e-01" nType="-99"/>
          <Node pos="r" depth="2" NCoef="0" IVar="-1" Cut="0.0000000000000000e+00" cType="1" res="7.9124141484498978e-03" rms="4.0327751636505127e-01" purity="7.3808097839355469e-01" nType="-99"/>
        </Node>
        <Node pos="r" depth="1" NCoef="0" IVar="5" Cut="1.8819914245605469e+02" cType="1" res="-1.3262723386287689e-01" rms="4.1202256083488464e-01" purity="2.6366713643074036e-01" nType="0">
          <Node pos="l" depth="2" NCoef="0" IVar="-1" Cut="0.0000000000000000e+00" cType="1" res="-7.3011578060686588e-03" rms="4.1063162684440613e-01" purity="2.7871149778366089e-01" nType="-99"/>
          <Node pos="r" depth="2" NCoef="0" IVar="-1" Cut="0.0000000000000000e+00" cType="1" res="-1.6255561262369156e-02" rms="4.0002650022506714e-01" purity="2.3004694283008575e-01" nType="-99"/>
        </Node>
      </Node>
    </BinaryTree>
    <BinaryTree type="DecisionTree" boostWeight="1.0000000000000000e+00" itree="47">
      <Node pos="s" depth="0" NCoef="0" IVar="2" Cut="1.5578771972656250e+02" cType="1" res="-1.7853553872555494e-03" rms="4.2313107848167419e-01" purity="4.9631965160369873e-01" nType="0">
        <Node pos="l" depth="1" NCoef="0" IVar="7" Cut="-4.9970364570617676e-01" cType="1" res="1.4916800893843174e-02" rms="4.1904744505882263e-01" purity="5.1389592885971069e-01" nType="0">
          <Node pos="l" depth="2" NCoef="0" IVar="-1" Cut="0.0000000000000000e+00" cType="1" res="-7.1930354461073875e-03" rms="3.9257645606994629e-01" purity="3.0243301391601562e-01" nType="-99"/>
          <Node pos="r" depth="2" NCoef="0" IVar="-1" Cut="0.0000000000000000e+00" cType="1" res="4.9988091923296452e-03" rms="4.2278742790222168e-01" purity="6.1717808246612549e-01" nType="-99"/>
        </Node>
        <Node pos="r" depth="1" NCoef="0" IVar="-1" Cut="0.0000000000000000e+00" cType="1" res="-2.1092727780342102e-02" rms="3.8604077696800232e-01" purity="1.8904593586921692e-01" nType="-99"/>
      </Node>
    </BinaryTree>
    <BinaryTree type="DecisionTree" boostWeight="1.0000000000000000e+00" itree="48">
      <Node pos="s" depth="0" NCoef="0" IVar="2" Cut="6.7994155883789062e+01" cType="1" res="4.5685100485570729e-04" rms="4.2081633210182190e-01" purity="5.0066703557968140e-01" nType="0">
        <Node pos="l" depth="1" NCoef="0" IVar="7" Cut="-5.2622139453887939e-01" cType="1" res="-1.1575836688280106e-01" rms="3.6186307668685913e-01" purity="2.1280603110790253e-01" nType="0">
          <Node pos="l" depth="2" NCoef="0" IVar="-1" Cut="0.0000000000000000e+00" cType="1" res="-1.5136759728193283e-02" rms="2.9825189709663391e-01" purity="1.1317945271730423e-01" nType="-99"/>
          <Node pos="r" depth="2" NCoef="0" IVar="-1" Cut="0.0000000000000000e+00" cType="1" res="-5.5074025876820087e-03" rms="4.1157838702201843e-01" purity="3.1478658318519592e-01" nType="-99"/>
        </Node>
        <Node pos="r" depth="1" NCoef="0" IVar="6" Cut="1.8170943856239319e-01" cType="1" res="3.9817918092012405e-02" rms="4.3196117877960205e-01" purity="5.9816300868988037e-01" nType="0">
          <Node pos="l" depth="2" NCoef="0" IVar="-1" Cut="0.0000000000000000e+00" cType="1" res="6.6641229204833508e-03" rms="4.1634237766265869e-01" purity="6.8236303329467773e-01" nType="-99"/>
          <Node pos="r" depth="2" NCoef="0" IVar="-1" Cut="0.0000000000000000e+00" cType="1" res="-6.8390555679798126e-03" rms="4.4965472817420959e-01" purity="3.5217610001564026e-01" nType="-99"/>
        </Node>
      </Node>
    </BinaryTree>
    <BinaryTree type="DecisionTree" boostWeight="1.0000000000000000e+00" itree="49">
      <Node pos="s" depth="0" NCoef="0" IVar="9" Cut="3.4640389680862427e-01" cType="1" res="1.2133932905271649e-03" rms="4.2148542404174805e-01" purity="5.0205719470977783e-01" nType="0">
        <Node pos="l" depth="1" NCoef="0" IVar="5" Cut="2.1850817871093750e+02" cType="1" res="9.3836717307567596e-02" rms="3.9750796556472778e-01" purity="7.2951543331146240e-01" nType="0">
          <Node pos="l" depth="2" NCoef="0" IVar="-1" Cut="0.0000000000000000e+00" cType="1" res="1.0214009322226048e-02" rms="3.7164101004600525e-01" purity="7.7342659235000610e-01" nType="-99"/>
          <Node pos="r" depth="2" NCoef="0" IVar="-1" Cut="0.0000000000000000e+00" cType="1" res="-5.2251960150897503e-03" rms="4.7938671708106995e-01" purity="4.9908256530761719e-01" nType="-99"/>
        </Node>
        <Node pos="r" depth="1" NCoef="0" IVar="7" Cut="-5.0546765327453613e-01" cType="1" res="-4.3547097593545914e-02" rms="4.2542970180511475e-01" purity="3.9213737845420837e-01" nType="0">
          <Node pos="l" depth="2" NCoef="0" IVar="-1" Cut="0.0000000000000000e+00" cType="1" res="-1.0589789599180222e-02" rms="3.6219048500061035e-01" purity="1.9825707376003265e-01" nType="-99"/>
          <Node pos="r" depth="2" NCoef="0" IVar="-1" Cut="0.0000000000000000e+00" cType="1" res="-4.7582914703525603e-04" rms="4.4808259606361389e-01" purity="4.8579245805740356e-01" nType="-99"/>
        </Node>
      </Node>
    </BinaryTree>
    <BinaryTree type="DecisionTree" boostWeight="1.0000000000000000e+00" itree="50">
      <Node pos="s" depth="0" NCoef="0" IVar="6" Cut="7.7773451805114746e-02" cType="1" res="-4.9326955340802670e-03" rms="4.2002451419830322e-01" purity="4.9594271183013916e-01" nType="0">
        <Node pos="l" depth="1" NCoef="0" IVar="0" Cut="1.3932643127441406e+02" cType="1" res="6.9778516888618469e-02" rms="3.9416241645812988e-01" purity="6.2981885671615601e-01" nType="0">
          <Node pos="l" depth="2" NCoef="0" IVar="-1" Cut="0.0000000000000000e+00" cType="1" res="-4.6415058895945549e-03" rms="4.1085720062255859e-01" purity="3.1615775823593140e-01" nType="-99"/>
          <Node pos="r" depth="2" NCoef="0" IVar="-1" Cut="0.0000000000000000e+00" cType="1" res="1.1420427821576595e-02" rms="3.6530515551567078e-01" purity="8.1016826629638672e-01" nType="-99"/>
        </Node>
        <Node pos="r" depth="1" NCoef="0" IVar="5" Cut="2.1505857849121094e+02" cType="1" res="-5.7081580162048340e-02" rms="4.2953765392303467e-01" purity="4.0249633789062500e-01" nType="0">
          <Node pos="l" depth="2" NCoef="0" IVar="-1" Cut="0.0000000000000000e+00" cType="1" res="-2.5170200970023870e-03" rms="4.2392894625663757e-01" purity="4.2379039525985718e-01" nType="-99"/>
          <Node pos="r" depth="2" NCoef="0" IVar="-1" Cut="0.0000000000000000e+00" cType="1" res="-1.4551540836691856e-02" rms="4.3239176273345947e-01" purity="2.8404256701469421e-01" nType="-99"/>
        </Node>
      </Node>
    </BinaryTree>
    <BinaryTree type="DecisionTree" boostWeight="1.0000000000000000e+00" itree="51">
      <Node pos="s" depth="0" NCoef="0" IVar="9" Cut="4.6446001529693604e-01" cType="1" res="3.4653831971809268e-04" rms="4.1617599129676819e-01" purity="5.0283074378967285e-01" nType="0">
        <Node pos="l" depth="1" NCoef="0" IVar="7" Cut="-1.0488086938858032e+00" cType="1" res="5.7143535465002060e-02" rms="4.1424840688705444e-01" purity="6.4905780553817749e-01" nType="0">
          <Node pos="l" depth="2" NCoef="0" IVar="-1" Cut="0.0000000000000000e+00" cType="1" res="-7.0163207128643990e-03" rms="4.2010512948036194e-01" purity="3.4307992458343506e-01" nType="-99"/>
          <Node pos="r" depth="2" NCoef="0" IVar="-1" Cut="0.0000000000000000e+00" cType="1" res="6.8158386275172234e-03" rms="4.0702012181282043e-01" purity="7.0962762832641602e-01" nType="-99"/>
        </Node>
        <Node pos="r" depth="1" NCoef="0" IVar="5" Cut="1.9957521057128906e+02" cType="1" res="-8.0002643167972565e-02" rms="4.0552106499671936e-01" purity="2.9596719145774841e-01" nType="0">
          <Node pos="l" depth="2" NCoef="0" IVar="-1" Cut="0.0000000000000000e+00" cType="1" res="-4.7228476032614708e-03" rms="4.0164121985435486e-01" purity="3.0299726128578186e-01" nType="-99"/>
          <Node pos="r" depth="2" NCoef="0" IVar="-1" Cut="0.0000000000000000e+00" cType="1" res="-1.4492815360426903e-02" rms="4.0465739369392395e-01" purity="2.6008343696594238e-01" nType="-99"/>
        </Node>
      </Node>
    </BinaryTree>
    <BinaryTree type="DecisionTree" boostWeight="1.0000000000000000e+00" itree="52">
      <Node pos="s" depth="0" NCoef="0" IVar="6" Cut="2.0173794031143188e-01" cType="1" res="-1.2068731011822820e-03" rms="4.1593518853187561e-01" purity="5.0076103210449219e-01" nType="0">
        <Node pos="l" depth="1" NCoef="0" IVar="0" Cut="1.1272467041015625e+02" cType="1" res="3.4052103757858276e-02" rms="4.1110494732856750e-01" purity="5.6899070739746094e-01" nType="0">
          <Node pos="l" depth="2" NCoef="0" IVar="-1" Cut="0.0000000000000000e+00" cType="1" res="-9.4593008980154991e-03" rms="3.4728956222534180e-01" purity="1.5484234690666199e-01" nType="-99"/>
          <Node pos="r" depth="2" NCoef="0" IVar="-1" Cut="0.0000000000000000e+00" cType="1" res="5.6094918400049210e-03" rms="4.1936665773391724e-01" purity="6.8341630697250366e-01" nType="-99"/>
        </Node>
        <Node pos="r" depth="1" NCoef="0" IVar="5" Cut="1.9288356018066406e+02" cType="1" res="-1.2653818726539612e-01" rms="4.0874809026718140e-01" purity="2.5823223590850830e-01" nType="0">
          <Node pos="l" depth="2" NCoef="0" IVar="-1" Cut="0.0000000000000000e+00" cType="1" res="-6.9231223315000534e-03" rms="4.1210824251174927e-01" purity="2.8288286924362183e-01" nType="-99"/>
          <Node pos="r" depth="2" NCoef="0" IVar="-1" Cut="0.0000000000000000e+00" cType="1" res="-1.7084093764424324e-02" rms="3.7992575764656067e-01" purity="1.9440124928951263e-01" nType="-99"/>
        </Node>
      </Node>
    </BinaryTree>
    <BinaryTree type="DecisionTree" boostWeight="1.0000000000000000e+00" itree="53">
      <Node pos="s" depth="0" NCoef="0" IVar="9" Cut="3.5124042630195618e-01" cType="1" res="2.5421150494366884e-03" rms="4.1702574491500854e-01" purity="5.0539582967758179e-01" nType="0">
        <Node pos="l" depth="1" NCoef="0" IVar="5" Cut="2.1648501586914062e+02" cType="1" res="8.9189432561397552e-02" rms="3.9729937911033630e-01" purity="7.3324060440063477e-01" nType="0">
          <Node pos="l" depth="2" NCoef="0" IVar="-1" Cut="0.0000000000000000e+00" cType="1" res="9.8087172955274582e-03" rms="3.7320733070373535e-01" purity="7.7431130409240723e-01" nType="-99"/>
          <Node pos="r" depth="2" NCoef="0" IVar="-1" Cut="0.0000000000000000e+00" cType="1" res="-4.3390844948589802e-03" rms="4.7720402479171753e-01" purity="5.2061855792999268e-01" nType="-99"/>
        </Node>
        <Node pos="r" depth="1" NCoef="0" IVar="5" Cut="2.1898524475097656e+02" cType="1" res="-4.2759962379932404e-02" rms="4.1991844773292542e-01" purity="3.8627108931541443e-01" nType="0">
          <Node pos="l" depth="2" NCoef="0" IVar="-1" Cut="0.0000000000000000e+00" cType="1" res="-2.0250615198165178e-03" rms="4.1849702596664429e-01" purity="4.0244099497795105e-01" nType="-99"/>
          <Node pos="r" depth="2" NCoef="0" IVar="-1" Cut="0.0000000000000000e+00" cType="1" res="-1.5853067860007286e-02" rms="3.9395993947982788e-01" purity="2.3112480342388153e-01" nType="-99"/>
        </Node>
      </Node>
    </BinaryTree>
    <BinaryTree type="DecisionTree" boostWeight="1.0000000000000000e+00" itree="54">
      <Node pos="s" depth="0" NCoef="0" IVar="9" Cut="3.6499762535095215e-01" cType="1" res="-8.2590589299798012e-03" rms="4.1709291934967041e-01" purity="4.8966863751411438e-01" nType="0">
        <Node pos="l" depth="1" NCoef="0" IVar="7" Cut="-6.6027587652206421e-01" cType="1" res="7.6684452593326569e-02" rms="4.0055987238883972e-01" purity="7.1410769224166870e-01" nType="0">
          <Node pos="l" depth="2" NCoef="0" IVar="-1" Cut="0.0000000000000000e+00" cType="1" res="-2.9040584340691566e-03" rms="4.5494991540908813e-01" purity="5.0209206342697144e-01" nType="-99"/>
          <Node pos="r" depth="2" NCoef="0" IVar="-1" Cut="0.0000000000000000e+00" cType="1" res="9.2437779530882835e-03" rms="3.7493464350700378e-01" purity="7.8043192625045776e-01" nType="-99"/>
        </Node>
        <Node pos="r" depth="1" NCoef="0" IVar="5" Cut="2.1172886657714844e+02" cType="1" res="-5.8881960809230804e-02" rms="4.1852131485939026e-01" purity="3.5591205954551697e-01" nType="0">
          <Node pos="l" depth="2" NCoef="0" IVar="-1" Cut="0.0000000000000000e+00" cType="1" res="-3.0310151632875204e-03" rms="4.1703894734382629e-01" purity="3.7299308180809021e-01" nType="-99"/>
          <Node pos="r" depth="2" NCoef="0" IVar="-1" Cut="0.0000000000000000e+00" cType="1" res="-1.6076711937785149e-02" rms="3.9455932378768921e-01" purity="2.3190183937549591e-01" nType="-99"/>
        </Node>
      </Node>
    </BinaryTree>
    <BinaryTree type="DecisionTree" boostWeight="1.0000000000000000e+00" itree="55">
      <Node pos="s" depth="0" NCoef="0" IVar="2" Cut="6.9202384948730469e+01" cType="1" res="-2.7263988740742207e-03" rms="4.1591268777847290e-01" purity="4.9723652005195618e-01" nType="0">
        <Node pos="l" depth="1" NCoef="0" IVar="3" Cut="6.8317344665527344e+01" cType="1" res="-1.0865929722785950e-01" rms="3.6031076312065125e-01" purity="2.1067926287651062e-01" nType="0">
          <Node pos="l" depth="2" NCoef="0" IVar="-1" Cut="0.0000000000000000e+00" cType="1" res="-1.2799144722521305e-02" rms="3.1884893774986267e-01" purity="1.2157268822193146e-01" nType="-99"/>
          <Node pos="r" depth="2" NCoef="0" IVar="-1" Cut="0.0000000000000000e+00" cType="1" res="-3.5823737271130085e-03" rms="4.3659937381744385e-01" purity="4.2073169350624084e-01" nType="-99"/>
        </Node>
        <Node pos="r" depth="1" NCoef="0" IVar="5" Cut="2.3352308654785156e+02" cType="1" res="3.4947451204061508e-02" rms="4.2769423127174377e-01" purity="5.9914737939834595e-01" nType="0">
          <Node pos="l" depth="2" NCoef="0" IVar="-1" Cut="0.0000000000000000e+00" cType="1" res="4.5368941500782967e-03" rms="4.1964551806449890e-01" purity="6.2982076406478882e-01" nType="-99"/>
          <Node pos="r" depth="2" NCoef="0" IVar="-1" Cut="0.0000000000000000e+00" cType="1" res="-1.2260169722139835e-02" rms="4.4630655646324158e-01" purity="3.1984335184097290e-01" nType="-99"/>
        </Node>
      </Node>
    </BinaryTree>
    <BinaryTree type="DecisionTree" boostWeight="1.0000000000000000e+00" itree="56">
      <Node pos="s" depth="0" NCoef="0" IVar="9" Cut="3.4849578142166138e-01" cType="1" res="-3.3934419043362141e-03" rms="4.1924151778221130e-01" purity="4.9292519688606262e-01" nType="0">
        <Node pos="l" depth="1" NCoef="0" IVar="1" Cut="9.6929626464843750e+01" cType="1" res="8.0475814640522003e-02" rms="3.9745983481407166e-01" purity="7.2408759593963623e-01" nType="0">
          <Node pos="l" depth="2" NCoef="0" IVar="-1" Cut="0.0000000000000000e+00" cType="1" res="9.9655529484152794e-03" rms="3.6703434586524963e-01" purity="7.7582335472106934e-01" nType="-99"/>
          <Node pos="r" depth="2" NCoef="0" IVar="-1" Cut="0.0000000000000000e+00" cType="1" res="-4.1023432277143002e-03" rms="4.6594312787055969e-01" purity="5.4050463438034058e-01" nType="-99"/>
        </Node>
        <Node pos="r" depth="1" NCoef="0" IVar="9" Cut="6.4414715766906738e-01" cType="1" res="-4.4641606509685516e-02" rms="4.2349919676780701e-01" purity="3.7923607230186462e-01" nType="0">
          <Node pos="l" depth="2" NCoef="0" IVar="-1" Cut="0.0000000000000000e+00" cType="1" res="-1.5515588456764817e-03" rms="4.3680715560913086e-01" purity="4.3463993072509766e-01" nType="-99"/>
          <Node pos="r" depth="2" NCoef="0" IVar="-1" Cut="0.0000000000000000e+00" cType="1" res="-1.1986653320491314e-02" rms="3.5477089881896973e-01" purity="1.7376606166362762e-01" nType="-99"/>
        </Node>
      </Node>
    </BinaryTree>
    <BinaryTree type="DecisionTree" boostWeight="1.0000000000000000e+00" itree="57">
      <Node pos="s" depth="0" NCoef="0" IVar="9" Cut="5.3625178337097168e-01" cType="1" res="-4.8838187940418720e-03" rms="4.1646653413772583e-01" purity="4.9406820535659790e-01" nType="0">
        <Node pos="l" depth="1" NCoef="0" IVar="7" Cut="-5.0624930858612061e-01" cType="1" res="3.1319715082645416e-02" rms="4.2091810703277588e-01" purity="5.9388023614883423e-01" nType="0">
          <Node pos="l" depth="2" NCoef="0" IVar="-1" Cut="0.0000000000000000e+00" cType="1" res="-4.3217600323259830e-03" rms="4.1768774390220642e-01" purity="3.9574816823005676e-01" nType="-99"/>
          <Node pos="r" depth="2" NCoef="0" IVar="-1" Cut="0.0000000000000000e+00" cType="1" res="5.6334235705435276e-03" rms="4.1666543483734131e-01" purity="6.8647307157516479e-01" nType="-99"/>
        </Node>
        <Node pos="r" depth="1" NCoef="0" IVar="1" Cut="8.8333091735839844e+01" cType="1" res="-9.6798911690711975e-02" rms="3.9013373851776123e-01" purity="2.4066115915775299e-01" nType="0">
          <Node pos="l" depth="2" NCoef="0" IVar="-1" Cut="0.0000000000000000e+00" cType="1" res="-6.7983218468725681e-03" rms="3.8843995332717896e-01" purity="2.4763472378253937e-01" nType="-99"/>
          <Node pos="r" depth="2" NCoef="0" IVar="-1" Cut="0.0000000000000000e+00" cType="1" res="-1.3189803808927536e-02" rms="3.8811790943145752e-01" purity="2.1212121844291687e-01" nType="-99"/>
        </Node>
      </Node>
    </BinaryTree>
    <BinaryTree type="DecisionTree" boostWeight="1.0000000000000000e+00" itree="58">
      <Node pos="s" depth="0" NCoef="0" IVar="9" Cut="3.2049614191055298e-01" cType="1" res="-6.2671336345374584e-03" rms="4.1627478599548340e-01" purity="4.8918032646179199e-01" nType="0">
        <Node pos="l" depth="1" NCoef="0" IVar="5" Cut="2.1426515197753906e+02" cType="1" res="8.3572253584861755e-02" rms="3.8873696327209473e-01" purity="7.3605298995971680e-01" nType="0">
          <Node pos="l" depth="2" NCoef="0" IVar="-1" Cut="0.0000000000000000e+00" cType="1" res="1.0380796156823635e-02" rms="3.5381922125816345e-01" purity="7.9083836078643799e-01" nType="-99"/>
          <Node pos="r" depth="2" NCoef="0" IVar="-1" Cut="0.0000000000000000e+00" cType="1" res="-5.6530283764004707e-03" rms="4.7715395689010620e-01" purity="5.0722020864486694e-01" nType="-99"/>
        </Node>
        <Node pos="r" depth="1" NCoef="0" IVar="7" Cut="-9.7803479433059692e-01" cType="1" res="-3.9270766079425812e-02" rms="4.2115822434425354e-01" purity="3.9848852157592773e-01" nType="0">
          <Node pos="l" depth="2" NCoef="0" IVar="-1" Cut="0.0000000000000000e+00" cType="1" res="-1.2635938823223114e-02" rms="3.3499264717102051e-01" purity="1.5121343731880188e-01" nType="-99"/>
          <Node pos="r" depth="2" NCoef="0" IVar="-1" Cut="0.0000000000000000e+00" cType="1" res="-1.1055305367335677e-03" rms="4.3721988797187805e-01" purity="4.6258065104484558e-01" nType="-99"/>
        </Node>
      </Node>
    </BinaryTree>
    <BinaryTree type="DecisionTree" boostWeight="1.0000000000000000e+00" itree="59">
      <Node pos="s" depth="0" NCoef="0" IVar="7" Cut="-5.0546765327453613e-01" cType="1" res="3.6376673961058259e-04" rms="4.1478025913238525e-01" purity="5.0129508972167969e-01" nType="0">
        <Node pos="l" depth="1" NCoef="0" IVar="0" Cut="1.4662977600097656e+02" cType="1" res="-8.4478840231895447e-02" rms="3.8454037904739380e-01" purity="2.9316547513008118e-01" nType="0">
          <Node pos="l" depth="2" NCoef="0" IVar="-1" Cut="0.0000000000000000e+00" cType="1" res="-1.0069860145449638e-02" rms="3.6792504787445068e-01" purity="2.0817980170249939e-01" nType="-99"/>
          <Node pos="r" depth="2" NCoef="0" IVar="-1" Cut="0.0000000000000000e+00" cType="1" res="2.8423713520169258e-03" rms="4.2959025502204895e-01" purity="6.6398715972900391e-01" nType="-99"/>
        </Node>
        <Node pos="r" depth="1" NCoef="0" IVar="5" Cut="2.1703999328613281e+02" cType="1" res="3.8233038038015366e-02" rms="4.2211905121803284e-01" purity="5.9419322013854980e-01" nType="0">
          <Node pos="l" depth="2" NCoef="0" IVar="-1" Cut="0.0000000000000000e+00" cType="1" res="5.8144275099039078e-03" rms="4.0897521376609802e-01" purity="6.4003849029541016e-01" nType="-99"/>
          <Node pos="r" depth="2" NCoef="0" IVar="-1" Cut="0.0000000000000000e+00" cType="1" res="-9.6424296498298645e-03" rms="4.4640988111495972e-01" purity="3.6370968818664551e-01" nType="-99"/>
        </Node>
      </Node>
    </BinaryTree>
    <BinaryTree type="DecisionTree" boostWeight="1.0000000000000000e+00" itree="60">
      <Node pos="s" depth="0" NCoef="0" IVar="2" Cut="7.0558319091796875e+01" cType="1" res="-1.7981139244511724e-03" rms="4.1298279166221619e-01" purity="4.9528658390045166e-01" nType="0">
        <Node pos="l" depth="1" NCoef="0" IVar="3" Cut="7.4467346191406250e+01" cType="1" res="-9.4096720218658447e-02" rms="3.6451727151870728e-01" purity="2.2093813121318817e-01" nType="0">
          <Node pos="l" depth="2" NCoef="0" IVar="-1" Cut="0.0000000000000000e+00" cType="1" res="-1.1012928560376167e-02" rms="3.3262827992439270e-01" purity="1.4216120541095734e-01" nType="-99"/>
          <Node pos="r" depth="2" NCoef="0" IVar="-1" Cut="0.0000000000000000e+00" cType="1" res="-1.9411091925576329e-03" rms="4.4722098112106323e-01" purity="4.8099416494369507e-01" nType="-99"/>
        </Node>
        <Node pos="r" depth="1" NCoef="0" IVar="0" Cut="1.9831600952148438e+02" cType="1" res="3.3623553812503815e-02" rms="4.2484349012374878e-01" purity="6.0057395696640015e-01" nType="0">
          <Node pos="l" depth="2" NCoef="0" IVar="-1" Cut="0.0000000000000000e+00" cType="1" res="4.6093496493995190e-03" rms="4.1605478525161743e-01" purity="6.3649785518646240e-01" nType="-99"/>
          <Node pos="r" depth="2" NCoef="0" IVar="-1" Cut="0.0000000000000000e+00" cType="1" res="-1.0746898129582405e-02" rms="4.4697296619415283e-01" purity="3.2810750603675842e-01" nType="-99"/>
        </Node>
      </Node>
    </BinaryTree>
    <BinaryTree type="DecisionTree" boostWeight="1.0000000000000000e+00" itree="61">
      <Node pos="s" depth="0" NCoef="0" IVar="1" Cut="9.7306907653808594e+01" cType="1" res="3.4568710252642632e-03" rms="4.1497078537940979e-01" purity="5.0336140394210815e-01" nType="0">
        <Node pos="l" depth="1" NCoef="0" IVar="1" Cut="6.1410736083984375e+01" cType="1" res="2.9628865420818329e-02" rms="4.0309166908264160e-01" purity="5.2937096357345581e-01" nType="0">
          <Node pos="l" depth="2" NCoef="0" IVar="-1" Cut="0.0000000000000000e+00" cType="1" res="-5.8454633690416813e-03" rms="4.0679091215133667e-01" purity="2.8815457224845886e-01" nType="-99"/>
          <Node pos="r" depth="2" NCoef="0" IVar="-1" Cut="0.0000000000000000e+00" cType="1" res="8.1940395757555962e-03" rms="3.8586899638175964e-01" purity="6.9903486967086792e-01" nType="-99"/>
        </Node>
        <Node pos="r" depth="1" NCoef="0" IVar="1" Cut="1.3221366882324219e+02" cType="1" res="-1.1485750228166580e-01" rms="4.4613564014434814e-01" purity="3.8578149676322937e-01" nType="0">
          <Node pos="l" depth="2" NCoef="0" IVar="-1" Cut="0.0000000000000000e+00" cType="1" res="-5.3033349104225636e-03" rms="4.5993429422378540e-01" purity="4.6925565600395203e-01" nType="-99"/>
          <Node pos="r" depth="2" NCoef="0" IVar="-1" Cut="0.0000000000000000e+00" cType="1" res="-1.4655103906989098e-02" rms="4.0726554393768311e-01" purity="2.3338256776332855e-01" nType="-99"/>
        </Node>
      </Node>
    </BinaryTree>
    <BinaryTree type="DecisionTree" boostWeight="1.0000000000000000e+00" itree="62">
      <Node pos="s" depth="0" NCoef="0" IVar="3" Cut="6.5157005310058594e+01" cType="1" res="-4.9647698178887367e-03" rms="4.1299039125442505e-01" purity="4.9484342336654663e-01" nType="0">
        <Node pos="l" depth="1" NCoef="0" IVar="1" Cut="1.0983422851562500e+02" cType="1" res="-6.8301774561405182e-02" rms="4.0155553817749023e-01" purity="3.0595311522483826e-01" nType="0">
          <Node pos="l" depth="2" NCoef="0" IVar="-1" Cut="0.0000000000000000e+00" cType="1" res="-4.1940817609429359e-03" rms="4.0153667330741882e-01" purity="3.2297992706298828e-01" nType="-99"/>
          <Node pos="r" depth="2" NCoef="0" IVar="-1" Cut="0.0000000000000000e+00" cType="1" res="-1.7125235870480537e-02" rms="3.6577242612838745e-01" purity="1.7068645358085632e-01" nType="-99"/>
        </Node>
